<?xml version="1.0"?>
<MethodSetup Method="DL::DNN_CPU">
  <GeneralInfo>
    <Info name="TMVA Release" value="4.2.1 [262657]"/>
    <Info name="ROOT Release" value="6.24/02 [399362]"/>
    <Info name="Creator" value="tmengel"/>
    <Info name="Date" value="Mon May  2 22:02:33 2022"/>
    <Info name="Host" value="Linux root-ubuntu-2004-1 5.4.0-73-generic #82-Ubuntu SMP Wed Apr 14 17:39:42 UTC 2021 x86_64 x86_64 x86_64 GNU/Linux"/>
    <Info name="Dir" value="/home/tmengel/phys643/phys643project/final"/>
    <Info name="Training events" value="194817"/>
    <Info name="TrainingTime" value="3.95939381e+02"/>
    <Info name="AnalysisType" value="Classification"/>
  </GeneralInfo>
  <Options>
    <Option name="V" modified="Yes">True</Option>
    <Option name="VerbosityLevel" modified="No">Verbose</Option>
    <Option name="VarTransform" modified="Yes">N</Option>
    <Option name="H" modified="Yes">False</Option>
    <Option name="CreateMVAPdfs" modified="No">False</Option>
    <Option name="IgnoreNegWeightsInTraining" modified="No">False</Option>
    <Option name="InputLayout" modified="No">0|0|0</Option>
    <Option name="BatchLayout" modified="No">0|0|0</Option>
    <Option name="Layout" modified="Yes">TANH|64,TANH|128,TANH|128,SIGMOID|128,LINEAR</Option>
    <Option name="ErrorStrategy" modified="Yes">CROSSENTROPY</Option>
    <Option name="WeightInitialization" modified="Yes">XAVIERUNIFORM</Option>
    <Option name="RandomSeed" modified="No">0</Option>
    <Option name="ValidationSize" modified="No">20%</Option>
    <Option name="Architecture" modified="Yes">CPU</Option>
    <Option name="TrainingStrategy" modified="Yes">LearningRate=1e-2,Momentum=0.9,ConvergenceSteps=20,BatchSize=100,TestRepetitions=1,WeightDecay=1e-4,Regularization=None,DropConfig=0.5+0.5+0.5+0.5</Option>
  </Options>
  <Variables NVar="12">
    <Variable VarIndex="0" Expression="d0Pt" Label="d0Pt" Title="d0Pt" Unit="" Internal="d0Pt" Type="F" Min="5.43721952e-03" Max="2.32497463e+01"/>
    <Variable VarIndex="1" Expression="d0E" Label="d0E" Title="d0E" Unit="" Internal="d0E" Type="F" Min="1.86722505e+00" Max="6.99731445e+01"/>
    <Variable VarIndex="2" Expression="pionPt" Label="pionPt" Title="pionPt" Unit="" Internal="pionPt" Type="F" Min="1.37880223e-03" Max="1.56195784e+01"/>
    <Variable VarIndex="3" Expression="pionE" Label="pionE" Title="pionE" Unit="" Internal="pionE" Type="F" Min="1.39762372e-01" Max="5.23506584e+01"/>
    <Variable VarIndex="4" Expression="kaonPt" Label="kaonPt" Title="kaonPt" Unit="" Internal="kaonPt" Type="F" Min="2.15000100e-03" Max="1.66840763e+01"/>
    <Variable VarIndex="5" Expression="kaonE" Label="kaonE" Title="kaonE" Unit="" Internal="kaonE" Type="F" Min="4.94090647e-01" Max="5.14525375e+01"/>
    <Variable VarIndex="6" Expression="DecayLength" Label="DecayLength" Title="DecayLength" Unit="" Internal="DecayLength" Type="F" Min="1.63714367e-06" Max="6.59265366e+01"/>
    <Variable VarIndex="7" Expression="cosTheta" Label="cosTheta" Title="cosTheta" Unit="" Internal="cosTheta" Type="F" Min="2.38922657e-05" Max="9.99999762e-01"/>
    <Variable VarIndex="8" Expression="DCA_D0" Label="DCA_D0" Title="DCA_D0" Unit="" Internal="DCA_D0" Type="F" Min="1.35618632e-06" Max="2.19433060e+01"/>
    <Variable VarIndex="9" Expression="DCA_Pion" Label="DCA_Pion" Title="DCA_Pion" Unit="" Internal="DCA_Pion" Type="F" Min="1.65389641e-03" Max="5.85464722e+02"/>
    <Variable VarIndex="10" Expression="DCA_Kaon" Label="DCA_Kaon" Title="DCA_Kaon" Unit="" Internal="DCA_Kaon" Type="F" Min="2.41448963e-03" Max="4.72655579e+02"/>
    <Variable VarIndex="11" Expression="DCA_piK" Label="DCA_piK" Title="DCA_piK" Unit="" Internal="DCA_piK" Type="F" Min="1.79791891e-06" Max="7.95329666e+01"/>
  </Variables>
  <Spectators NSpec="6">
    <Spectator SpecIndex="0" Expression="kaonPhi" Label="kaonPhi" Title="F" Unit="" Internal="kaonPhi" Type="F" Min="-3.14156342e+00" Max="3.14157963e+00"/>
    <Spectator SpecIndex="1" Expression="kaonEta" Label="kaonEta" Title="F" Unit="" Internal="kaonEta" Type="F" Min="-7.58529043e+00" Max="7.69784546e+00"/>
    <Spectator SpecIndex="2" Expression="pionPhi" Label="pionPhi" Title="F" Unit="" Internal="pionPhi" Type="F" Min="-3.14158821e+00" Max="3.14157128e+00"/>
    <Spectator SpecIndex="3" Expression="pionEta" Label="pionEta" Title="F" Unit="" Internal="pionEta" Type="F" Min="-6.05347109e+00" Max="6.36622906e+00"/>
    <Spectator SpecIndex="4" Expression="d0Phi" Label="d0Phi" Title="F" Unit="" Internal="d0Phi" Type="F" Min="-3.14159203e+00" Max="3.14155197e+00"/>
    <Spectator SpecIndex="5" Expression="d0Eta" Label="d0Eta" Title="F" Unit="" Internal="d0Eta" Type="F" Min="-6.15902948e+00" Max="6.41668320e+00"/>
  </Spectators>
  <Classes NClass="2">
    <Class Name="Signal" Index="0"/>
    <Class Name="Background" Index="1"/>
  </Classes>
  <Transformations NTransformations="1">
    <Transform Name="Normalize">
      <Selection>
        <Input NInputs="12">
          <Input Type="Variable" Label="d0Pt" Expression="d0Pt"/>
          <Input Type="Variable" Label="d0E" Expression="d0E"/>
          <Input Type="Variable" Label="pionPt" Expression="pionPt"/>
          <Input Type="Variable" Label="pionE" Expression="pionE"/>
          <Input Type="Variable" Label="kaonPt" Expression="kaonPt"/>
          <Input Type="Variable" Label="kaonE" Expression="kaonE"/>
          <Input Type="Variable" Label="DecayLength" Expression="DecayLength"/>
          <Input Type="Variable" Label="cosTheta" Expression="cosTheta"/>
          <Input Type="Variable" Label="DCA_D0" Expression="DCA_D0"/>
          <Input Type="Variable" Label="DCA_Pion" Expression="DCA_Pion"/>
          <Input Type="Variable" Label="DCA_Kaon" Expression="DCA_Kaon"/>
          <Input Type="Variable" Label="DCA_piK" Expression="DCA_piK"/>
        </Input>
        <Output NOutputs="12">
          <Output Type="Variable" Label="d0Pt" Expression="d0Pt"/>
          <Output Type="Variable" Label="d0E" Expression="d0E"/>
          <Output Type="Variable" Label="pionPt" Expression="pionPt"/>
          <Output Type="Variable" Label="pionE" Expression="pionE"/>
          <Output Type="Variable" Label="kaonPt" Expression="kaonPt"/>
          <Output Type="Variable" Label="kaonE" Expression="kaonE"/>
          <Output Type="Variable" Label="DecayLength" Expression="DecayLength"/>
          <Output Type="Variable" Label="cosTheta" Expression="cosTheta"/>
          <Output Type="Variable" Label="DCA_D0" Expression="DCA_D0"/>
          <Output Type="Variable" Label="DCA_Pion" Expression="DCA_Pion"/>
          <Output Type="Variable" Label="DCA_Kaon" Expression="DCA_Kaon"/>
          <Output Type="Variable" Label="DCA_piK" Expression="DCA_piK"/>
        </Output>
      </Selection>
      <Class ClassIndex="0">
        <Ranges>
          <Range Index="0" Min="5.4372195154428482e-03" Max="2.3249746322631836e+01"/>
          <Range Index="1" Min="1.8672250509262085e+00" Max="6.9973144531250000e+01"/>
          <Range Index="2" Min="1.3788022333756089e-03" Max="1.5619578361511230e+01"/>
          <Range Index="3" Min="1.3976237177848816e-01" Max="5.2350658416748047e+01"/>
          <Range Index="4" Min="2.1500010043382645e-03" Max="1.6684076309204102e+01"/>
          <Range Index="5" Min="4.9409064650535583e-01" Max="5.1452537536621094e+01"/>
          <Range Index="6" Min="1.6371436686313245e-06" Max="6.5926536560058594e+01"/>
          <Range Index="7" Min="2.3892265744507313e-05" Max="9.9999976158142090e-01"/>
          <Range Index="8" Min="1.3561863170252764e-06" Max="2.1943305969238281e+01"/>
          <Range Index="9" Min="1.6538964118808508e-03" Max="5.8546472167968750e+02"/>
          <Range Index="10" Min="2.4144896306097507e-03" Max="4.7265557861328125e+02"/>
          <Range Index="11" Min="1.7979189124162076e-06" Max="7.9532966613769531e+01"/>
        </Ranges>
      </Class>
      <Class ClassIndex="1">
        <Ranges>
          <Range Index="0" Min="1.5486654639244080e-01" Max="1.6252563476562500e+01"/>
          <Range Index="1" Min="1.8717192411422729e+00" Max="1.9841041564941406e+01"/>
          <Range Index="2" Min="4.4500734657049179e-02" Max="1.1694327354431152e+01"/>
          <Range Index="3" Min="1.5428383648395538e-01" Max="1.3158123016357422e+01"/>
          <Range Index="4" Min="5.7219251990318298e-02" Max="1.5515702247619629e+01"/>
          <Range Index="5" Min="4.9679458141326904e-01" Max="1.6625556945800781e+01"/>
          <Range Index="6" Min="3.6244704388082027e-03" Max="2.9138347625732422e+01"/>
          <Range Index="7" Min="9.7806926351040602e-04" Max="9.9998646974563599e-01"/>
          <Range Index="8" Min="4.7021385398693383e-04" Max="2.0992895126342773e+01"/>
          <Range Index="9" Min="1.6924314200878143e-02" Max="1.5278721618652344e+02"/>
          <Range Index="10" Min="1.5739092603325844e-02" Max="1.9248536682128906e+02"/>
          <Range Index="11" Min="3.9853588677942753e-03" Max="3.9122867584228516e+01"/>
        </Ranges>
      </Class>
      <Class ClassIndex="2">
        <Ranges>
          <Range Index="0" Min="5.4372195154428482e-03" Max="2.3249746322631836e+01"/>
          <Range Index="1" Min="1.8672250509262085e+00" Max="6.9973144531250000e+01"/>
          <Range Index="2" Min="1.3788022333756089e-03" Max="1.5619578361511230e+01"/>
          <Range Index="3" Min="1.3976237177848816e-01" Max="5.2350658416748047e+01"/>
          <Range Index="4" Min="2.1500010043382645e-03" Max="1.6684076309204102e+01"/>
          <Range Index="5" Min="4.9409064650535583e-01" Max="5.1452537536621094e+01"/>
          <Range Index="6" Min="1.6371436686313245e-06" Max="6.5926536560058594e+01"/>
          <Range Index="7" Min="2.3892265744507313e-05" Max="9.9999976158142090e-01"/>
          <Range Index="8" Min="1.3561863170252764e-06" Max="2.1943305969238281e+01"/>
          <Range Index="9" Min="1.6538964118808508e-03" Max="5.8546472167968750e+02"/>
          <Range Index="10" Min="2.4144896306097507e-03" Max="4.7265557861328125e+02"/>
          <Range Index="11" Min="1.7979189124162076e-06" Max="7.9532966613769531e+01"/>
        </Ranges>
      </Class>
    </Transform>
  </Transformations>
  <MVAPdfs/>
  <Weights NetDepth="5" InputDepth="1" InputHeight="1" InputWidth="12" BatchSize="1" BatchDepth="1" BatchHeight="100" BatchWidth="12" LossFunction="C" Initialization="F" Regularization="0" OutputFunction="S" WeightDecay="9.9999997473787516e-05">
    <DenseLayer Width="64" ActivationFunction="3">
      <Weights Rows="64" Columns="12">
        5.633996e-03  -9.570588e-02  1.468980e-01  3.449126e-02  2.692037e-01  3.680810e-01  2.537764e-01  8.778708e-02  4.180231e-01  2.275996e-02  2.047835e-01  3.229461e-01  -2.594351e-01  -6.914186e-02  -4.428529e-01  -3.141080e-01  1.006610e-01  -7.904339e-02  -9.651060e-02  -2.133550e-01  -7.188759e-02  -8.814675e-02  1.618671e-02  -2.443454e-01  1.939075e-01  2.712867e-01  2.127267e-01  1.609574e-01  2.950526e-01  2.697039e-01  -1.172301e-01  8.849420e-02  1.849264e-01  8.003426e-02  -7.810883e-02  2.484174e-01  -4.565985e-02  1.197767e-01  5.042050e-03  -3.284556e-02  2.875684e-01  -8.434414e-03  2.252600e-01  1.400199e-01  -1.350568e-02  5.924110e-02  1.446908e-01  2.610778e-01  -4.326799e-01  -3.604807e-01  -3.414866e-01  -5.440419e-01  -2.431955e-02  -4.780690e-02  9.779686e-02  -1.236622e-01  -2.337132e-01  3.301958e-02  -1.017374e-01  -2.329412e-01  2.257134e-01  -2.724701e-01  7.866629e-02  1.808698e-01  -2.830686e-01  1.622036e-01  -2.953751e-01  7.095608e-02  -2.312503e-01  -1.479710e-02  -1.222013e-01  -1.183771e-01  1.476192e-01  1.642038e-01  7.458204e-02  4.824338e-01  4.925342e-02  3.095217e-01  -3.386972e-02  1.049644e-01  2.683257e-01  -1.105534e-01  2.555922e-01  1.212110e-01  1.457863e-01  3.075660e-01  6.325588e-02  2.855084e-01  8.458906e-02  1.077768e-01  2.723435e-01  -5.146998e-02  1.210331e-01  1.297215e-01  -2.727796e-01  7.745320e-02  -4.455061e-02  -1.909179e-01  -4.962918e-01  -4.015803e-01  1.270093e-02  -3.723433e-01  -2.143143e-01  7.030244e-02  -9.436618e-02  1.284074e-01  1.012361e-01  -1.316659e-01  -6.735195e-03  1.623445e-01  1.552351e-01  3.363752e-02  2.850591e-01  -1.998314e-02  3.755034e-01  4.499254e-02  4.114137e-01  7.157315e-02  3.139466e-01  -1.532631e-01  2.656954e-02  -1.243027e-01  -8.363850e-02  -1.547197e-01  -1.294793e-02  2.202522e-02  -3.552403e-01  -3.461237e-01  1.687109e-03  -3.159480e-02  -5.358775e-04  -2.273949e-01  1.533253e-02  7.837464e-02  -1.820027e-01  -3.010080e-01  -2.346745e-01  -6.035890e-02  -1.964639e-01  5.471650e-02  -2.404999e-01  -2.198739e-01  -1.172569e-01  -1.316496e-01  6.687233e-03  -3.690164e-01  -3.361662e-01  -3.445953e-01  -3.087710e-01  -4.020502e-02  -2.797058e-01  1.070116e-01  -7.397923e-02  -2.092736e-01  -8.279858e-02  3.879750e-04  -1.485691e-01  -3.586852e-02  5.247111e-02  -1.090988e-01  -2.789947e-01  1.377896e-01  -2.743542e-02  1.004021e-01  -3.298251e-02  1.118174e-02  -1.830576e-01  -4.289459e-02  -4.280978e-01  -1.757557e-01  -5.108870e-01  -4.284432e-01  -1.691897e-01  -2.328479e-01  -3.110508e-01  -3.175470e-01  -2.874953e-01  8.017207e-03  -7.428388e-02  1.650848e-01  -6.359454e-02  2.509473e-01  4.675947e-01  3.509576e-01  2.266485e-01  -5.829720e-02  2.826952e-01  -6.077646e-02  1.665138e-01  2.173400e-01  3.486022e-03  -1.095497e-01  1.137322e-02  2.817074e-01  2.944711e-02  1.871316e-01  1.040260e-01  -2.461831e-01  -8.809633e-02  -1.470259e-01  -2.949920e-01  -2.186894e-02  1.624811e-01  -1.279692e-01  -4.107970e-02  -2.270469e-01  -3.117580e-01  1.866741e-01  -1.717883e-01  1.342737e-01  -1.070440e-01  1.023674e-01  8.771223e-02  -9.135403e-02  -1.831217e-01  3.824437e-02  1.570683e-02  -1.324189e-01  4.016562e-02  1.260267e-01  1.963500e-01  2.490958e-01  -7.634625e-02  1.732239e-01  4.062245e-01  -1.012496e-01  1.101404e-01  -1.992168e-01  -2.138146e-01  -3.259191e-01  -3.190231e-01  -2.510414e-01  3.795759e-02  -2.961854e-01  -2.542086e-01  -4.749630e-02  -2.905801e-01  1.461724e-02  -1.985914e-01  1.382873e-01  7.041617e-02  3.652867e-01  2.338697e-01  -9.793051e-02  8.187485e-02  -2.572284e-01  2.316952e-02  8.446200e-02  -1.911894e-01  -1.187329e-01  -1.804590e-01  8.973955e-02  -1.830176e-01  1.267832e-02  -5.189489e-01  2.702726e-01  1.555843e-01  2.521305e-01  -1.635338e-02  -1.469803e-01  4.905942e-01  -8.053358e-02  2.633361e-01  -2.732565e-03  -1.058537e-01  3.275459e-01  4.234040e-01  2.229392e-01  -9.577368e-02  -3.700351e-02  5.124300e-02  -9.251030e-02  2.134092e-01  -1.045351e-01  2.597478e-01  2.928624e-02  1.647005e-01  2.695447e-01  5.565770e-01  3.645291e-01  2.347925e-01  -1.250110e-01  2.953429e-01  1.115700e-01  3.101219e-02  -2.244255e-02  1.157102e-02  -1.252966e-01  -1.730737e-02  4.415630e-01  1.979785e-01  4.924759e-01  1.879172e-01  -2.103749e-01  -1.232864e-02  -1.181210e-01  1.639044e-01  2.253714e-02  6.529967e-02  -4.215250e-02  -1.256541e-01  1.216547e-01  -1.406845e-01  2.491673e-02  1.529535e-01  -2.757096e-01  2.166768e-01  -2.972306e-03  -6.770747e-02  4.605440e-02  1.637339e-01  -1.791463e-01  -1.443429e-01  3.153799e-01  4.060804e-01  1.831883e-01  1.268671e-01  3.356335e-01  -1.041452e-01  1.021373e-02  1.422177e-01  2.304814e-01  1.578358e-01  3.080236e-01  -3.522712e-02  4.016486e-01  1.506049e-01  5.114418e-01  2.989637e-01  -6.149248e-02  -3.645891e-02  6.799369e-02  1.002097e-02  2.469176e-01  1.757624e-01  2.352513e-01  -2.286349e-01  -8.180867e-02  -4.471649e-01  4.769132e-02  -3.331149e-01  -3.233448e-01  -3.620869e-01  -6.461786e-03  -3.093877e-01  1.994444e-01  -2.280626e-01  2.956426e-02  1.856755e-01  -9.760667e-02  -6.113970e-02  1.583493e-01  1.560566e-01  -7.910604e-03  2.590284e-01  -1.120944e-01  -5.166082e-02  2.486429e-02  2.337740e-01  -9.457316e-02  3.376541e-02  1.397797e-01  1.609408e-01  -2.375214e-01  3.321068e-01  -1.267945e-01  -1.848351e-01  4.942932e-02  -1.883004e-01  -2.800713e-03  9.803753e-02  3.139607e-02  -9.124670e-02  1.903605e-01  1.201359e-01  1.824648e-01  -1.531728e-01  6.794315e-02  -1.072015e-01  4.765808e-02  1.209188e-01  7.596063e-02  -1.387330e-01  6.517166e-02  4.795459e-02  2.310382e-01  1.824755e-02  -1.465809e-01  2.933507e-01  1.404181e-01  -6.327569e-02  -1.127634e-01  -2.597079e-01  -1.510364e-01  -4.463029e-02  -3.042503e-01  -1.719275e-01  1.753104e-01  -4.275319e-01  -1.061738e-01  -6.781324e-02  -1.755387e-01  5.593568e-02  -1.894474e-01  -1.094638e-01  -1.355451e-01  -2.478466e-01  -2.676818e-01  6.236593e-02  -5.243706e-02  -1.744966e-01  1.048810e-01  7.724136e-02  -2.311902e-01  -3.105220e-01  4.116770e-02  7.570921e-03  7.137982e-02  -2.382218e-01  -1.204662e-01  -2.182820e-01  -1.485475e-01  -1.446889e-01  -3.084264e-01  -3.066577e-01  -2.937875e-01  -2.617448e-01  -1.822202e-01  -3.071553e-01  -2.022453e-01  2.302339e-02  2.500863e-01  -2.165749e-01  1.931044e-01  -1.118210e-02  -1.880169e-01  2.441609e-01  -9.018831e-02  -2.677701e-01  1.669275e-01  3.051426e-01  -4.188057e-02  2.333745e-01  1.173286e-01  -2.363462e-01  -1.949295e-01  5.507060e-02  1.896844e-02  -2.650549e-01  -3.729441e-02  -2.295177e-01  2.621100e-02  -2.726311e-01  -3.163140e-01  4.835930e-02  -3.065427e-01  -3.688302e-01  -2.286813e-01  -3.276401e-01  3.372744e-01  -1.681306e-01  1.536190e-01  2.104797e-01  2.078857e-01  -3.305603e-01  -1.459714e-01  7.057295e-02  2.086457e-03  2.892252e-01  -1.000573e-01  4.145970e-01  1.662035e-01  2.688765e-01  2.772745e-01  1.703676e-01  -1.052524e-01  3.240303e-01  1.683976e-01  1.122028e-01  -9.370307e-02  -1.446926e-01  2.812192e-01  3.930873e-01  -2.845066e-01  -2.331379e-02  -4.825483e-01  -1.456631e-01  2.939230e-02  -2.957332e-02  8.097535e-02  1.431969e-01  9.410593e-02  -5.297611e-02  3.088609e-02  4.596834e-02  -2.905039e-01  4.208764e-02  -2.484588e-01  -1.050255e-01  -2.438694e-02  -3.327784e-01  -1.399132e-01  -5.178307e-02  5.359346e-02  4.719604e-02  2.465304e-01  5.819247e-01  2.805898e-01  2.254895e-01  1.049051e-01  4.004016e-01  -1.114470e-01  -2.920696e-03  -1.975170e-02  2.000991e-01  -2.688415e-01  7.639019e-02  -3.848352e-01  -1.440407e-01  -3.161923e-01  -1.958919e-01  -9.903642e-02  -2.586256e-01  -5.100134e-02  -3.290079e-01  -5.462719e-02  -1.888479e-02  1.754173e-02  -5.807188e-02  -1.560229e-01  -5.203476e-02  2.691537e-01  -2.094109e-01  -1.779628e-01  1.777431e-01  -2.005285e-02  1.984151e-01  -2.132578e-02  -1.925314e-01  3.219543e-01  -1.028381e-01  2.280367e-01  4.738342e-01  -2.367164e-02  1.827738e-02  -3.528096e-01  2.723683e-01  1.226702e-01  -1.939814e-01  -1.699059e-01  5.543927e-02  2.030120e-01  -1.343631e-01  -2.363895e-02  4.077794e-01  2.417276e-01  2.027448e-01  -2.193870e-01  2.300716e-01  3.742522e-02  -7.632612e-02  -2.049643e-01  2.040850e-01  -9.870026e-02  1.528292e-01  2.716278e-01  3.488622e-01  -8.484802e-02  3.927752e-02  -3.523140e-02  5.027741e-02  3.357889e-01  2.338750e-02  -2.499278e-02  2.374459e-01  -8.846409e-02  2.363210e-01  3.119414e-01  3.515981e-01  1.996713e-01  1.660618e-01  3.671687e-01  2.111153e-01  4.020729e-02  1.086884e-01  3.638577e-03  -4.841213e-02  2.233317e-01  2.797891e-02  -2.275266e-01  -4.044174e-01  5.550931e-02  -2.173772e-01  -2.074160e-01  -2.119543e-01  2.363613e-01  -2.279919e-01  1.426233e-01  -1.909429e-01  -4.396204e-02  2.391272e-01  3.072032e-02  -2.537740e-02  1.571743e-01  1.758702e-01  3.576726e-01  2.827415e-01  -8.055725e-02  2.802388e-01  -1.236614e-01  1.331048e-01  5.319257e-02  3.910581e-01  3.123944e-01  4.295519e-01  1.663653e-01  1.258810e-01  -2.042133e-02  3.730772e-01  1.133333e-02  -1.523067e-01  -1.491133e-01  7.997546e-03  -8.662076e-02  -3.757534e-01  -8.951473e-02  -3.843752e-01  1.828167e-02  -2.419623e-01  -6.614620e-02  -1.501063e-01  4.429200e-02  -3.335446e-01  1.352003e-02  -2.076211e-01  -7.766011e-02  8.170889e-03  1.164286e-02  8.620408e-04  1.680093e-01  -1.384819e-01  3.319423e-01  -5.420866e-02  -1.851272e-02  -2.243690e-02  2.473150e-01  1.832585e-01  5.942551e-02  -2.897816e-01  -2.930605e-01  -3.290009e-01  -4.210878e-01  3.331199e-02  -2.922327e-01  -1.712233e-03  -2.703554e-01  -4.695327e-01  8.673898e-02  -7.405633e-02  -8.431191e-02  -3.462569e-01  -1.309507e-01  -5.113417e-01  -1.643000e-01  4.115662e-02  -9.709568e-02  -4.626298e-01  -7.014929e-02  -1.344406e-01  1.684707e-01  -4.513767e-02  2.058043e-01  -3.154303e-01  5.957619e-02  1.600026e-01  -2.974255e-01  -2.811100e-01  -2.425498e-01  -3.838156e-01  3.698760e-01  -4.697207e-01  -5.172248e-01  -5.145354e-01  -4.428650e-01  -2.021783e-01  -3.149756e-01  6.499304e-03  -3.574091e-01  -2.800597e-01  -1.491358e-01  -3.238083e-01  -1.108132e-01  -2.494364e-02  2.586082e-02  -4.830515e-02  1.761928e-02  -8.800675e-02  -3.671354e-01  -2.775760e-01  -4.684573e-01  -1.752000e-01  -4.014448e-01  -4.273193e-01  -4.472681e-02  -3.021957e-01  -2.373988e-01  -1.618654e-01  -1.093932e-01  8.443598e-02  4.865496e-01  5.275863e-01  3.087185e-01  9.054863e-02  4.139495e-01  1.518977e-01  2.600500e-01  2.561996e-01  1.010589e-01  2.441900e-02  1.862547e-01  -4.757445e-02  -2.706441e-01  -8.373645e-02  -2.568609e-01  5.943789e-02  -3.058346e-01  9.498510e-03  1.333155e-01  -3.299524e-01  -1.461256e-01  1.811271e-01  -1.643072e-01  1.071189e-01  -3.836415e-01  -2.000611e-01  -2.531445e-01  -5.898574e-02  1.639310e-01  -3.409101e-01  -1.967592e-01  -3.226581e-02  -4.767618e-03  -1.751011e-01  1.153430e-01  -1.610733e-01  3.595593e-01  1.012413e-01  -3.203082e-03  2.686911e-01  1.542631e-01  3.638961e-01  1.275115e-01  6.330482e-02  -1.810806e-01  3.962693e-03  -5.945807e-02  7.545785e-03  -4.049733e-01  -7.672470e-02  -2.469721e-03  -1.811505e-01  -1.760200e-01  -4.515370e-01  -2.681530e-01  -2.329153e-01  -1.515028e-01  -3.423964e-01  -1.226063e-01  
      </Weights>
      <Biases Rows="64" Columns="1">
        -2.486785e-01  1.597165e-01  -2.047904e-01  -1.392849e-01  2.649872e-01  1.128623e-01  -2.218491e-01  -2.066175e-01  1.965021e-01  -2.480729e-01  6.396776e-02  1.457450e-01  1.741110e-01  7.565153e-02  1.852332e-01  -2.072593e-01  8.061909e-02  4.707917e-03  -1.492497e-01  2.122206e-01  -1.061083e-01  1.002011e-01  -1.297236e-01  -1.836023e-01  -1.935564e-01  5.282210e-02  -1.932266e-01  -2.713951e-01  1.809582e-01  -9.258360e-02  1.965060e-02  -1.486021e-01  1.063498e-01  1.442359e-01  1.487312e-01  2.172402e-01  9.190045e-02  1.872582e-01  2.468263e-01  -2.246749e-01  -7.956300e-02  1.199356e-01  -2.491953e-01  1.439198e-01  -6.999565e-02  -1.079367e-01  -2.716867e-02  -4.364062e-02  -2.306892e-01  1.637284e-01  -1.427876e-01  -2.817014e-01  2.182163e-01  -2.196042e-01  3.015817e-01  2.434939e-01  4.436731e-01  1.570009e-01  2.764846e-01  -2.665884e-01  1.467333e-01  1.379637e-01  -1.413476e-01  2.366385e-01  
      </Biases>
    </DenseLayer>
    <DenseLayer Width="128" ActivationFunction="3">
      <Weights Rows="128" Columns="64">
        2.865929e-02  5.088628e-02  1.723486e-01  -1.006825e-01  6.306844e-02  5.285278e-02  1.417119e-01  6.808610e-02  -2.363316e-02  7.475144e-02  7.086112e-02  6.547768e-04  1.277605e-01  -1.004427e-01  -1.129719e-01  1.492324e-01  -1.595103e-01  1.613363e-01  1.832650e-01  -4.343446e-03  6.504185e-02  1.191780e-01  9.593128e-02  -1.253323e-01  2.116148e-01  -2.682754e-01  1.056998e-01  7.688769e-02  5.115127e-02  -1.534458e-01  -8.393487e-02  -1.020679e-01  4.098007e-02  9.106367e-02  -1.881351e-01  -8.639243e-02  -1.740473e-02  7.690424e-02  1.537623e-01  9.423923e-02  -1.555870e-01  -8.882822e-02  1.030610e-01  1.335112e-01  5.263866e-02  2.622535e-02  2.343210e-02  5.337106e-02  -3.407814e-02  -5.630220e-02  7.018843e-02  -1.259308e-01  1.281533e-01  1.254615e-01  -2.106331e-01  -4.334562e-02  -2.063090e-01  1.897441e-02  -1.608547e-01  1.635402e-01  -1.411868e-01  4.658913e-02  -6.430437e-02  1.223338e-01  -2.191069e-02  3.595288e-01  -5.811021e-02  7.805376e-02  1.915254e-02  1.255040e-01  4.646308e-02  2.347436e-02  1.250215e-01  1.940785e-01  -9.327794e-03  -9.243327e-02  1.297910e-01  1.186169e-01  -3.620421e-02  3.493600e-02  1.995870e-01  -3.493480e-02  -8.894645e-03  -1.809313e-01  -2.936698e-02  7.463177e-02  -3.083870e-02  -5.717654e-02  -1.458714e-02  3.482633e-01  -9.570093e-02  -4.416850e-02  -1.451322e-02  -6.111946e-02  1.243300e-01  1.328835e-01  1.403602e-01  1.118902e-01  -2.448589e-02  -4.758378e-02  -1.068246e-01  -2.070602e-02  1.256568e-01  1.459889e-01  -6.924545e-02  1.092442e-01  -5.470708e-02  1.032392e-01  -2.209433e-01  1.859015e-01  1.677593e-01  2.109201e-01  7.539678e-02  -1.268836e-01  4.106728e-02  -1.450797e-01  -1.093197e-01  -2.292550e-01  -9.281492e-02  -1.939736e-01  5.415103e-01  -4.957963e-02  -1.474664e-02  -8.172406e-02  9.016819e-02  3.242798e-02  1.228334e-01  -5.142882e-03  6.929844e-02  1.335935e-01  1.661127e-01  -3.903695e-02  7.217576e-02  2.192006e-01  9.411394e-02  -1.681363e-01  -2.810712e-02  1.408305e-02  1.758789e-01  1.507383e-01  -9.392527e-02  3.929549e-02  3.515617e-01  -3.085260e-01  -2.602831e-01  2.423271e-01  -1.166515e-02  8.135750e-02  -3.071318e-01  2.802510e-01  -2.860774e-01  -3.902707e-01  5.182293e-02  1.981785e-01  -1.462499e-01  -8.252250e-02  1.227433e-01  7.640006e-02  -7.939521e-02  8.875463e-02  -9.399636e-03  -1.185413e-01  9.833558e-03  1.097198e-01  2.301777e-01  -8.524204e-02  -1.219721e-01  -2.146595e-01  -1.545350e-01  -1.272949e-02  -1.021317e-01  -7.035315e-02  1.769902e-01  7.525261e-03  1.186724e-01  -3.450162e-01  -1.571475e-01  -3.615807e-02  4.494205e-02  -2.582930e-01  8.720537e-02  2.126833e-01  1.273340e-02  8.165403e-02  -6.771666e-02  -2.876232e-03  1.059834e-01  -1.335428e-01  -2.087775e-02  1.495260e-01  -1.591510e-01  -6.168337e-02  7.813084e-02  1.200402e-01  -5.630709e-02  8.260407e-02  1.030078e-01  -3.504456e-01  -8.212002e-02  1.734361e-01  -1.689707e-01  -4.421883e-02  2.516515e-01  -8.109477e-02  1.892434e-01  5.922052e-02  9.934205e-02  -1.062068e-01  -4.150023e-01  6.159894e-01  -5.407209e-02  -1.305282e-01  1.083623e-01  1.581764e-03  1.841442e-01  5.948161e-02  -1.881336e-01  -4.713803e-02  -1.500814e-02  -8.545389e-02  -7.140888e-02  -4.487407e-01  -1.426768e-01  -2.833663e-01  -8.481789e-02  1.142896e-01  9.285008e-02  1.685416e-01  1.375455e-01  -2.299858e-01  7.929567e-02  -4.550770e-02  -1.834652e-01  -4.492442e-02  -6.526253e-02  1.397780e-01  2.642213e-01  -3.123479e-01  -4.980156e-01  -9.074186e-02  -1.285585e-01  2.879985e-01  -1.801870e-01  6.539795e-02  -4.161203e-02  2.089136e-01  5.436264e-02  1.891755e-01  -4.955623e-01  1.760440e-01  -1.533588e-01  -1.801958e-01  -2.560005e-01  2.136413e-01  -1.121623e-01  -6.869438e-02  -2.376629e-01  1.606268e-01  -3.174652e-01  -9.510008e-02  3.413732e-01  1.570182e-01  -1.774086e-01  -6.143393e-02  3.451340e-01  -3.170604e-01  3.609147e-02  -2.941627e-02  2.151207e-01  3.953516e-02  1.426356e-01  -2.159225e-01  1.562383e-01  -2.506803e-02  1.605010e-01  2.689999e-01  1.999955e-01  4.922276e-02  -1.374690e-01  -2.721693e-01  -3.014220e-01  -6.822237e-03  -4.328761e-02  -3.706046e-02  1.203629e-01  -1.093718e-01  1.797061e-01  5.860106e-02  2.647022e-01  4.300885e-03  1.942412e-01  4.125272e-01  -1.838277e-01  -4.819806e-02  -1.597047e-02  -4.963813e-02  1.855033e-03  -1.858337e-01  -3.381470e-01  1.791606e-01  9.885818e-02  2.420578e-02  -4.232664e-03  -1.361399e-01  -5.673285e-02  3.458733e-01  -5.841739e-02  -8.795021e-02  -4.157101e-02  1.749295e-01  3.673422e-02  3.325848e-01  3.282290e-02  1.881783e-01  2.194229e-01  -2.804729e-02  2.071456e-01  -8.525788e-02  7.713102e-02  -9.974091e-02  1.082930e-03  -8.057131e-03  -2.144285e-01  -4.081856e-02  -1.478284e-01  1.151236e-01  1.189314e-01  -1.619201e-02  9.280993e-02  1.119536e-01  6.853157e-02  -2.522109e-02  4.295064e-02  -1.919990e-01  -7.079514e-02  2.169182e-01  1.568063e-01  -2.882722e-01  -7.482616e-02  4.730892e-03  -2.132760e-01  -7.131955e-02  2.106489e-02  4.926812e-02  1.839849e-02  -1.206188e-01  1.518619e-01  5.868075e-02  -2.125319e-01  6.991394e-02  8.997758e-02  -6.349231e-02  -3.719867e-02  2.382161e-02  -2.428945e-02  -5.555765e-02  -1.256712e-01  -1.620971e-01  7.125320e-02  -2.624661e-02  7.454583e-02  -1.322149e-01  1.677216e-01  -2.055640e-01  6.384955e-02  -1.389855e-01  -1.385404e-01  6.883281e-02  -1.142437e-01  -3.455908e-01  9.399772e-02  3.782663e-01  4.017888e-02  -1.804469e-01  -3.294545e-01  1.086713e-01  1.240598e-01  -1.492568e-01  -1.418439e-01  1.889563e-01  -3.099828e-02  -5.313427e-02  1.248895e-02  -1.708380e-01  -2.034984e-02  2.704513e-02  -1.189572e-01  -2.336880e-01  1.448025e-01  1.722538e-02  -2.280689e-01  -2.570819e-02  1.856301e-01  -1.821362e-01  3.338597e-02  4.782252e-02  2.263834e-01  4.141733e-02  2.676665e-02  -7.425080e-02  2.066049e-01  -3.822380e-01  -1.148049e-02  2.521831e-01  5.631084e-02  -1.588850e-01  9.066874e-02  7.328260e-02  -1.158251e-01  2.156032e-01  -1.822472e-01  -1.454154e-01  1.456059e-01  1.070674e-01  9.980817e-02  -4.390055e-02  1.307280e-01  -1.333749e-01  3.529091e-01  3.888029e-02  -1.421416e-01  -4.260098e-02  1.718948e-01  3.384059e-02  2.426224e-01  1.827034e-01  -7.542589e-02  1.522180e-01  -3.251145e-02  -1.046702e-01  3.044967e-02  8.452063e-02  7.338393e-02  1.837158e-01  2.674407e-02  -9.588822e-02  -3.590350e-02  2.249847e-02  1.694025e-01  -3.482639e-02  4.213298e-01  -6.330645e-02  9.433153e-02  -1.195989e-02  1.321290e-01  -1.126607e-01  1.139246e-01  2.188385e-02  1.134284e-01  -7.176482e-02  -1.089130e-01  -1.205299e-01  -1.616957e-01  -1.859728e-01  1.590306e-01  1.141308e-01  -7.463815e-02  4.575521e-01  1.064459e-01  2.170538e-01  -2.615499e-01  -2.617099e-01  -1.112250e-01  2.921041e-01  1.836960e-01  -2.873626e-01  1.176978e-01  -4.161206e-01  -1.857144e-01  1.096823e-01  2.120335e-02  7.347324e-02  -9.112927e-02  3.898567e-01  1.804193e-01  1.562441e-01  -1.018013e-01  3.934497e-01  1.079385e-01  -7.949112e-02  -8.274446e-02  1.660048e-01  2.408633e-01  -2.105685e-01  5.112461e-02  -4.719100e-02  1.113692e-01  3.035774e-01  2.283765e-01  -8.269356e-02  3.907030e-01  -1.960651e-01  -2.289640e-02  -4.493328e-02  -1.043662e-01  6.986486e-04  2.662878e-01  -3.378564e-01  2.980175e-01  1.394841e-01  8.090124e-02  -1.923012e-01  -1.131266e-01  -7.952487e-02  3.261957e-01  -6.554972e-02  -8.410472e-02  7.307386e-02  4.969977e-02  1.841761e-02  -2.329453e-01  -2.012490e-01  -1.034443e-01  -2.470379e-02  1.427377e-01  5.413814e-02  8.825456e-02  -1.195175e-01  1.461464e-01  8.283590e-02  -8.537848e-02  -7.181825e-02  2.308276e-01  -2.698884e-02  -3.608572e-02  3.407590e-02  9.985237e-02  -7.503355e-02  -2.078453e-01  2.020534e-01  1.982431e-01  -1.074542e-01  9.607733e-02  -5.347193e-02  1.227942e-01  -1.602172e-01  -1.179186e-01  8.388557e-03  1.964171e-01  -4.797120e-02  -2.689715e-03  6.366938e-03  -8.601342e-02  2.283810e-03  -3.259423e-01  -1.236309e-01  -1.776849e-01  -1.633614e-02  4.248856e-02  -1.150342e-01  -1.833327e-01  1.764703e-01  -3.029743e-01  -1.516357e-01  3.511144e-03  -1.808449e-01  1.116507e-01  -2.003869e-02  -1.676178e-01  6.918553e-02  -3.631402e-02  -1.165855e-01  -2.897998e-02  1.490116e-01  -9.741855e-02  1.410107e-01  -3.511259e-02  -1.396240e-01  -1.496339e-01  1.074254e-01  -2.055597e-01  2.192701e-01  -1.007106e-01  -2.186657e-01  -9.418248e-02  -7.441655e-02  -1.356360e-01  2.839310e-01  -1.695199e-01  1.261189e-01  2.528408e-01  1.352815e-01  -4.306491e-02  -5.079511e-03  -1.698573e-02  -3.215526e-01  6.410018e-02  1.729359e-01  1.936839e-02  7.005126e-02  6.810759e-02  -2.272585e-01  1.550304e-01  -7.488039e-03  -1.991533e-01  3.998182e-02  1.923579e-01  1.271148e-01  -2.093726e-01  -3.070570e-01  -3.640708e-02  -4.323215e-02  2.096207e-02  -9.708489e-02  5.022747e-02  8.649056e-02  1.865075e-02  -2.895344e-03  2.461773e-01  9.629121e-02  -7.027534e-02  2.070730e-01  1.687893e-01  -8.899751e-02  -1.639334e-01  -2.880506e-02  -1.606041e-01  7.822746e-02  -3.682950e-01  2.445364e-01  -7.494362e-02  -1.385860e-01  1.964068e-01  -1.688811e-01  -2.436501e-01  -2.303226e-02  -4.644703e-02  1.194026e-01  4.091613e-03  -1.726144e-01  1.575431e-01  6.899710e-02  5.681487e-02  4.631329e-02  2.460861e-01  -2.666617e-02  1.401659e-01  6.271981e-02  -1.011707e-01  2.152464e-01  7.583282e-02  3.637171e-02  2.409530e-01  2.819233e-01  -1.630013e-02  -1.908118e-01  1.557207e-01  1.548329e-01  -3.070801e-02  -8.674240e-04  1.525737e-01  5.640531e-02  -2.316341e-01  -1.962986e-01  -2.627254e-01  1.419102e-01  -1.140525e-01  -1.424683e-01  1.931541e-01  -2.283162e-01  -1.029298e-01  -2.035416e-01  -1.300204e-02  2.181932e-01  2.278928e-01  -6.654929e-02  2.325470e-01  9.530186e-02  -2.869620e-01  -4.490440e-02  -1.734224e-03  -9.669949e-03  6.794739e-02  -1.391473e-01  -2.122071e-01  -4.402912e-02  1.506242e-02  -6.118539e-02  1.705374e-01  -1.186208e-02  -8.145888e-02  -1.537321e-01  1.929023e-01  -2.693377e-01  9.989157e-02  1.430261e-01  -1.359475e-01  -1.683201e-02  2.316648e-01  -7.949933e-02  6.885815e-02  1.025302e-01  -8.344395e-02  -2.597982e-02  -1.263435e-01  7.571182e-02  -2.119142e-01  -3.988642e-02  3.682475e-02  8.978882e-02  -2.330967e-01  -6.611016e-02  2.103770e-01  -1.147062e-01  -2.915111e-01  2.705450e-01  1.461289e-02  -9.055603e-02  2.049872e-01  8.896580e-02  -9.878725e-02  -4.934237e-02  3.199951e-01  3.090637e-02  -2.216464e-01  9.319840e-02  1.376504e-01  2.263295e-02  1.683737e-01  -2.810374e-01  3.550520e-01  1.642906e-01  9.806903e-02  4.805651e-02  8.391647e-03  5.913516e-02  -2.078315e-01  6.555292e-02  -1.064075e-01  -3.170697e-02  -1.415733e-01  -2.482197e-01  2.555935e-01  4.083658e-02  2.426454e-01  2.254597e-01  2.088955e-01  -6.085190e-02  2.909950e-01  2.514385e-01  -5.073778e-02  8.026037e-02  -1.559563e-02  -8.653817e-02  1.279614e-01  -4.969659e-02  -1.053115e-01  2.329437e-01  5.240389e-02  -2.098705e-01  -3.885891e-02  -5.896023e-02  -7.387630e-02  2.286561e-01  -1.115988e-01  -3.686541e-02  -1.625027e-02  -1.213254e-01  2.193357e-01  7.876755e-02  -1.121492e-01  4.122246e-02  8.932099e-02  6.309053e-02  -4.893609e-02  8.880918e-02  -1.744699e-01  1.682011e-01  -4.192326e-03  -1.407344e-01  -1.096091e-01  -5.331421e-02  1.684440e-02  1.675927e-01  2.644700e-02  -1.138432e-01  1.796943e-01  -2.629165e-02  6.540211e-02  1.245117e-01  -4.805794e-03  -2.668803e-01  1.026828e-01  6.190257e-02  3.247726e-01  -2.049029e-02  1.046271e-01  7.927108e-03  -1.271736e-01  2.983507e-01  -1.534873e-02  3.139152e-01  -1.187328e-01  1.948110e-01  1.336639e-01  1.035315e-01  6.029824e-02  7.174107e-02  -1.106916e-02  1.604602e-01  -2.547409e-02  -1.155790e-01  1.421947e-01  6.917543e-02  -7.658485e-02  2.482551e-01  9.921452e-02  -1.029791e-01  3.265532e-02  -1.234146e-02  9.604394e-02  1.388722e-01  -2.134676e-01  2.046391e-02  -9.608866e-02  1.462649e-01  -2.086413e-01  -2.169689e-02  -8.120186e-02  1.345822e-01  -4.826596e-02  -2.106263e-01  -1.415868e-01  -3.219484e-02  1.774483e-01  2.330539e-02  5.344271e-02  -1.676277e-01  1.571714e-01  4.176012e-02  -1.126548e-01  -1.120151e-02  7.910964e-03  5.342216e-03  1.736487e-01  4.030936e-03  1.619495e-01  7.615165e-02  -5.452048e-02  -8.344365e-02  -4.832302e-02  -6.829775e-02  1.216964e-01  7.852983e-02  -8.278005e-02  1.676711e-01  -6.018922e-02  -2.588245e-03  -3.347018e-03  1.792676e-01  4.050056e-02  -7.574674e-02  -2.566852e-01  8.490616e-02  4.598921e-02  -1.647812e-01  -1.162152e-01  -5.659106e-02  -4.269650e-02  -7.984067e-02  9.050395e-02  -2.183807e-01  1.520447e-02  -1.654518e-01  3.868169e-02  2.563951e-02  -5.216321e-02  -1.017826e-02  1.684898e-01  -6.556590e-02  5.520814e-02  -1.699361e-01  -2.258298e-01  -5.640872e-02  -1.870681e-01  2.212244e-01  -1.027597e-01  2.976943e-02  1.876947e-03  6.558944e-02  7.479856e-02  -2.296682e-02  7.565407e-02  -2.579231e-01  -1.867963e-01  1.648768e-01  1.481315e-01  -5.872878e-02  -1.382986e-01  3.506321e-02  -1.130848e-02  -2.616211e-02  -8.675780e-02  1.888894e-01  -1.757578e-01  8.639195e-02  -2.096881e-02  1.945755e-01  2.230560e-01  -1.462856e-01  -1.975078e-02  3.198505e-03  -9.855919e-02  3.416092e-02  -1.507912e-01  2.792384e-02  -4.571932e-03  7.096496e-02  -9.974738e-02  7.258737e-02  -2.326144e-02  1.617112e-01  -2.965433e-01  2.775472e-01  -1.777191e-02  5.134441e-02  -1.744232e-02  -6.635286e-02  -2.670047e-02  -1.850174e-01  9.772739e-02  -1.431367e-01  -2.127484e-02  5.677761e-03  -2.470150e-01  6.025481e-03  -1.315087e-01  1.732022e-01  -1.186801e-01  1.985800e-02  -7.250597e-02  6.534661e-02  -1.352574e-01  1.836596e-02  -2.885757e-02  -5.108253e-02  -2.793392e-03  -1.536976e-01  -1.313666e-01  -3.206464e-02  -8.799344e-02  1.793915e-01  -2.443451e-02  1.627907e-01  5.474551e-02  -7.151549e-02  3.114989e-02  -5.130494e-02  -3.674097e-02  2.227875e-01  -1.502514e-01  -1.243005e-01  -4.531521e-01  7.461251e-02  4.571338e-02  2.106371e-01  -4.282697e-03  1.140666e-02  1.793259e-01  -3.045503e-02  8.643641e-02  -6.984334e-03  -1.329973e-01  -6.054674e-04  -1.361663e-01  8.835676e-02  4.587098e-02  1.027066e-01  -1.250183e-01  8.340259e-02  4.429514e-02  1.079566e-01  1.598319e-01  -4.289752e-02  -1.472362e-01  2.098852e-01  2.829922e-01  9.942993e-02  -9.603468e-02  2.561717e-03  1.384574e-01  7.748148e-02  -1.082250e-01  2.699753e-02  -3.634236e-02  1.180022e-01  -2.779309e-02  -1.085551e-01  6.053846e-02  1.558661e-02  7.102635e-02  -1.400000e-01  2.262318e-02  1.243295e-01  -9.577758e-02  1.086561e-01  -3.925856e-02  -3.105339e-02  -3.326228e-02  1.663323e-01  1.707901e-01  -3.006677e-02  7.193411e-02  9.138099e-02  -1.431894e-01  2.349245e-01  1.254183e-01  -1.930539e-02  1.546784e-01  -2.232556e-03  -9.724648e-02  2.441060e-01  1.564613e-01  -5.491567e-02  -1.287641e-01  1.062176e-01  4.788851e-01  -2.164085e-01  1.101872e-02  -6.366725e-03  8.763663e-02  4.261619e-03  1.055551e-01  -1.863720e-01  -1.213591e-01  1.179975e-02  -2.041188e-01  -5.913818e-02  1.874235e-01  1.638029e-01  -3.725513e-02  -2.506090e-01  3.421732e-01  -7.932906e-02  -1.388624e-01  -3.707224e-02  5.608239e-03  4.291356e-02  7.248370e-02  -2.129799e-02  3.178590e-01  1.125470e-01  -1.191593e-01  1.518599e-02  2.170246e-01  -1.131333e-01  -1.652381e-02  -3.108275e-01  8.781387e-03  -2.775010e-02  -1.242293e-01  -1.649090e-01  2.329308e-01  1.477711e-01  1.063028e-01  -2.000082e-02  -3.233940e-02  -5.529886e-02  1.129920e-01  3.463228e-01  -1.508867e-02  1.057064e-01  -1.796677e-01  -8.965336e-02  1.387877e-01  -4.245818e-02  -3.056833e-01  5.414340e-02  -1.090655e-01  1.301418e-02  6.348985e-02  -2.132304e-01  -2.139622e-01  2.395431e-01  -2.507750e-01  6.565947e-02  1.813990e-01  -9.583594e-02  1.699404e-01  2.873819e-01  1.186983e-01  1.601888e-01  2.291061e-01  -7.266828e-02  -4.174930e-02  -2.670377e-04  -7.735344e-02  2.154096e-01  1.434494e-01  -1.672938e-01  1.776306e-01  7.618725e-02  -1.818492e-01  2.456130e-01  2.792334e-01  -1.359361e-02  -1.678831e-01  1.664341e-01  3.444326e-02  2.961554e-02  -1.055307e-01  5.508114e-02  -2.387976e-01  7.525750e-02  -2.002679e-01  2.274276e-01  -1.441955e-02  -4.319360e-02  1.339878e-02  -7.273352e-02  1.747443e-01  -2.111452e-01  -3.210935e-02  -7.470225e-03  -5.170068e-02  1.331760e-01  -1.767117e-01  -1.566008e-02  -1.823076e-01  -7.168301e-02  -1.163878e-01  -1.386166e-03  -5.742470e-02  -1.334537e-01  7.303043e-02  -1.829798e-01  6.187278e-02  2.320334e-01  -6.276976e-02  7.038125e-02  1.075296e-01  -9.695199e-02  -9.077679e-02  1.175293e-01  -1.236977e-02  1.624455e-01  1.982059e-01  -1.550432e-01  1.257436e-01  9.828582e-02  9.957731e-03  8.833020e-02  -1.465621e-01  -9.366570e-02  -2.146135e-01  -2.781636e-01  -1.026692e-01  -3.330234e-02  -1.009297e-01  -4.726357e-02  7.050562e-02  4.580001e-02  -6.974819e-02  -1.077604e-01  5.681379e-02  -1.271566e-01  3.290681e-01  -1.026251e-01  -2.584106e-02  -2.114161e-01  1.875172e-02  4.700914e-02  1.955398e-01  4.000638e-04  1.504945e-01  4.898445e-02  3.244053e-01  -2.183665e-01  1.454187e-01  7.081347e-02  1.290781e-02  -8.034389e-03  -4.759032e-02  4.892270e-02  -6.575377e-02  -2.794757e-01  -7.220396e-02  -2.806667e-02  -5.812272e-02  9.967525e-02  3.030619e-01  -1.442569e-01  -1.069298e-01  3.003874e-02  1.090043e-01  2.759237e-02  3.991586e-02  1.578188e-01  1.615184e-01  -1.696584e-02  -1.580613e-01  -1.057389e-01  -2.947241e-01  -6.581403e-02  -2.147982e-01  2.162139e-01  3.424517e-02  -1.940836e-02  1.611722e-01  2.680443e-02  -1.789761e-01  -9.586144e-02  -1.520282e-01  -5.188259e-02  4.862020e-02  -4.132168e-02  2.743748e-01  1.116827e-02  -4.872382e-02  2.353563e-01  2.257637e-01  -5.502864e-03  5.055788e-02  2.173785e-02  -1.016941e-01  5.746280e-02  -3.301076e-02  4.599950e-02  -2.347197e-01  1.427227e-01  -7.368038e-02  9.924097e-02  -4.689149e-02  -8.156219e-02  2.007473e-01  5.682951e-03  8.177286e-02  2.519293e-01  1.570281e-01  1.987745e-03  2.197843e-01  -2.420279e-01  1.469469e-01  4.807640e-02  1.020804e-01  -1.539281e-02  1.317577e-01  2.052381e-01  -5.656346e-02  5.113265e-02  -1.096318e-01  -6.223214e-02  -1.851001e-01  -2.095287e-01  2.462222e-01  -1.039650e-01  1.441690e-01  -1.689375e-01  2.032025e-01  2.051374e-01  2.046735e-01  1.427701e-01  -1.030961e-01  1.980074e-01  -1.434615e-02  -1.435086e-01  3.752728e-02  1.729257e-02  1.132003e-01  2.315960e-01  3.807159e-02  6.218038e-02  -4.734599e-02  -5.844596e-02  -1.093996e-01  2.504098e-01  -1.870493e-01  -2.568743e-01  1.898096e-01  -1.677618e-01  -6.005212e-02  -6.384676e-02  8.478700e-02  1.697226e-01  -4.760018e-02  -6.005149e-02  -3.718385e-02  2.462506e-01  -2.116804e-02  1.885050e-01  2.566926e-01  -3.129725e-01  9.531151e-03  -2.871016e-04  -3.329432e-01  -1.332311e-01  1.458805e-01  2.785871e-01  -2.038709e-01  1.176899e-01  1.436991e-02  -1.836678e-01  -1.285389e-01  -1.724716e-01  -3.046177e-01  -2.951141e-02  -1.965007e-01  -1.090316e-01  -1.566869e-02  -1.273622e-01  -1.117144e-01  -1.481549e-01  -5.780854e-03  4.343956e-02  3.076469e-01  2.951799e-02  2.761422e-02  1.695684e-01  -2.849396e-01  1.000733e-01  -1.484712e-01  1.552672e-01  -3.213407e-01  -1.632150e-01  -1.449435e-02  -3.280270e-01  -2.481355e-01  -2.089793e-01  1.946165e-01  2.028926e-01  2.016292e-01  -7.632809e-02  6.051110e-02  6.210282e-02  -8.758461e-02  9.910546e-02  1.096964e-02  -6.518526e-02  2.457465e-01  -2.667865e-01  6.525431e-03  -1.109425e-01  -2.054319e-01  8.025188e-02  -2.715221e-01  1.071511e-01  2.962229e-01  2.159416e-02  -2.478049e-01  5.798378e-03  -1.895136e-01  4.632958e-03  -1.620815e-01  -6.572212e-02  4.134989e-02  3.712924e-02  5.667789e-02  2.159229e-01  -3.366196e-01  -1.363449e-01  2.991244e-02  4.869736e-02  9.493791e-03  3.478932e-01  1.825529e-01  -2.473636e-01  8.665682e-02  1.852277e-02  -3.179262e-01  9.571813e-02  -1.492787e-02  -5.531942e-01  -1.259882e-01  -3.105497e-01  -6.337643e-02  3.751443e-02  4.457789e-01  2.215544e-01  -3.059580e-02  -6.814796e-02  1.079371e-01  2.179390e-01  -1.048717e-01  1.537699e-01  2.791614e-01  -6.992017e-02  5.115192e-02  -1.959787e-01  2.667377e-01  -3.491002e-01  9.603809e-02  -4.022748e-02  1.667549e-01  1.741868e-01  4.259386e-01  -9.311073e-02  2.041257e-01  -1.135530e-01  6.243041e-02  2.804268e-01  6.543414e-02  2.152250e-01  2.907121e-01  -2.351981e-01  2.184054e-01  6.220669e-02  -2.694112e-02  4.508987e-02  -4.080106e-01  -2.716825e-01  3.494700e-01  -1.690182e-01  -1.876807e-01  2.772164e-01  -1.733245e-01  9.759208e-02  -2.576808e-01  -1.489149e-01  1.700480e-01  -7.781859e-02  -1.655504e-02  7.907687e-02  -9.799986e-02  -1.981516e-01  5.607309e-02  2.274576e-01  7.388461e-02  -8.249685e-02  2.335625e-01  3.635697e-02  -1.109417e-01  1.626962e-03  -7.446668e-02  3.359820e-02  -2.138653e-02  -1.769146e-03  3.420731e-02  -2.002121e-01  1.630531e-01  -1.446449e-01  -1.282270e-01  1.381949e-01  -2.694563e-02  5.457037e-02  5.660969e-02  -6.263454e-02  -1.253224e-01  -5.384670e-02  2.520032e-02  -1.814145e-01  2.407377e-01  5.810149e-02  1.297893e-01  6.743235e-02  1.229257e-01  -3.716760e-02  2.846556e-02  1.731210e-01  1.294445e-01  2.113843e-01  -3.657468e-03  -3.987437e-02  -3.141000e-02  7.342002e-02  -5.390034e-02  1.549226e-01  1.446127e-02  -1.303007e-02  1.973020e-01  3.016843e-01  1.441182e-01  -6.170428e-02  -5.811923e-02  1.246042e-01  5.216019e-01  -1.290017e-01  2.803229e-02  2.478465e-02  -1.349574e-01  5.761714e-02  -3.081252e-02  -4.494045e-02  -9.213180e-02  -2.066325e-01  -5.414835e-02  -4.982042e-02  -2.422208e-01  -1.775223e-01  8.605231e-02  2.341361e-01  -1.154784e-01  1.911251e-01  1.889096e-01  -1.354067e-01  -2.814737e-01  -2.095253e-01  1.268278e-01  -1.830187e-02  -1.444506e-01  1.078629e-01  -1.910987e-02  -1.201214e-01  -2.168023e-01  1.190589e-01  1.740192e-01  9.340231e-02  6.738987e-02  -5.388380e-02  -1.003013e-02  7.072087e-02  -2.368341e-02  2.327211e-01  -1.901727e-01  -2.173338e-01  -1.448707e-01  -2.652918e-02  -1.213619e-01  -1.515922e-01  -7.246139e-02  1.306274e-02  4.396712e-03  1.829591e-01  1.093745e-01  -1.214961e-01  -1.090068e-01  -2.521192e-01  1.107261e-01  -1.268021e-01  -1.504028e-01  -1.214085e-02  -2.491613e-02  1.171100e-02  2.062484e-01  1.822243e-01  2.752350e-02  -3.024643e-02  -3.224624e-01  1.037320e-02  -9.598466e-02  -1.844554e-01  -2.221301e-01  1.593421e-01  -2.074775e-01  -3.115109e-02  -2.095102e-01  -1.256796e-01  -7.852728e-02  8.801854e-02  9.669915e-02  -1.569515e-01  1.534010e-01  -7.729342e-02  3.673024e-02  -2.095550e-01  -2.208364e-01  -3.764711e-02  1.168974e-01  -2.711737e-01  -4.600290e-02  1.206668e-01  1.865574e-01  -2.498150e-01  -4.371662e-01  1.491067e-01  2.809601e-01  9.983991e-02  -1.747760e-01  -4.808936e-02  6.437045e-02  -2.741641e-01  -5.441808e-02  -2.528990e-01  -8.771751e-02  1.043015e-01  2.014046e-01  -6.738448e-02  -1.340340e-01  -1.363901e-01  7.554007e-02  -7.053923e-02  -2.075335e-01  -1.284435e-02  2.479696e-01  -5.200694e-02  1.002024e-01  3.058346e-02  -2.094705e-01  -2.589056e-01  -1.233319e-01  -4.996841e-02  2.477526e-03  -4.545980e-02  1.336788e-01  -1.543673e-01  5.301771e-02  1.670466e-01  -1.068100e-01  -3.451829e-01  -1.492537e-01  1.833489e-01  2.656551e-01  -1.165569e-02  -4.103551e-01  -4.119280e-02  1.996928e-01  -8.378281e-02  -8.364649e-02  5.931308e-02  -1.022454e-01  -8.632305e-02  4.922111e-02  -9.495358e-02  -1.291718e-01  -1.205332e-01  -1.789688e-01  4.911307e-02  2.808734e-01  1.264649e-01  9.601717e-02  1.610179e-01  1.410980e-01  -6.924590e-03  -9.158120e-02  -1.241010e-01  -2.345267e-01  8.373319e-02  2.259285e-01  -1.272375e-01  1.122888e-01  -5.392158e-03  -6.309668e-02  1.352744e-01  1.024273e-02  1.277523e-01  2.626766e-01  1.437254e-01  2.119315e-01  6.256796e-02  -2.531428e-01  -1.229938e-02  -1.562189e-01  3.972952e-02  -1.193633e-01  -1.286166e-02  2.527142e-01  -1.857755e-01  -3.630894e-01  -2.212324e-01  -1.692898e-01  2.974256e-02  2.095037e-01  1.910650e-01  3.149143e-01  -2.712584e-01  -2.451199e-02  2.196544e-01  1.386668e-01  -5.460065e-02  1.274851e-01  -3.559559e-01  -3.106905e-02  4.751666e-02  1.560775e-01  -1.105244e-01  -5.871502e-02  -2.088206e-02  4.517906e-01  -8.769572e-02  -2.098727e-01  1.350708e-02  -1.701659e-01  -2.067138e-01  -9.952051e-02  7.259639e-02  7.892188e-02  2.029927e-01  -1.168941e-02  -3.611226e-02  3.893711e-01  1.937875e-01  1.158945e-02  -2.509491e-01  1.230661e-01  -1.547009e-01  2.140724e-02  7.349316e-02  6.758616e-03  1.062663e-02  1.008028e-01  -1.518621e-01  -2.507719e-01  2.301092e-01  1.234284e-01  -8.556299e-02  -2.069734e-02  -3.536431e-02  -2.590715e-02  -1.910304e-03  -2.236939e-01  -9.533709e-02  -2.956907e-01  1.169089e-01  8.707622e-02  -1.797108e-01  -2.302821e-01  1.377959e-01  -1.137310e-01  -5.429882e-02  6.771787e-02  1.811424e-01  1.991706e-01  1.050486e-01  -2.225645e-01  -1.917876e-01  -2.046748e-01  -1.043976e-01  -4.772475e-01  7.595624e-02  1.296146e-01  1.711014e-02  -1.661018e-02  3.831602e-02  -1.649998e-01  2.608783e-01  -8.693340e-02  -2.547622e-01  9.892979e-02  -4.326413e-02  1.351403e-01  1.990785e-01  -2.242796e-01  1.107649e-01  2.944340e-03  5.113034e-02  5.643311e-02  1.087775e-01  6.224442e-02  7.496610e-02  -2.699772e-02  -3.960341e-01  -2.222989e-01  1.421192e-02  -3.035388e-01  6.065962e-02  2.523948e-02  1.837102e-01  7.174256e-02  1.209134e-01  -1.521629e-01  1.385848e-01  6.341869e-02  9.774011e-02  8.747385e-02  -6.014464e-02  4.265622e-01  -2.979615e-01  -2.462479e-01  -6.531228e-02  -2.012491e-01  2.206530e-01  9.927583e-02  2.836649e-01  6.279235e-02  2.019542e-01  2.835412e-01  2.202777e-01  -2.368999e-01  4.905507e-01  9.413391e-02  5.067657e-02  -1.440532e-01  1.520292e-01  -1.302538e-01  -8.744902e-02  -1.357110e-02  -1.036827e-01  7.580725e-02  8.319882e-02  1.619683e-01  -1.051190e-01  2.607825e-01  -9.155695e-02  1.876396e-02  3.443160e-01  5.476864e-02  9.168781e-02  -3.905796e-02  -3.665989e-01  1.044996e-01  1.795521e-01  6.354030e-02  -1.611222e-01  -1.708054e-01  -1.243308e-01  6.062537e-01  -1.913389e-01  1.185513e-01  3.003928e-01  1.166322e-01  -2.242149e-01  7.154014e-02  -3.111764e-01  5.031432e-02  9.040275e-02  2.921495e-01  -1.250223e-01  3.621978e-01  -7.852850e-02  1.715701e-02  -2.586252e-01  -6.640049e-02  -1.279826e-01  -1.698344e-01  9.416990e-02  1.134037e-01  -1.393758e-02  -9.141838e-03  -6.964485e-02  -4.098909e-01  1.873095e-01  -1.123816e-01  1.370947e-01  -5.633871e-02  5.945767e-02  -2.464378e-01  -2.521175e-01  -2.108387e-01  -2.119578e-01  -2.716999e-01  -6.649883e-02  -6.698082e-02  -4.595883e-01  -1.201366e-01  -2.281046e-01  -2.247719e-02  3.191634e-01  1.723997e-01  3.955397e-02  2.036142e-01  1.578331e-01  8.523997e-02  -6.899071e-02  -6.190096e-01  -2.844361e-02  -1.679944e-01  1.672481e-01  -2.107825e-02  -3.674725e-01  -2.100616e-01  -1.203031e-01  -1.301570e-02  3.766359e-01  -2.209990e-01  -1.642668e-01  -9.463172e-02  1.484148e-01  3.209760e-01  2.843387e-01  -4.905623e-01  7.182167e-02  8.951838e-02  -2.377172e-01  3.729478e-03  -8.551721e-03  1.861957e-01  1.643791e-01  -1.720882e-01  3.117718e-01  -3.429383e-02  -1.536300e-01  2.205283e-01  -8.258476e-02  4.172895e-02  -3.233059e-01  2.343149e-01  5.808432e-02  -1.791855e-01  -4.727734e-02  3.159794e-01  1.742445e-01  1.866558e-01  -1.371748e-01  1.726006e-01  1.274762e-01  2.411556e-01  8.976271e-02  1.225765e-01  -7.815090e-02  -2.570158e-02  -1.075439e-01  -2.902400e-01  2.789692e-01  -8.642127e-02  -1.203305e-01  -1.086810e-02  -4.537547e-02  1.429089e-01  2.350925e-01  -1.234363e-01  7.583704e-03  1.241592e-02  1.230360e-01  1.979472e-01  1.077618e-01  -3.257825e-01  -2.315195e-01  -1.277949e-01  6.426983e-02  -4.078699e-01  2.626219e-01  1.334026e-01  -3.453540e-04  1.732940e-01  -7.388439e-02  -2.390545e-01  2.328168e-01  -1.580292e-01  -3.456470e-01  9.651980e-02  -4.247614e-02  3.834856e-01  -1.989728e-02  1.615207e-01  2.429619e-01  -7.792581e-02  -2.343847e-01  1.532497e-01  -1.076345e-01  -1.459536e-02  1.347423e-01  1.315364e-01  2.089344e-01  -1.191988e-01  2.477919e-02  1.607508e-02  1.216296e-01  9.105113e-02  5.423183e-02  1.449286e-01  -1.605567e-01  -2.017113e-03  1.335243e-01  1.864210e-02  1.599816e-01  1.303263e-02  1.276623e-01  1.094960e-01  1.180572e-01  1.660887e-01  -1.185528e-01  2.596599e-01  -5.205055e-02  -1.087444e-01  1.958227e-01  -1.807238e-02  1.194249e-01  7.219808e-04  1.100499e-01  3.842180e-03  1.065269e-01  9.595125e-02  -1.764375e-02  9.056176e-02  -1.878537e-02  2.915805e-01  -1.002228e-01  -2.483373e-02  -2.573561e-02  4.020406e-02  1.205104e-01  2.270719e-01  -8.219939e-02  -8.090118e-02  1.718120e-01  -1.357927e-01  8.940259e-02  9.638338e-02  -8.744806e-02  3.894710e-02  1.188628e-01  -1.568510e-01  7.940486e-02  -2.545997e-02  -8.907428e-02  6.764077e-02  -9.643308e-02  4.165498e-01  1.519656e-01  1.633536e-01  -1.274011e-01  6.547576e-02  4.336970e-02  2.265293e-01  -3.941845e-02  -1.524312e-01  -2.274272e-01  -2.056860e-01  1.641134e-01  -9.551955e-02  -4.123800e-02  6.845845e-02  1.800927e-01  -2.504767e-01  2.832416e-02  1.474813e-01  1.375960e-01  -7.874756e-02  -9.777091e-02  -3.756345e-02  1.436100e-01  -6.719050e-02  -2.221394e-01  -2.225780e-01  -1.054252e-01  -8.203829e-02  1.248036e-01  2.217857e-01  3.378888e-01  1.788254e-01  2.064248e-01  1.117565e-01  2.971053e-01  -1.411838e-01  1.057452e-01  7.689668e-02  2.277431e-02  1.729934e-01  -3.427438e-02  -7.312864e-02  -3.070088e-01  1.080205e-01  1.107573e-01  3.294271e-01  1.541403e-01  3.312751e-01  6.985181e-02  1.794812e-01  5.443239e-02  1.158694e-01  -1.115467e-01  -2.234719e-01  -9.475699e-03  1.740430e-01  -2.365161e-01  -2.701380e-02  3.426263e-01  -1.068416e-01  -2.162556e-01  -3.435703e-01  -1.503976e-01  2.130961e-01  -7.917750e-02  1.206511e-01  7.178776e-02  -1.127158e-01  3.734395e-02  4.590780e-02  -1.153045e-01  -1.179761e-01  3.424171e-02  -2.152477e-01  -2.116584e-02  7.687062e-03  -6.913843e-02  5.290006e-02  -5.915637e-02  -1.276992e-02  1.329350e-01  -4.813702e-02  2.167185e-01  1.476667e-01  -1.617504e-02  9.613219e-02  -2.603729e-01  3.460525e-01  -1.126262e-01  -6.819049e-02  9.046841e-02  7.741102e-02  -3.705215e-02  -1.866695e-01  -8.061978e-02  -2.509712e-01  6.316376e-02  -2.225519e-01  7.415649e-02  1.953861e-01  -4.110896e-02  6.032106e-02  5.230321e-02  5.092835e-02  1.542795e-02  3.127286e-01  2.353343e-01  -9.218191e-02  -5.353537e-02  1.946809e-01  -1.626868e-01  1.942606e-01  5.137757e-02  -1.693781e-01  1.879472e-01  -2.561229e-02  -1.203343e-01  5.499513e-02  4.452067e-02  -1.224101e-01  2.018424e-01  -1.403462e-01  -2.547448e-01  2.390227e-01  -1.233117e-01  1.921533e-01  1.250357e-01  2.389546e-01  -8.379112e-03  -8.702547e-02  1.660574e-02  1.398112e-01  1.025358e-01  6.257169e-02  1.039056e-01  5.996248e-02  6.348491e-05  2.504264e-01  -1.793845e-01  2.862011e-01  5.296677e-01  3.664913e-02  -3.463978e-01  -1.141071e-01  -3.379949e-01  -1.483471e-01  4.649588e-02  1.303042e-01  1.132320e-01  3.332379e-02  -4.239495e-02  2.361176e-01  5.748662e-02  2.465242e-01  6.048597e-02  3.105827e-01  -2.609051e-01  -1.198918e-01  -6.019786e-02  -6.900631e-02  -3.359015e-01  -2.226658e-01  -1.195787e-01  3.890805e-01  3.555965e-02  -1.294597e-01  2.198321e-01  -7.082096e-02  -3.792918e-01  -1.572205e-02  2.904157e-01  8.816938e-03  2.222638e-01  -2.058922e-01  -2.381190e-01  -3.046878e-01  -2.230930e-01  -2.401893e-01  5.004214e-02  -1.388880e-01  -2.121358e-02  4.155612e-01  4.073796e-02  -2.170062e-01  2.669257e-01  -3.366468e-01  -8.944321e-02  6.530086e-02  3.211688e-02  2.059687e-01  -2.238682e-01  -1.758095e-01  5.015152e-02  2.060423e-01  3.003811e-02  1.761798e-01  -3.367006e-01  1.080543e-01  7.088207e-02  -1.076975e-01  6.686391e-02  -5.401408e-02  -2.452146e-02  1.037081e-01  -2.183497e-02  2.688035e-01  4.988846e-02  -1.849067e-01  4.137247e-02  1.074399e-01  4.963925e-02  -8.654197e-02  -1.012841e-01  4.942427e-02  1.813690e-01  -3.354796e-02  9.647274e-02  1.374482e-01  2.453725e-02  3.364336e-02  -9.366520e-03  1.686220e-01  -1.514699e-01  3.536354e-02  -5.512529e-02  3.971688e-02  2.153417e-01  -1.743457e-01  -1.046372e-01  -1.360891e-02  1.701930e-01  -6.587880e-02  -1.118570e-01  -2.887609e-01  -1.361720e-01  2.266941e-02  6.012429e-02  -3.425483e-02  -8.400469e-02  5.004577e-03  -2.021197e-01  5.108779e-02  -1.005334e-01  -4.514533e-02  1.341170e-01  2.669831e-02  1.972468e-01  1.488267e-01  -1.121373e-01  -4.137099e-02  2.439689e-01  2.055464e-02  -1.559907e-02  1.520840e-01  3.551058e-02  -1.430880e-01  1.478373e-01  -2.220757e-01  3.358043e-02  -5.124656e-02  9.094989e-02  8.110052e-03  -1.546077e-01  1.058126e-01  1.301934e-02  6.960521e-02  2.337827e-02  -3.562767e-01  1.034728e-01  1.578417e-01  1.821353e-01  -2.186326e-01  1.523488e-01  2.061034e-01  -6.747887e-02  -8.166718e-02  -2.912721e-01  -2.029948e-01  3.382608e-01  -1.253040e-01  -1.058862e-01  -8.174142e-03  2.342730e-02  -1.770095e-01  -1.235498e-01  2.199296e-01  -8.834478e-02  3.294494e-01  9.659275e-02  9.789202e-02  9.737273e-02  -2.294226e-01  1.030597e-01  1.288741e-01  -1.737736e-01  -1.531203e-01  -3.992875e-02  -1.202411e-01  -2.513633e-01  4.120436e-02  -1.918566e-01  4.377142e-02  3.500294e-01  1.878109e-01  2.262946e-02  2.931848e-01  -1.424576e-01  4.231546e-02  9.347659e-02  -1.301653e-01  1.056952e-01  8.446080e-02  -2.889332e-01  -1.968949e-02  2.658848e-01  -2.487117e-02  8.427195e-02  -3.505719e-01  1.420037e-01  1.082298e-01  -1.927252e-01  1.032236e-02  2.370600e-01  -1.682850e-01  8.944691e-02  -2.588498e-01  6.052896e-02  -2.157733e-01  -7.980745e-02  -1.832848e-01  -1.681992e-01  -8.793119e-02  1.262137e-01  -4.351806e-02  -1.448008e-01  2.744385e-03  -1.225796e-01  7.324581e-02  2.040381e-01  4.418610e-02  1.249989e-01  1.029359e-01  3.962834e-03  3.115131e-01  -1.923296e-01  -2.185199e-02  1.443780e-01  -1.622440e-01  9.792520e-02  -2.026494e-01  2.343590e-02  -1.299825e-02  1.917762e-01  -9.494068e-02  1.268853e-02  1.550663e-01  4.511329e-02  7.067998e-02  4.402580e-02  2.680642e-01  2.164529e-01  7.921185e-02  -4.694704e-02  -1.305989e-01  1.657335e-01  1.361585e-01  6.199392e-02  -1.110537e-01  1.174873e-01  -2.495780e-01  2.196796e-01  -1.409702e-01  6.299756e-02  -6.823757e-03  -2.418043e-01  -1.412259e-01  -6.013749e-02  -1.422751e-01  -2.117545e-01  1.763350e-01  7.125410e-02  4.591825e-02  7.867483e-02  2.355176e-01  2.623356e-01  2.288226e-01  -1.637011e-01  3.717662e-02  3.815273e-02  -8.788555e-02  9.990066e-02  2.754325e-01  -6.275459e-02  1.249189e-01  -7.641204e-02  -1.252789e-01  -1.902681e-01  2.684304e-01  2.849198e-01  -2.671728e-01  9.885944e-02  -6.253640e-02  6.811238e-02  -1.158226e-01  -1.287306e-01  -1.139051e-01  -4.847708e-02  -9.606026e-02  -1.760902e-01  2.296815e-02  -2.300074e-01  6.915846e-02  -2.784928e-02  -6.057144e-02  1.593651e-01  1.776528e-01  -1.609173e-01  1.670357e-01  9.367212e-02  -1.365021e-01  -3.916943e-02  -6.580870e-02  -2.339032e-01  4.328933e-02  6.349490e-02  -1.844424e-01  -2.221272e-01  -7.408436e-02  -1.182220e-01  2.089192e-01  1.057873e-01  -1.038284e-01  -7.886264e-02  2.642815e-01  -2.773256e-01  -8.580847e-02  2.409429e-01  -4.683341e-02  1.484765e-01  -6.391875e-03  -1.916943e-01  3.680078e-03  2.010645e-01  -2.077550e-01  -1.290811e-02  -2.689560e-01  4.649313e-02  1.100278e-01  -2.787244e-01  -5.119618e-02  2.211972e-01  9.987453e-02  6.795647e-02  4.304107e-02  -1.967173e-01  2.766659e-02  1.698091e-01  2.923844e-02  2.295822e-01  7.978875e-02  -1.716918e-01  -2.403757e-01  -1.210032e-01  2.854703e-01  -7.883125e-02  -2.447008e-01  -1.703064e-03  2.797410e-01  2.554005e-01  5.918857e-02  -2.842139e-01  2.944179e-01  -5.300523e-02  -3.051102e-02  9.548031e-02  2.481304e-01  1.314493e-01  -3.002451e-01  -9.294000e-02  3.462850e-02  2.050647e-01  -9.750044e-02  -8.687311e-02  2.075073e-01  -1.522578e-01  6.228032e-02  3.664663e-02  -1.395953e-02  1.555431e-01  1.077505e-01  3.414155e-01  6.759676e-02  -5.985309e-02  -1.265457e-01  -1.781641e-01  -1.440847e-01  -7.220525e-02  4.032357e-02  3.643936e-02  -1.653021e-01  -1.141564e-01  1.202602e-01  -1.403653e-03  -2.708808e-01  1.394057e-01  -9.018298e-02  -1.127054e-01  -1.484951e-02  -2.188461e-02  6.795128e-02  -7.206997e-02  8.562052e-02  2.841205e-01  1.856062e-01  -1.464509e-01  2.103231e-01  8.591180e-02  2.586248e-01  9.167700e-02  1.165607e-01  4.644141e-02  -5.377774e-02  1.093102e-01  1.625079e-01  1.757640e-01  -5.823730e-02  -9.196123e-02  5.411102e-02  -2.062390e-02  -3.742312e-01  -1.446603e-01  3.296571e-01  3.235647e-02  2.614995e-01  -1.153312e-01  -1.305412e-01  -2.706648e-02  -8.904725e-02  2.535005e-01  3.118605e-01  -1.264965e-01  -3.253121e-01  1.587952e-01  -3.233786e-01  2.050206e-03  -1.021254e-01  -3.389188e-01  1.980655e-01  -1.520431e-01  -1.387846e-01  9.661164e-02  1.308522e-01  -1.473095e-01  3.162943e-01  1.021655e-01  3.515445e-01  3.042192e-01  5.957353e-02  -4.614894e-02  -2.660239e-01  -5.299404e-03  -1.933753e-01  1.906210e-01  -4.555564e-02  -1.428983e-01  1.257932e-01  1.047329e-01  -5.319756e-02  1.505701e-01  -1.052391e-01  -1.334793e-01  7.220534e-02  1.483571e-01  1.206764e-01  4.113999e-03  -1.188944e-01  3.498906e-01  2.203451e-01  -2.374589e-01  -1.351640e-01  1.492753e-01  2.052638e-01  -6.229674e-03  1.460749e-01  5.777410e-02  1.002426e-01  7.109235e-02  -1.831786e-01  1.111018e-02  6.631990e-03  2.986978e-01  -3.675971e-02  -7.331724e-02  8.660072e-02  -2.075224e-01  -2.501543e-01  -1.250965e-01  -1.172058e-01  2.749369e-01  -2.974057e-01  -9.705592e-02  1.059311e-01  2.833859e-02  7.387777e-02  -9.542314e-02  1.508181e-01  -6.054244e-02  1.783012e-01  -9.845800e-02  -1.484315e-02  -6.239125e-03  -8.707589e-02  -7.361993e-03  -2.238006e-01  4.114842e-02  -1.732781e-01  2.281218e-02  -6.576217e-02  -1.149472e-01  8.740927e-02  -8.564936e-02  1.511579e-02  2.787145e-01  1.345449e-01  -8.433560e-02  -1.413843e-02  7.963652e-02  -9.820442e-02  8.207327e-02  -1.669416e-01  -2.868115e-02  -6.290085e-02  -2.277225e-01  -1.095432e-01  1.372529e-01  -1.043267e-01  6.668323e-02  -1.258957e-01  -1.196297e-01  -5.088874e-02  -1.808004e-01  -1.920039e-01  2.107024e-01  -1.004231e-01  -6.015318e-02  1.063484e-01  1.593615e-02  8.258327e-02  2.053490e-01  -2.066759e-01  -2.254619e-01  6.241915e-02  2.117137e-01  -2.301275e-01  -1.655778e-01  2.108906e-01  -2.115217e-01  9.187759e-02  2.260383e-01  7.357957e-02  1.483824e-01  4.852125e-02  -1.860735e-01  1.208250e-01  -7.851820e-02  -1.547005e-01  2.459229e-01  -7.405345e-02  -7.479689e-02  -8.036044e-02  -3.421362e-01  2.647281e-02  3.822548e-03  -2.164773e-01  -1.265548e-01  1.358019e-01  -8.597726e-02  1.935811e-01  2.570785e-02  -6.528186e-02  1.462691e-01  8.607443e-02  1.933206e-01  3.192341e-02  6.530158e-02  5.160046e-02  7.148921e-02  5.628745e-02  1.875719e-01  -1.046252e-01  9.027855e-02  -8.114854e-02  -1.060431e-01  6.826050e-02  9.633606e-02  -2.057135e-01  -6.237286e-02  -1.841132e-01  8.765655e-03  1.552104e-01  -2.220502e-01  2.411511e-01  1.932895e-01  1.624922e-01  1.255548e-01  9.940942e-02  -7.588968e-02  -4.888915e-02  -1.062175e-01  1.038678e-01  1.762582e-02  2.376451e-01  1.839672e-01  1.674131e-01  1.679600e-01  -7.164974e-02  -8.531519e-02  4.700015e-02  -1.922033e-02  -3.004508e-01  -6.155187e-02  -2.293749e-02  -9.072521e-02  -2.116962e-01  4.692614e-02  -1.218069e-02  3.088846e-01  -3.279789e-01  5.877228e-02  -8.654889e-03  -1.048993e-01  3.153079e-02  -9.202319e-02  1.883712e-01  2.689267e-02  1.515921e-01  1.418771e-02  -5.704955e-02  2.659338e-03  -2.705763e-01  -8.163082e-02  -1.413598e-01  6.460193e-02  -7.700678e-02  2.692175e-02  -6.765471e-02  -2.538473e-01  -5.149319e-02  -2.241166e-01  -6.071509e-04  8.948200e-02  2.600224e-02  -1.351975e-01  1.627918e-01  -2.622457e-01  5.056254e-02  5.616321e-02  4.198926e-02  2.256649e-01  5.815697e-02  2.759657e-02  2.133243e-02  -9.713870e-02  4.184482e-02  -1.828634e-02  -1.641281e-01  -8.717327e-03  -7.035825e-02  -6.063082e-02  -9.088718e-02  2.594789e-01  5.760422e-03  8.058473e-02  1.235819e-01  -1.522384e-01  7.619302e-02  8.669347e-02  6.340645e-02  -4.037762e-02  1.842441e-02  -1.131689e-01  -1.496085e-01  -1.876299e-01  -1.515145e-01  -3.082215e-01  -2.061688e-01  -1.849419e-01  8.360143e-02  -2.105460e-01  4.524618e-02  -2.411593e-01  -3.453508e-01  2.627510e-01  7.226106e-02  1.604350e-01  7.288267e-02  -7.725284e-03  7.248206e-02  -1.875944e-01  -4.956209e-02  -1.505773e-01  -1.395231e-01  1.338603e-01  2.290599e-01  -1.027891e-01  -1.186461e-01  6.916381e-02  -1.553803e-01  -2.327406e-02  -4.491104e-01  -7.546122e-02  7.964685e-02  -9.913114e-02  -2.238020e-02  -2.112195e-01  -4.765130e-01  -2.888838e-01  -4.855895e-02  6.210479e-02  2.849496e-01  -1.104080e-02  4.122408e-02  -1.260662e-01  -2.686253e-01  2.367339e-01  -1.869659e-01  -1.277550e-01  -7.001608e-02  2.137967e-01  3.132045e-02  9.675984e-03  -3.614430e-01  4.305087e-02  -8.817977e-02  -1.317166e-01  -1.937977e-01  1.778357e-01  -1.168804e-01  7.749676e-02  1.154758e-01  1.262750e-01  -6.720971e-02  -3.107963e-01  2.237814e-01  1.787030e-01  7.561326e-02  -2.386456e-01  8.009930e-03  -1.305571e-01  1.534330e-02  5.492992e-02  1.209037e-01  3.911813e-03  1.909984e-02  -4.914811e-02  -1.318880e-01  1.908066e-02  -2.064777e-01  2.110028e-02  -1.465992e-01  5.004057e-02  -2.431256e-01  -3.537908e-01  -1.241044e-01  5.315791e-02  -1.463303e-01  -8.602791e-02  -9.111754e-02  2.168221e-01  1.578965e-01  -1.468147e-01  2.841369e-03  1.110746e-01  4.188252e-03  -4.956060e-02  4.039931e-02  -4.456048e-02  1.124473e-01  8.805449e-02  -6.260730e-02  -7.026225e-02  -1.313935e-01  -4.690467e-02  -1.272318e-01  -1.893161e-02  -1.725379e-01  -1.685022e-01  -9.138412e-02  -1.008023e-02  7.699326e-02  -5.414016e-02  3.191491e-02  -9.868230e-02  2.945395e-04  -8.550997e-02  7.099403e-02  -5.517323e-02  5.671182e-02  -1.903835e-01  4.885036e-02  5.079510e-02  -7.046870e-02  2.448843e-01  -1.754039e-01  1.757273e-02  -1.522649e-02  1.340842e-02  1.021983e-01  5.179371e-02  -1.118479e-02  -3.024631e-01  2.920370e-01  2.533732e-01  -2.117213e-01  -7.362132e-02  1.553273e-02  3.101735e-01  1.793712e-01  -1.559168e-02  -2.365319e-01  -2.767260e-02  -2.022592e-01  2.162832e-01  1.674347e-01  -5.038863e-02  -9.449114e-02  7.630236e-02  -1.004477e-01  1.038918e-01  6.096383e-02  -1.273988e-01  -1.296321e-01  -1.360013e-01  -1.171171e-01  2.154853e-02  -6.678839e-02  -1.240781e-01  2.511671e-01  3.280472e-01  5.124909e-02  3.548631e-02  -1.032251e-01  2.153071e-02  -1.410446e-01  1.360327e-01  -2.335592e-01  1.347363e-01  -7.060669e-02  -8.363590e-02  1.711674e-01  -3.911826e-02  2.415725e-02  1.666686e-01  -2.176675e-01  -1.987470e-01  3.197232e-02  -6.779794e-02  2.250498e-01  1.041063e-01  -1.283910e-01  3.729403e-02  7.247639e-02  -1.638028e-01  -1.326574e-01  1.975548e-01  -2.023030e-02  2.012975e-01  -2.168496e-02  -2.412307e-01  2.488168e-01  3.570288e-02  -1.401307e-01  2.222325e-01  -5.470213e-03  2.142051e-01  3.893020e-02  -3.119714e-02  7.728663e-02  -1.727858e-01  -2.774276e-01  -1.920585e-01  8.728933e-02  1.976592e-01  -1.982158e-01  -7.235520e-02  -1.670854e-01  -1.498169e-01  -1.171123e-01  -1.130557e-01  8.178660e-02  8.320681e-02  1.832874e-01  -2.258729e-01  6.724160e-02  1.624396e-01  -1.604002e-01  2.484697e-02  -5.289514e-02  6.640999e-02  -2.017558e-01  -1.193976e-01  -1.702405e-01  -2.724114e-01  1.994322e-01  -2.061054e-01  -1.569601e-01  4.947904e-02  1.483861e-01  -1.641963e-01  -8.733909e-03  -1.513638e-01  -1.634912e-02  8.403774e-02  -5.993370e-02  -4.857567e-02  2.547479e-01  -1.061103e-01  2.008066e-01  1.159801e-01  -7.489067e-02  1.182656e-01  2.134660e-02  -1.891543e-01  -8.226924e-02  -2.526433e-01  -8.025154e-02  7.077953e-02  6.174118e-02  7.890224e-02  1.469543e-02  7.211598e-02  9.705389e-02  -1.251294e-01  2.567191e-01  -1.115754e-01  3.195802e-02  -2.089809e-02  7.638627e-02  -1.688163e-01  6.127063e-02  7.737825e-02  2.839085e-01  -2.038498e-01  -1.527042e-01  5.981879e-02  2.463097e-01  7.345830e-02  -2.087159e-01  4.883156e-01  3.013757e-01  9.047735e-02  -1.457854e-02  -1.075974e-01  -9.083965e-02  -3.482812e-01  1.004609e-01  -1.385050e-01  6.190775e-02  7.944211e-02  -8.085352e-02  3.889710e-03  -1.742770e-01  1.078074e-01  1.262671e-02  5.920097e-02  -2.995730e-01  1.499742e-01  -3.590045e-02  -1.570666e-01  -1.919272e-01  2.987549e-02  -4.047607e-01  -1.575620e-01  -4.414787e-02  1.439560e-01  -1.159561e-01  -1.947606e-02  -2.457767e-01  -2.473208e-01  7.239243e-02  1.315497e-01  -9.638749e-02  -3.157402e-01  -4.496193e-02  1.815644e-01  2.377497e-01  5.795901e-02  -5.237955e-01  5.086095e-02  -4.791513e-02  -7.671791e-02  -1.991375e-01  1.273080e-01  -1.376888e-01  6.100708e-02  1.636025e-01  -2.943536e-02  1.948369e-01  1.795434e-01  5.598766e-02  -6.053367e-02  3.778284e-01  8.923248e-02  -1.616435e-01  1.362517e-02  2.557175e-01  -2.384494e-01  -1.355080e-01  -1.197036e-01  -2.241730e-01  1.846638e-01  -1.650640e-01  -2.609717e-02  1.276816e-01  -3.014424e-01  3.402700e-02  8.626708e-03  6.422098e-02  6.380938e-02  5.859235e-02  5.674950e-02  1.267887e-01  2.444160e-01  3.524144e-03  -1.736423e-01  -5.780051e-02  1.995953e-02  -1.912073e-01  -1.062641e-01  -2.476345e-01  -9.110598e-02  1.164885e-01  5.336374e-02  3.850901e-02  2.671520e-01  -7.169610e-02  -2.150924e-01  1.835374e-01  -5.374961e-02  2.917690e-02  1.288102e-01  -1.207201e-01  3.961600e-02  1.329404e-01  -2.442284e-01  6.378877e-02  -9.718966e-02  -1.558809e-01  8.836845e-02  -1.800672e-01  -9.256628e-02  -5.809401e-02  -2.451054e-01  -2.180281e-01  1.140883e-01  -5.511479e-02  -1.939800e-01  1.848347e-01  -8.585339e-02  2.452904e-01  -1.531647e-01  9.095895e-02  1.640863e-01  -2.505971e-01  -2.777662e-02  2.754633e-01  1.675032e-01  -1.037266e-01  7.228237e-04  -6.487626e-02  -7.803835e-02  -2.958271e-01  -1.711018e-01  -1.463307e-01  4.958702e-02  -2.264411e-01  5.207958e-03  9.773969e-02  -2.428961e-01  -2.204684e-01  -9.078725e-02  1.676628e-01  1.501207e-01  2.649031e-01  -9.993154e-02  1.001316e-01  -2.634602e-03  -1.942803e-02  8.111975e-02  1.721636e-01  -1.631008e-01  -1.970393e-01  -5.775492e-02  -3.208286e-02  -9.404551e-02  -1.949249e-01  9.459387e-02  -3.444853e-03  2.381537e-01  2.923758e-01  -1.243030e-01  1.905687e-02  -2.446030e-01  9.333709e-03  5.327589e-02  -1.949718e-01  8.092259e-02  2.119404e-02  -1.697043e-01  2.196504e-01  5.758288e-02  -1.206316e-01  -2.257320e-01  -2.949950e-02  -6.278544e-02  -7.972196e-02  -2.770251e-01  -7.907943e-02  -6.733102e-02  6.059693e-02  2.860006e-02  7.333590e-03  8.000949e-02  2.403081e-01  -1.060316e-01  1.236008e-01  -1.877442e-01  -1.613388e-01  -1.085937e-01  2.014741e-01  1.725223e-02  -1.747137e-01  1.155528e-01  -1.324922e-01  -1.450070e-01  -1.711463e-01  -1.104066e-01  -1.710638e-01  1.682024e-02  -2.069949e-02  -4.192551e-02  6.671239e-02  -3.152304e-01  7.656829e-03  -6.864101e-02  2.348564e-01  1.715889e-01  1.015172e-01  7.766465e-02  2.051518e-01  2.344133e-01  -9.084587e-02  2.329043e-02  1.188731e-01  -1.607896e-01  7.370375e-03  9.809744e-02  2.294518e-03  -2.287403e-01  -1.407610e-01  5.647790e-03  1.490131e-01  2.855729e-01  1.668446e-02  -1.130871e-01  8.343171e-02  -1.008984e-01  -1.193248e-02  -9.084632e-02  -3.838565e-03  2.761768e-02  6.365424e-02  -1.400696e-01  1.752029e-01  -8.339018e-02  -1.843155e-01  -7.989982e-02  -1.120701e-01  -1.587886e-01  -8.364033e-02  -2.587544e-01  1.854280e-02  1.155475e-01  -1.772578e-01  -5.331764e-02  1.035779e-01  3.643084e-02  1.310435e-01  -1.432923e-01  1.818910e-01  -6.124107e-02  8.748377e-02  -4.724412e-02  3.535969e-02  4.709153e-02  -2.024302e-01  -4.217647e-02  -2.683162e-02  -1.822790e-01  -2.084769e-01  6.252002e-03  -2.046953e-01  2.183020e-01  -1.726141e-01  1.979595e-01  -8.593203e-02  3.127514e-02  1.651208e-02  -1.607015e-01  -9.639105e-02  2.124569e-01  1.751915e-01  6.180196e-02  1.804114e-01  1.584622e-01  -2.263016e-01  -1.090665e-02  -2.366685e-02  1.392744e-01  -2.901383e-02  -5.947791e-02  -2.527961e-01  -8.454860e-03  1.090964e-01  -2.233357e-01  9.344828e-02  1.792033e-01  1.165494e-01  -1.999502e-01  1.865571e-01  -2.445735e-01  -9.477223e-02  8.259587e-02  1.883571e-01  8.415245e-02  2.578475e-01  -2.157302e-01  1.970197e-01  5.580864e-02  -1.958977e-01  -1.211605e-01  -1.313962e-01  8.237031e-03  1.187214e-01  2.465006e-02  4.419772e-02  1.754524e-01  -2.106436e-01  -5.838428e-02  -1.218481e-01  -1.132291e-01  -1.695435e-01  7.703565e-02  3.164499e-02  8.369215e-02  1.423444e-01  -1.427570e-01  -2.624890e-01  -1.751667e-01  1.028102e-01  3.708866e-02  -3.978012e-03  2.750412e-02  2.046339e-01  8.504802e-02  9.065017e-02  -2.112122e-01  1.141162e-01  -1.661153e-01  -2.616035e-02  2.505951e-01  4.743542e-02  2.182632e-01  -1.971535e-01  6.876266e-02  -8.264771e-02  -3.181438e-02  -2.204357e-01  3.442182e-02  -6.887062e-02  -4.617625e-02  2.654707e-01  -5.247382e-02  1.633286e-01  -3.214222e-02  2.465967e-01  1.608771e-01  -8.445340e-02  2.472467e-02  2.018699e-01  -2.174200e-01  1.850334e-01  2.044370e-01  -1.655861e-02  1.767136e-01  -5.101160e-02  -2.085849e-01  1.510683e-01  7.535044e-02  7.177879e-02  9.718549e-02  -2.251620e-01  -1.941364e-01  2.268157e-02  -2.461322e-01  -6.771649e-02  1.689013e-01  2.294116e-01  5.906140e-02  2.234493e-01  8.138601e-02  2.547657e-01  1.321232e-01  1.040790e-01  -5.286623e-02  -7.039061e-02  -5.586436e-02  1.291118e-01  1.142035e-01  -6.971505e-02  -9.608283e-02  1.931336e-01  1.896633e-01  -6.221177e-02  3.224754e-02  8.575395e-02  -1.933379e-01  -1.281053e-01  -1.770676e-01  -1.118808e-01  6.462069e-03  -9.888975e-02  -4.677214e-02  -2.939080e-02  6.552043e-02  -6.023115e-02  -2.094307e-01  2.677781e-01  3.631819e-01  -2.767807e-02  -8.790550e-02  6.199796e-02  1.361151e-01  -5.375228e-03  -5.043569e-02  -1.917729e-01  6.923591e-02  1.314404e-02  -1.846800e-01  -1.607462e-01  -6.690724e-02  1.056571e-02  -8.545517e-02  1.039063e-01  2.591676e-01  2.644785e-01  -1.171641e-03  3.417528e-01  -2.073956e-01  -1.259128e-01  3.659082e-02  1.154713e-01  1.020024e-01  2.221686e-01  -1.066364e-01  1.069339e-01  -1.214677e-01  7.264163e-02  -9.170857e-02  -1.442750e-01  -3.009646e-01  1.661970e-01  -2.467970e-01  1.092402e-02  6.035044e-02  -5.833353e-02  3.038803e-02  2.849998e-01  -2.233362e-01  9.882030e-02  7.220167e-02  1.318413e-01  -6.870270e-02  1.907210e-01  4.183101e-02  -1.279656e-01  -2.522146e-02  -1.230326e-01  1.021471e-01  1.200377e-01  -1.543675e-01  1.362696e-01  1.227778e-01  -1.601875e-02  -1.463468e-01  -8.432262e-02  1.657955e-01  1.619675e-01  -9.575085e-02  -1.966205e-01  -1.937960e-01  -5.256759e-02  -3.377728e-01  -1.720009e-01  4.194465e-02  -1.390469e-01  -1.713449e-02  -2.656773e-02  1.018138e-01  -1.229929e-01  -8.472913e-02  -1.820453e-01  -1.404602e-01  -1.068232e-01  1.696225e-01  9.286792e-02  -1.446189e-01  1.070859e-01  6.300977e-02  -2.153715e-01  -1.021848e-01  -1.261783e-01  9.666513e-02  2.058354e-01  1.124772e-02  -7.301592e-02  -7.964108e-02  1.633014e-01  -7.133845e-02  -1.022848e-01  -1.131845e-02  2.917419e-02  6.221056e-02  7.460670e-02  4.894019e-02  -3.761626e-01  1.264684e-01  -1.048610e-01  -1.346513e-01  -1.043267e-01  -8.511814e-02  7.936942e-02  2.279404e-01  -4.570981e-02  1.335482e-01  -9.683991e-02  -3.624929e-02  2.268696e-01  1.642987e-02  -6.759548e-03  -4.526690e-02  2.182575e-01  7.750840e-02  -6.775519e-02  2.217529e-01  1.073084e-02  1.561496e-01  -6.357297e-02  -1.277180e-02  9.097842e-02  -3.228207e-01  4.983302e-03  2.127540e-01  -6.514987e-02  -1.775761e-01  -1.000885e-02  -8.455162e-02  -1.566805e-01  1.690567e-01  -2.879483e-02  -2.623726e-01  7.644989e-02  1.131473e-02  5.686821e-02  5.525932e-02  1.791223e-01  -7.754451e-02  8.797822e-02  1.404285e-01  -1.241993e-01  8.486006e-02  -1.977741e-01  1.054571e-01  2.167076e-01  -6.432741e-02  1.025266e-01  9.103498e-02  8.044675e-02  2.657281e-01  1.071109e-01  2.622363e-01  -5.765620e-02  -1.501490e-02  -1.603117e-01  9.608735e-02  8.767314e-02  -1.905953e-01  2.114705e-02  1.872677e-02  5.564998e-01  -3.879708e-02  6.436481e-02  -1.139981e-01  2.249470e-01  -9.380179e-03  1.108027e-01  -7.662237e-02  -1.596083e-01  9.132774e-02  -8.868769e-02  -9.101482e-02  5.831115e-02  8.007688e-02  -9.096640e-02  3.134525e-02  2.029216e-01  -1.310762e-01  -1.182516e-01  2.472457e-01  -1.059254e-02  4.901310e-02  1.126235e-01  -1.658297e-01  4.092074e-02  -8.581028e-02  -1.332374e-01  1.374123e-01  -1.280647e-01  7.709073e-02  -1.093904e-01  -1.871215e-01  5.739860e-02  -6.838462e-02  -2.268127e-01  -5.866140e-02  2.523861e-01  -3.751809e-02  1.439836e-01  -1.645603e-02  1.539891e-01  1.245628e-01  7.629932e-02  1.112401e-01  1.430747e-01  -5.068324e-02  2.134994e-01  -5.622790e-02  7.789792e-02  1.723182e-01  -1.791400e-01  -5.290275e-02  -7.833952e-02  -6.532411e-02  1.169002e-02  -1.116998e-01  -3.020144e-02  1.029581e-01  -2.353851e-01  -2.205674e-01  8.733448e-02  -1.267360e-01  8.692972e-02  2.983471e-02  1.643223e-01  2.565566e-01  6.978597e-02  -1.059031e-01  1.415395e-01  -4.890037e-02  4.468639e-02  1.887880e-01  1.779496e-01  -1.218571e-01  2.307394e-01  2.143566e-01  -1.413646e-01  -1.820993e-01  8.769896e-02  2.085075e-01  -4.561866e-02  1.118225e-01  2.594285e-01  -9.327676e-02  -1.922008e-01  -2.991712e-01  -3.465840e-03  1.969349e-01  -1.578708e-01  -1.015697e-01  -6.062497e-03  -1.220339e-02  -2.934901e-02  2.598677e-01  3.060324e-02  1.532957e-01  -4.567660e-02  -2.947854e-02  -8.440158e-02  1.621368e-01  -7.243074e-02  1.198075e-01  9.814665e-02  -5.327024e-02  -2.057835e-01  -6.283942e-02  -9.875921e-02  -1.865704e-01  6.036998e-02  4.905874e-02  2.832831e-02  -1.419352e-02  -8.487003e-02  -1.440393e-01  1.802962e-01  6.164841e-02  -1.774419e-01  -7.800164e-02  -1.615884e-01  -2.211113e-02  -5.607225e-02  -2.628669e-01  1.111484e-01  -6.570450e-02  -2.064567e-01  -1.004485e-01  -3.136911e-01  -1.634534e-02  -2.894329e-02  -3.675250e-02  -1.513556e-01  1.390079e-01  -2.069301e-01  -4.557268e-02  1.506518e-01  -5.178420e-02  6.617427e-03  -1.833874e-01  7.692911e-03  -4.128398e-02  3.791939e-02  6.945357e-02  -8.067548e-02  1.561039e-01  -3.385835e-01  -1.690622e-02  4.478563e-03  -1.307259e-01  -7.201874e-02  -8.035105e-02  -2.359840e-01  2.034013e-02  -7.224791e-02  -1.463551e-02  -1.429923e-01  -2.074480e-01  -1.349426e-01  8.624683e-02  9.918662e-02  3.552722e-01  -5.145659e-02  -1.535069e-02  -2.339641e-02  1.440891e-01  -2.243808e-01  -1.411807e-01  1.169981e-01  -9.605533e-02  7.997878e-02  -1.966950e-01  -6.600257e-02  -2.256888e-01  2.737734e-02  -1.204411e-01  6.501250e-02  1.582601e-02  -5.718076e-02  -1.358566e-01  7.980850e-03  -2.345419e-01  -1.072799e-01  8.668867e-03  -8.609538e-02  -4.012202e-02  8.740575e-02  -1.590036e-01  1.085666e-01  -4.967173e-02  -4.718363e-02  -2.532496e-04  -1.514536e-01  -1.135001e-01  3.015989e-02  -2.786272e-01  -1.576394e-01  -1.216421e-02  -1.259005e-01  6.065390e-05  1.697108e-01  -1.302520e-01  2.552037e-01  9.341973e-03  -4.565771e-03  7.148986e-02  -1.636838e-01  -1.960486e-01  1.231907e-01  -2.440931e-02  -2.368727e-01  9.378634e-02  -7.517499e-02  -1.952967e-01  3.115406e-02  -3.509376e-03  4.356913e-02  2.228433e-01  -2.323067e-01  -6.813152e-02  1.079415e-02  -2.589990e-01  1.064513e-01  1.160443e-02  6.922863e-02  -3.204923e-02  -3.926161e-02  -1.431081e-01  7.127020e-02  6.516995e-02  -1.451122e-01  8.863346e-04  -5.032594e-02  1.301434e-01  -1.400370e-01  -1.086311e-01  -2.637514e-01  -1.814478e-01  -1.888542e-01  -3.418041e-02  -6.936324e-02  -6.774349e-02  3.415814e-02  -2.594727e-01  1.348076e-01  8.436294e-02  -2.254141e-02  1.568293e-01  -7.569830e-02  2.040868e-01  1.591291e-01  -4.374349e-02  -7.177095e-02  2.098123e-01  -6.222425e-02  1.052355e-02  4.252039e-03  8.749113e-02  -1.770918e-01  -1.783369e-01  -2.194725e-01  1.930220e-01  -2.474471e-01  -1.396353e-01  1.378892e-01  1.115446e-02  -8.352908e-02  -4.397475e-02  -7.796639e-02  -8.865386e-02  8.121151e-02  -1.469214e-01  -2.435970e-01  -1.979685e-01  1.882000e-01  -1.314996e-01  -9.170316e-02  -1.947809e-02  1.970662e-01  -7.786041e-02  -9.217847e-02  1.408385e-02  3.453005e-01  -9.541668e-02  7.554885e-02  1.331478e-01  -1.399750e-01  9.452399e-02  -5.397887e-03  -1.899361e-01  -1.816343e-01  7.662506e-02  -1.975546e-01  -1.056375e-02  1.193792e-01  -2.330793e-01  7.847414e-02  1.432735e-01  1.610421e-01  7.280873e-02  9.324878e-02  -2.818133e-02  -9.276539e-02  8.439634e-02  3.311555e-02  -2.392902e-01  1.527050e-01  2.354209e-01  8.046029e-02  1.393701e-01  -8.446499e-02  5.384553e-02  1.415073e-02  -1.343676e-01  -6.087921e-02  1.655174e-01  -1.732539e-01  -1.448841e-01  2.423618e-01  -1.068740e-01  2.232085e-01  1.120563e-01  7.602906e-02  2.120114e-01  5.395579e-02  5.928342e-02  3.715843e-02  -9.886814e-02  -5.288187e-02  1.792259e-01  2.969179e-01  -3.452207e-01  1.332034e-01  2.589464e-02  -4.036558e-01  -1.981328e-01  2.745603e-01  3.452251e-01  -3.023056e-01  -1.049768e-01  -4.614544e-02  -3.555257e-01  -2.772556e-01  -1.284318e-01  -2.047401e-01  2.754834e-01  8.357840e-02  -2.777859e-01  -2.214909e-01  -2.986664e-01  -1.907636e-01  -1.699082e-01  1.059032e-01  1.605907e-01  1.117472e-01  -3.254362e-03  3.889258e-02  4.637197e-02  -3.459560e-01  4.899654e-02  -4.552059e-02  4.326830e-02  1.025957e-01  -3.022900e-01  2.511215e-02  -3.879141e-01  -1.117849e-01  -1.114139e-01  2.287116e-01  1.145141e-01  2.917714e-01  -1.828264e-01  5.034989e-01  -1.402982e-01  -1.597241e-01  -1.424214e-02  -7.241339e-02  -1.029947e-02  2.038786e-01  -1.550867e-01  3.619532e-01  2.095034e-01  1.382654e-01  1.888823e-01  -3.014998e-01  -1.980917e-01  9.424862e-02  -1.915022e-01  -2.230692e-01  2.989737e-01  -2.153717e-01  2.306256e-01  -1.753430e-01  -2.122170e-01  -7.636530e-02  8.963247e-02  -1.890995e-01  -2.632618e-01  1.585843e-01  -5.568432e-02  -4.036377e-02  -1.188531e-01  1.736568e-01  -2.033144e-01  1.126660e-01  1.120624e-01  7.424796e-03  -3.169702e-03  1.201420e-01  -3.039482e-02  4.010768e-01  2.581661e-02  1.027794e-01  1.240638e-01  1.486185e-01  -1.145407e-02  -1.515801e-01  1.910394e-01  -1.586215e-01  -6.445877e-02  -6.650417e-03  8.666326e-02  5.145068e-02  7.921003e-02  -7.607085e-02  -2.493538e-01  1.928994e-01  -6.336563e-02  -2.815767e-02  1.327128e-01  -6.890478e-02  2.573542e-01  -4.376030e-02  -1.564348e-01  -1.105228e-02  2.639140e-02  -8.234718e-02  2.190343e-01  -1.855638e-01  -2.014732e-01  5.045719e-02  7.728215e-02  -1.978904e-01  2.468395e-01  -2.570713e-01  -1.525540e-01  1.704303e-01  -1.352780e-01  -2.348662e-02  1.747056e-01  1.548423e-01  1.655137e-01  4.627014e-02  -2.387387e-01  -5.822019e-02  1.138813e-01  3.389432e-02  1.292102e-01  -3.772605e-02  3.031970e-01  2.057506e-03  -2.362401e-01  2.864980e-01  9.048776e-02  -2.156597e-01  -6.191858e-02  1.240944e-01  -3.118944e-01  -5.151828e-02  7.804783e-02  2.285871e-02  -4.281674e-02  -1.081711e-01  -6.064941e-02  9.340936e-02  1.286148e-02  4.397314e-02  1.504493e-01  3.963933e-01  -1.698420e-01  1.395240e-01  -1.989148e-01  -2.098460e-02  -1.991774e-01  -1.297155e-01  9.066797e-03  1.671459e-01  -2.856553e-01  -1.724183e-01  6.752528e-02  5.575217e-02  1.299923e-01  -3.267498e-02  3.295100e-01  -1.853459e-01  -4.389103e-02  -3.602552e-01  1.192519e-02  -4.500596e-02  -1.199200e-02  -2.197558e-01  9.528276e-02  -2.037381e-01  -1.080753e-01  -6.197343e-02  1.323221e-01  5.009808e-02  6.585017e-02  -1.481424e-01  -6.099872e-02  -2.282111e-02  -9.130612e-02  7.523340e-02  -6.883985e-02  -2.684798e-01  -2.020650e-02  -6.991278e-02  -1.611284e-01  -8.752525e-02  -5.817546e-02  6.917877e-02  -3.119966e-02  3.364278e-02  1.923332e-01  2.740384e-02  -8.495487e-02  -5.581817e-02  -8.278567e-02  -4.407264e-02  -8.823413e-02  -1.384337e-01  -3.054129e-01  -3.079129e-02  6.811859e-02  -3.605876e-02  5.449144e-02  -2.541577e-02  1.534456e-02  -1.568651e-01  7.716569e-02  4.925823e-02  2.138742e-01  1.565728e-01  -1.357417e-01  2.590450e-02  2.291044e-01  -1.739956e-02  -9.034453e-02  -2.393179e-01  -9.772076e-02  -1.010486e-01  -2.430658e-02  -8.916339e-02  1.045685e-01  -1.816956e-01  1.202711e-01  -7.843292e-02  6.281080e-02  -3.781490e-03  4.638809e-02  -1.878535e-01  -2.097514e-01  -4.811843e-02  1.431509e-01  -1.711142e-01  5.258271e-02  -1.666496e-01  1.365091e-01  -9.569791e-03  3.071155e-02  1.025902e-01  2.986817e-01  -2.538332e-01  -3.177547e-01  1.344528e-02  -1.867266e-01  2.098123e-01  -1.134664e-01  -1.501953e-01  1.165000e-01  -6.176506e-02  8.327395e-02  -3.124021e-02  8.392926e-02  2.750634e-01  9.817001e-02  -3.871873e-02  6.195856e-02  1.964398e-02  -1.488731e-02  4.066412e-01  1.696383e-01  -1.072232e-01  2.524806e-03  -6.681328e-02  -3.024416e-01  -1.156123e-01  -7.852089e-02  1.756385e-01  4.645486e-02  1.855761e-01  -2.644977e-01  -1.498574e-01  1.533172e-01  -4.431672e-02  6.139150e-02  2.852148e-01  8.831695e-02  -1.117442e-01  9.716497e-02  3.007631e-02  -1.534536e-01  -1.108277e-01  -1.022016e-01  1.724047e-01  -2.980618e-01  7.183863e-02  -5.688881e-02  2.378387e-01  -3.843308e-02  -1.331740e-01  9.882062e-02  2.230431e-01  -5.324353e-03  1.005647e-01  -1.810233e-01  -3.668613e-01  6.153815e-02  -1.774511e-01  1.881763e-01  2.901913e-01  -5.968488e-02  7.011013e-02  -7.096821e-02  -2.250878e-01  1.551865e-01  -2.301363e-01  -2.367258e-01  6.453983e-02  6.137150e-02  2.643149e-01  7.071933e-03  -2.276173e-01  3.738847e-01  1.830125e-01  -1.826532e-01  1.481217e-01  -1.345350e-01  7.813596e-02  2.949231e-01  1.108117e-01  -1.648860e-01  4.705699e-02  -4.541612e-02  -1.646346e-01  4.101634e-03  3.058266e-01  3.411202e-01  -1.539568e-01  8.083554e-02  9.282053e-02  -8.080292e-02  -1.670158e-01  -1.476733e-01  -2.384678e-01  3.080546e-01  -2.372303e-01  -6.887149e-02  -3.295849e-02  -2.395220e-01  -3.036413e-01  6.020828e-02  -1.177522e-02  3.494416e-01  2.060775e-01  -1.381319e-01  2.577346e-01  4.047219e-01  -1.789097e-01  -5.556374e-02  8.291364e-03  -1.529829e-01  -1.582814e-01  -4.508840e-02  -6.264817e-02  -1.554540e-01  -1.279931e-01  -7.230064e-02  9.800990e-02  3.372756e-02  3.334509e-01  6.989921e-02  8.012471e-02  -6.829552e-02  -1.048684e-01  1.615791e-01  2.523192e-02  2.647118e-02  2.941798e-01  -1.160308e-01  3.120677e-01  1.420257e-01  -1.296031e-01  1.808860e-01  -2.841781e-01  3.038853e-02  1.018820e-01  -3.224949e-01  6.354074e-02  2.142791e-01  -2.423673e-01  -1.003225e-01  -1.946748e-01  3.913370e-02  5.563848e-02  9.818425e-02  -1.642378e-01  -1.737515e-01  -2.835219e-01  -8.810480e-02  6.641702e-02  1.866746e-01  7.231979e-02  9.785903e-02  3.958546e-02  4.531537e-01  8.771285e-03  -1.081355e-01  -1.049936e-01  2.808966e-02  7.746478e-01  -2.697441e-01  -7.444317e-02  -2.364173e-01  1.227413e-01  -2.061524e-01  2.917692e-01  2.746437e-01  1.079109e-01  3.693141e-01  1.485597e-01  2.098149e-01  -1.949115e-01  2.279518e-01  2.102771e-01  1.756535e-02  1.212532e-01  -2.044399e-02  3.662084e-01  8.487255e-02  -1.811606e-02  8.206262e-02  -5.217952e-02  1.110589e-01  4.053115e-01  3.933275e-01  1.118418e-01  -2.704336e-01  -1.621514e-01  1.258176e-01  -1.519260e-01  3.048474e-01  3.355875e-01  -2.325900e-01  8.776631e-02  1.572059e-01  2.443927e-01  7.667528e-02  -2.530674e-01  -1.619851e-01  3.423828e-01  -1.055801e-01  -2.617212e-01  1.485355e-01  2.208689e-01  -1.359276e-01  -1.435719e-01  1.933597e-02  1.261588e-01  9.025660e-03  -1.954587e-02  3.619936e-02  2.774518e-01  1.533990e-01  -2.093043e-01  3.415789e-02  1.159156e-01  -4.339138e-03  3.928563e-01  1.702678e-01  -9.807258e-02  -8.010657e-02  2.848588e-01  -9.836313e-02  -2.226599e-01  9.083717e-02  9.232456e-02  1.767536e-02  4.504621e-02  7.884303e-02  -2.175884e-01  -4.218084e-01  -1.108380e-01  -8.909612e-02  -2.632269e-01  -3.898802e-02  1.056928e-01  -2.513302e-03  3.705611e-02  9.105703e-03  -1.738443e-01  -4.586842e-02  -1.878222e-01  -1.065192e-01  1.441710e-01  6.722034e-02  4.021696e-02  2.027861e-02  -1.684359e-01  8.756853e-02  -1.455777e-01  -2.373693e-02  3.388233e-01  -7.865850e-02  -3.580056e-01  3.392963e-02  -9.614825e-02  6.914915e-03  9.392412e-02  -1.024430e-01  -5.515169e-02  -1.561746e-02  -1.094081e-02  1.586745e-01  -7.255680e-02  1.808990e-01  -3.927269e-02  -9.053038e-02  1.027406e-02  2.631377e-01  3.716899e-02  1.984798e-01  -1.128483e-01  2.198078e-01  -1.155767e-01  -1.620414e-01  1.739975e-01  -1.162458e-02  1.228376e-02  -1.644624e-01  1.275831e-01  5.127262e-02  -3.598069e-01  -1.247755e-01  1.057402e-01  1.464579e-01  -1.909444e-01  -7.890128e-02  2.908807e-01  -4.336469e-02  -6.647602e-02  2.149734e-01  1.100602e-01  1.668295e-01  -9.389766e-02  1.225504e-01  -5.626512e-02  2.040880e-01  -8.915519e-02  -2.610914e-01  -5.499576e-02  1.547248e-01  6.383367e-02  1.095272e-01  -3.080828e-03  3.340752e-02  9.888394e-02  2.356409e-01  6.265713e-02  1.649315e-01  -3.105495e-02  1.173844e-01  1.547836e-01  1.240778e-01  -1.195955e-01  6.961387e-02  -2.360461e-01  1.160882e-01  2.607670e-01  2.002102e-01  -1.167566e-01  -7.212993e-02  -1.659889e-01  -1.518249e-01  9.321275e-02  -2.384856e-01  4.177855e-02  2.266129e-02  3.328002e-01  1.100154e-01  9.869768e-02  1.300322e-01  2.630086e-01  -7.447258e-02  1.411765e-01  5.195210e-02  -5.439338e-03  -2.414116e-01  -1.211366e-01  -2.024067e-01  1.782978e-01  2.934440e-02  -2.370278e-01  -6.499933e-02  2.119703e-01  -4.066883e-02  -1.358833e-01  3.452141e-03  1.628808e-01  2.709404e-02  1.238817e-01  -2.206060e-01  2.641501e-01  2.074979e-01  1.290844e-01  1.485797e-01  2.224770e-01  -1.136023e-01  -3.148213e-01  -7.835206e-02  -8.939927e-02  1.436063e-01  -9.897869e-02  -1.029085e-01  3.047171e-01  -1.932161e-01  -1.172089e-01  1.351974e-01  1.184882e-01  -2.233136e-04  2.279195e-01  4.118690e-01  -7.130696e-02  -6.964336e-02  6.481925e-02  -3.499859e-01  -7.869616e-02  1.268174e-01  -2.446413e-01  3.202324e-01  1.243618e-01  -1.306971e-01  2.412949e-01  -1.772422e-01  -9.137616e-03  3.929895e-01  -9.605928e-02  -5.612176e-02  -4.769003e-03  -1.947325e-01  4.725026e-02  2.299706e-01  -1.391320e-02  1.616393e-01  1.914521e-01  -1.969468e-01  1.227178e-01  -3.811188e-02  -4.340519e-02  -3.881689e-02  -8.770664e-02  -1.119080e-01  -1.683886e-01  2.042726e-01  -9.517747e-02  9.389009e-02  1.642095e-02  1.842965e-02  8.904769e-02  2.928181e-02  -1.548734e-01  2.682957e-02  -8.343164e-02  -3.176510e-02  -1.278913e-01  -1.427948e-02  1.858614e-01  7.759109e-02  4.817383e-03  1.249616e-01  7.743347e-02  1.784876e-01  -9.642543e-02  2.759977e-01  -8.359908e-02  2.961048e-02  2.163144e-01  2.004365e-01  3.904686e-02  -1.424527e-01  1.548197e-01  1.352936e-01  2.113920e-02  -2.500890e-02  5.232436e-02  2.561157e-02  -1.463100e-01  1.205834e-01  -5.055058e-02  1.162251e-01  1.462545e-01  9.842175e-02  1.304020e-01  3.884592e-02  -3.134392e-02  2.351969e-01  3.130596e-01  -8.166071e-02  1.615850e-01  4.701990e-02  -5.643332e-02  -8.973472e-02  5.387077e-02  -1.609432e-01  -2.155349e-01  8.140724e-03  3.561025e-01  -2.024506e-01  1.537861e-03  1.995006e-01  3.867306e-02  -2.126206e-01  1.920607e-01  2.464036e-02  -8.759984e-02  7.603107e-02  3.904778e-01  4.181083e-01  3.431359e-01  -3.818744e-02  -8.218087e-02  -2.192391e-01  9.225345e-03  -1.847639e-01  6.588729e-02  -1.158650e-01  9.648423e-02  5.649559e-02  1.473147e-01  -1.696498e-01  -4.411837e-01  1.709040e-01  5.981069e-02  2.730578e-01  3.069356e-01  1.363082e-01  -2.321175e-01  -2.427304e-01  -3.825217e-01  -6.883936e-01  -2.076580e-01  -3.676248e-02  3.431561e-01  -4.209379e-01  -2.870913e-02  -2.402484e-01  7.878517e-02  -6.536128e-02  1.734867e-02  1.539576e-01  3.690602e-01  -6.005327e-02  8.422411e-02  -1.905806e-01  -4.797026e-01  -1.225892e-01  -5.209341e-01  6.751525e-02  1.339294e-01  -1.987158e-01  4.925286e-02  8.634353e-04  -3.970634e-01  3.370069e-01  8.217470e-02  -2.971873e-01  -2.212181e-01  2.312287e-01  2.403801e-01  1.139230e-02  -4.476656e-01  4.429972e-01  2.297380e-01  -3.085863e-01  -2.040715e-01  1.039205e-01  1.112736e-01  2.448398e-01  -1.715689e-01  -8.074196e-02  -1.989153e-01  -2.531783e-02  1.984909e-01  1.039004e-01  -8.832550e-02  -1.530786e-01  2.198340e-01  -1.767527e-01  -2.586682e-02  -1.121677e-02  1.156029e-01  5.908435e-02  1.370570e-01  -2.109481e-01  4.409934e-02  -1.200868e-01  -1.006501e-01  1.711668e-01  1.208975e-01  -1.057447e-01  -1.866753e-01  -3.364189e-01  -1.289131e-01  4.835675e-02  2.279391e-02  9.876473e-02  3.150436e-02  -4.062265e-02  -5.691938e-02  9.428333e-02  2.163572e-01  -1.464686e-01  -1.119627e-01  7.498488e-02  -8.203494e-02  1.523151e-02  8.343301e-03  2.383083e-02  -1.744636e-01  1.623460e-01  -3.716451e-01  7.677180e-02  1.566949e-01  -1.550874e-02  7.619963e-02  6.572391e-02  1.308206e-03  -7.764017e-02  -1.233777e-01  -3.649573e-02  -7.287879e-02  -1.363054e-01  9.429932e-02  2.233404e-01  -2.273123e-01  9.650413e-02  6.801117e-02  -1.139201e-01  -1.248524e-01  -9.635238e-03  -1.884297e-01  -7.644497e-02  -8.334918e-02  1.329138e-01  9.203106e-02  -3.727220e-02  -1.025939e-01  2.147724e-01  1.157905e-01  2.343315e-03  -2.680499e-01  1.089528e-01  2.413646e-01  -1.732016e-01  -2.251416e-01  -2.027768e-01  -2.261304e-01  -8.658594e-02  7.208207e-02  -1.255167e-01  -4.129536e-03  -1.440160e-01  -2.683378e-01  6.061694e-02  1.142298e-01  -2.996766e-02  2.185399e-01  -2.592006e-01  7.344977e-02  1.904792e-02  -1.573361e-01  7.366513e-02  -1.639550e-01  8.923553e-03  5.155846e-03  -1.366368e-01  -8.383475e-02  -2.823983e-01  -4.942710e-02  -1.597953e-01  5.687411e-02  -4.931412e-02  -1.605829e-01  8.700307e-02  2.657520e-01  -1.215139e-01  6.047267e-03  -1.747588e-02  -3.114385e-01  -1.557995e-01  1.036913e-01  -2.448979e-01  1.417481e-01  1.398236e-01  -1.402497e-01  -1.146954e-01  -4.342094e-02  4.136616e-02  -1.276894e-01  -8.853126e-02  2.056429e-02  1.547465e-01  -6.532048e-02  -3.207546e-02  -6.269140e-02  -7.072391e-02  1.019401e-01  -3.067683e-02  1.907385e-01  -3.093500e-01  -1.664664e-01  -1.914198e-01  2.998855e-02  2.993352e-01  -1.610373e-01  1.750505e-01  1.370633e-02  -5.803338e-02  -2.802071e-01  3.502050e-02  -9.383117e-02  3.124779e-01  3.126989e-02  -3.529774e-01  5.381884e-02  -4.984200e-02  -3.429614e-01  -1.338358e-01  1.331735e-02  1.733376e-01  4.624695e-02  3.073997e-02  1.150463e-01  2.831118e-01  -1.080900e-01  3.676249e-01  3.540878e-02  -1.593115e-01  -2.528398e-03  -1.859433e-01  -9.594176e-02  -3.511285e-01  5.528108e-02  -1.574440e-02  -1.042913e-01  3.671765e-01  3.109733e-01  6.845459e-02  4.073305e-01  -3.331637e-01  -1.917443e-02  8.353379e-02  -8.600193e-02  -5.879838e-02  2.793724e-01  -1.275327e-01  2.428965e-01  8.238781e-02  1.403078e-01  1.359007e-01  -1.375353e-01  4.670449e-03  1.650318e-01  -3.811222e-01  -9.907322e-02  5.421667e-02  -1.814697e-01  -1.240160e-01  -2.049406e-02  -1.893187e-01  -9.004140e-02  1.715332e-01  3.035562e-03  -5.364301e-02  4.342697e-02  -9.290949e-02  -1.498736e-01  -1.940765e-01  3.889894e-01  -4.165290e-02  2.054939e-01  -4.441103e-02  2.618484e-01  8.829284e-02  1.917684e-01  -3.051545e-01  8.093066e-02  -7.567189e-03  1.100254e-01  1.914693e-01  2.232010e-01  -8.220745e-02  -1.796618e-01  -2.662273e-01  -1.940314e-01  1.776328e-02  -1.769097e-01  -1.048160e-02  2.600984e-01  4.360799e-02  4.698726e-02  2.131053e-01  9.174214e-02  3.632763e-02  -8.694328e-02  3.706381e-01  -1.250826e-01  -8.644807e-02  -3.360053e-01  -1.346884e-01  -2.065783e-01  8.784597e-02  -2.672879e-01  1.987842e-02  8.910867e-02  -1.006236e-01  6.509604e-02  -4.403273e-02  -7.313184e-02  2.103693e-01  -1.183817e-01  -2.941248e-02  1.668844e-01  4.894861e-02  8.112653e-02  1.945738e-01  -7.026293e-02  1.542292e-01  2.669082e-01  -7.193774e-02  -9.470540e-02  -4.615850e-02  3.034624e-02  -1.321182e-01  -8.435835e-02  -1.628555e-01  6.996731e-02  7.880956e-02  1.385624e-01  2.028083e-02  9.965821e-02  -2.936238e-02  -1.708501e-01  -5.842208e-02  -1.912422e-01  1.118355e-01  -8.413020e-02  6.881646e-02  1.178869e-01  1.580765e-01  9.904326e-02  -1.046481e-01  1.091058e-01  7.388783e-02  3.010434e-01  1.285871e-01  -7.125695e-02  -2.156636e-01  8.240663e-02  -1.519518e-01  -1.381273e-02  1.275440e-02  -1.138219e-03  -1.714787e-01  8.446249e-02  2.583422e-01  -1.395596e-01  -1.441691e-01  -2.742173e-01  -1.033397e-01  -2.114912e-01  -4.078360e-02  -4.082331e-01  -9.571228e-02  -9.901917e-02  -4.385169e-02  1.970683e-01  1.541811e-01  1.463457e-01  1.256570e-01  -3.851513e-02  -1.925518e-02  3.987553e-02  -2.225693e-02  -9.789728e-02  -1.461882e-01  -2.075416e-01  -5.659405e-02  1.613656e-01  -1.976268e-01  -2.865048e-02  -8.145973e-03  -1.836383e-01  1.771178e-01  -8.964397e-02  -2.010734e-01  -9.170189e-02  -6.988425e-02  -2.028167e-01  -4.396563e-02  -2.243703e-01  -1.084828e-01  -5.630729e-02  -1.348789e-01  -1.282752e-01  5.014671e-02  -2.402720e-02  -2.129701e-02  1.056106e-01  -1.181660e-01  6.056159e-02  1.502243e-01  1.228625e-01  -8.707679e-02  2.019672e-02  -1.212791e-01  9.153868e-02  2.397593e-01  4.986162e-02  -6.898847e-02  -1.195885e-01  -7.599696e-02  -2.306642e-01  -1.017550e-01  9.363087e-02  3.897854e-02  1.015250e-01  -2.857416e-02  1.001614e-01  -3.395019e-02  -1.137700e-01  9.836381e-02  2.302452e-01  1.764676e-01  6.894590e-02  1.565868e-01  1.020425e-01  5.805092e-02  9.281765e-02  7.944446e-02  -1.047942e-01  2.956500e-02  -4.377656e-02  4.984053e-02  1.090858e-01  -3.061311e-02  -1.421750e-01  1.618423e-01  -6.490897e-02  -1.106829e-01  -8.014735e-02  5.195785e-02  1.139523e-01  1.613003e-01  -1.265370e-01  8.482156e-03  1.687851e-01  -7.410696e-02  8.230338e-02  -5.508528e-02  1.263962e-01  7.271660e-03  -2.278419e-02  -1.518337e-01  -1.787977e-01  1.145006e-01  -2.568072e-01  -1.420452e-01  -4.790903e-02  1.766035e-01  -2.102738e-01  3.253703e-01  -2.476973e-01  -1.464719e-02  -1.936291e-01  -1.914682e-01  -3.433504e-01  -8.402565e-02  2.654825e-01  -3.289183e-01  -8.656067e-02  -4.476923e-02  -1.313113e-01  -7.097986e-03  2.204521e-01  1.970282e-01  3.171939e-01  2.318511e-01  1.206249e-01  -3.368676e-03  -1.722360e-01  3.816791e-01  -3.282487e-02  1.100730e-01  1.082345e-01  -2.536133e-01  1.852304e-01  -9.884840e-02  4.198753e-02  3.776992e-02  4.039423e-02  8.962566e-02  5.544115e-01  1.587425e-01  5.163425e-01  -3.588681e-01  1.038247e-01  3.318033e-01  2.779201e-01  5.349941e-02  8.878420e-02  -1.365233e-01  1.155885e-01  9.314788e-02  2.275397e-01  2.741428e-02  -4.186288e-01  -2.578975e-01  6.319027e-01  -2.231164e-01  -1.148651e-01  2.627966e-01  9.450488e-02  4.418615e-02  -6.352691e-03  -1.107379e-01  1.258996e-02  1.972644e-01  6.426753e-02  3.301397e-02  -1.572761e-01  1.547549e-01  1.535941e-01  1.077675e-01  -2.267275e-01  1.284534e-01  -1.695314e-02  -5.958460e-02  1.487620e-01  -2.256970e-02  -7.069897e-02  1.100153e-01  2.486377e-02  -9.585746e-02  -2.050234e-02  -2.171964e-01  -4.911424e-02  -7.199448e-02  -1.293918e-02  -1.602780e-02  5.316861e-05  5.335666e-02  2.856176e-01  -2.787804e-02  1.638196e-01  3.710312e-01  5.061845e-02  1.659004e-01  2.682331e-01  -1.006083e-01  2.204421e-01  -2.593446e-01  5.520493e-03  -1.454336e-01  4.516709e-02  2.636481e-01  2.540755e-01  -1.419575e-01  5.058266e-02  7.281430e-02  -8.779593e-02  2.129960e-01  -3.495565e-02  -1.094902e-01  -1.064158e-01  -2.072255e-01  3.441955e-01  2.496426e-01  5.695385e-02  3.598222e-02  -1.592825e-01  -2.208825e-01  5.041687e-01  -1.099536e-01  -1.619677e-01  -8.099785e-02  5.176578e-02  -1.550105e-01  -1.969510e-01  4.458360e-02  -1.013261e-01  8.983468e-02  3.114193e-02  9.740429e-02  2.089909e-01  -2.691510e-02  -3.042575e-01  -1.577273e-01  3.167066e-01  -1.986102e-01  -7.383142e-02  1.506000e-01  2.694669e-01  1.482976e-01  2.234720e-01  -2.121509e-01  3.377702e-01  5.291206e-02  -2.016504e-01  2.441726e-02  2.101607e-01  1.387791e-01  -1.577740e-02  -1.711634e-01  -5.929558e-03  5.645432e-02  8.552548e-02  -8.726202e-02  1.623336e-01  5.628898e-02  -7.948229e-02  -9.017324e-02  9.513798e-02  8.721397e-02  3.507781e-02  1.664350e-01  -5.825799e-02  1.105697e-01  1.189466e-01  -1.667796e-01  2.813495e-02  2.512813e-01  -1.033364e-01  1.355706e-01  -5.539294e-02  -1.023519e-01  1.647755e-01  6.002969e-02  -1.234008e-01  1.642032e-02  -2.304906e-01  -4.090347e-02  2.618537e-01  -1.991220e-01  9.727503e-02  2.186986e-01  1.165249e-01  2.142992e-01  2.226974e-01  -5.148738e-03  -1.174934e-01  1.687236e-01  -1.541728e-01  -2.002932e-02  -2.287209e-01  6.887851e-02  -3.521098e-02  -5.790563e-03  9.574022e-03  2.407451e-02  -6.028094e-02  6.767605e-03  -1.941182e-02  -1.195783e-01  -4.950990e-02  1.145162e-01  1.931790e-01  -1.398955e-01  3.702602e-02  2.875817e-02  2.001738e-01  6.832368e-02  5.014767e-02  2.055265e-01  8.695925e-02  1.176455e-01  -1.222741e-02  -3.588694e-01  -2.409857e-01  1.605843e-01  -9.928967e-02  -2.336926e-01  2.134499e-01  1.361288e-01  2.192277e-03  -1.260764e-01  -5.329276e-03  1.246193e-01  1.767428e-01  1.238564e-01  1.783632e-01  2.142479e-01  -1.397492e-02  -2.458397e-01  -1.696861e-01  1.958384e-01  -1.785575e-01  1.128753e-01  -1.016347e-01  3.363365e-02  -1.465051e-01  -2.346079e-02  -8.760073e-02  8.236821e-02  -7.915795e-02  -2.267602e-01  1.882855e-01  1.014160e-01  2.118210e-01  8.175110e-03  -4.902248e-02  2.060857e-01  -7.484318e-02  2.111071e-02  -1.037058e-01  2.335061e-01  9.979746e-02  8.727818e-02  6.780751e-02  2.454532e-01  -2.845023e-02  -7.618117e-02  -1.059669e-01  -1.740340e-02  6.662863e-02  5.752487e-02  9.438751e-02  -1.068869e-01  1.890441e-01  -9.553936e-02 