<?xml version="1.0"?>
<MethodSetup Method="MLP::MLP1">
  <GeneralInfo>
    <Info name="TMVA Release" value="4.2.1 [262657]"/>
    <Info name="ROOT Release" value="6.24/02 [399362]"/>
    <Info name="Creator" value="tmengel"/>
    <Info name="Date" value="Mon May  2 23:57:14 2022"/>
    <Info name="Host" value="Linux root-ubuntu-2004-1 5.4.0-73-generic #82-Ubuntu SMP Wed Apr 14 17:39:42 UTC 2021 x86_64 x86_64 x86_64 GNU/Linux"/>
    <Info name="Dir" value="/home/tmengel/phys643/phys643project/final"/>
    <Info name="Training events" value="381529"/>
    <Info name="TrainingTime" value="3.15478268e+03"/>
    <Info name="AnalysisType" value="Classification"/>
  </GeneralInfo>
  <Options>
    <Option name="NCycles" modified="Yes">600</Option>
    <Option name="HiddenLayers" modified="Yes">N,N+5</Option>
    <Option name="NeuronType" modified="Yes">tanh</Option>
    <Option name="RandomSeed" modified="No">1</Option>
    <Option name="EstimatorType" modified="No">CE</Option>
    <Option name="NeuronInputType" modified="No">sum</Option>
    <Option name="V" modified="Yes">False</Option>
    <Option name="VerbosityLevel" modified="No">Default</Option>
    <Option name="VarTransform" modified="Yes">N</Option>
    <Option name="H" modified="Yes">True</Option>
    <Option name="CreateMVAPdfs" modified="No">False</Option>
    <Option name="IgnoreNegWeightsInTraining" modified="No">False</Option>
    <Option name="TrainingMethod" modified="No">BP</Option>
    <Option name="LearningRate" modified="No">2.000000e-02</Option>
    <Option name="DecayRate" modified="No">1.000000e-02</Option>
    <Option name="TestRate" modified="Yes">5</Option>
    <Option name="EpochMonitoring" modified="No">False</Option>
    <Option name="Sampling" modified="No">1.000000e+00</Option>
    <Option name="SamplingEpoch" modified="No">1.000000e+00</Option>
    <Option name="SamplingImportance" modified="No">1.000000e+00</Option>
    <Option name="SamplingTraining" modified="No">True</Option>
    <Option name="SamplingTesting" modified="No">False</Option>
    <Option name="ResetStep" modified="No">50</Option>
    <Option name="Tau" modified="No">3.000000e+00</Option>
    <Option name="BPMode" modified="No">sequential</Option>
    <Option name="BatchSize" modified="No">-1</Option>
    <Option name="ConvergenceImprove" modified="No">1.000000e-30</Option>
    <Option name="ConvergenceTests" modified="No">-1</Option>
    <Option name="UseRegulator" modified="Yes">True</Option>
    <Option name="UpdateLimit" modified="No">10000</Option>
    <Option name="CalculateErrors" modified="No">False</Option>
    <Option name="WeightRange" modified="No">1.000000e+00</Option>
  </Options>
  <Variables NVar="12">
    <Variable VarIndex="0" Expression="d0Pt" Label="d0Pt" Title="d0Pt" Unit="" Internal="d0Pt" Type="F" Min="7.90263806e-03" Max="9.99529266e+01"/>
    <Variable VarIndex="1" Expression="d0E" Label="d0E" Title="d0E" Unit="" Internal="d0E" Type="F" Min="1.86704123e+00" Max="7.88557510e+01"/>
    <Variable VarIndex="2" Expression="pionPt" Label="pionPt" Title="pionPt" Unit="" Internal="pionPt" Type="F" Min="1.37880223e-03" Max="7.52346725e+01"/>
    <Variable VarIndex="3" Expression="pionE" Label="pionE" Title="pionE" Unit="" Internal="pionE" Type="F" Min="1.39762372e-01" Max="7.23301239e+01"/>
    <Variable VarIndex="4" Expression="kaonPt" Label="kaonPt" Title="kaonPt" Unit="" Internal="kaonPt" Type="F" Min="9.76904947e-03" Max="9.23326874e+01"/>
    <Variable VarIndex="5" Expression="kaonE" Label="kaonE" Title="kaonE" Unit="" Internal="kaonE" Type="F" Min="4.94090647e-01" Max="7.53814774e+01"/>
    <Variable VarIndex="6" Expression="DecayLength" Label="DecayLength" Title="DecayLength" Unit="" Internal="DecayLength" Type="F" Min="3.37924666e-06" Max="1.81935562e+02"/>
    <Variable VarIndex="7" Expression="cosTheta" Label="cosTheta" Title="cosTheta" Unit="" Internal="cosTheta" Type="F" Min="3.84784244e-06" Max="9.99999940e-01"/>
    <Variable VarIndex="8" Expression="DCA_D0" Label="DCA_D0" Title="DCA_D0" Unit="" Internal="DCA_D0" Type="F" Min="3.32895024e-06" Max="1.26578300e+02"/>
    <Variable VarIndex="9" Expression="DCA_Pion" Label="DCA_Pion" Title="DCA_Pion" Unit="" Internal="DCA_Pion" Type="F" Min="1.65389641e-03" Max="1.32687769e+03"/>
    <Variable VarIndex="10" Expression="DCA_Kaon" Label="DCA_Kaon" Title="DCA_Kaon" Unit="" Internal="DCA_Kaon" Type="F" Min="4.54952009e-03" Max="1.20523425e+03"/>
    <Variable VarIndex="11" Expression="DCA_piK" Label="DCA_piK" Title="DCA_piK" Unit="" Internal="DCA_piK" Type="F" Min="5.07403183e-06" Max="3.29686035e+02"/>
  </Variables>
  <Spectators NSpec="6">
    <Spectator SpecIndex="0" Expression="kaonPhi" Label="kaonPhi" Title="F" Unit="" Internal="kaonPhi" Type="F" Min="-3.14158630e+00" Max="3.14157963e+00"/>
    <Spectator SpecIndex="1" Expression="kaonEta" Label="kaonEta" Title="F" Unit="" Internal="kaonEta" Type="F" Min="-6.50094318e+00" Max="6.89160776e+00"/>
    <Spectator SpecIndex="2" Expression="pionPhi" Label="pionPhi" Title="F" Unit="" Internal="pionPhi" Type="F" Min="-3.14158821e+00" Max="3.14155984e+00"/>
    <Spectator SpecIndex="3" Expression="pionEta" Label="pionEta" Title="F" Unit="" Internal="pionEta" Type="F" Min="-6.05347109e+00" Max="8.09112930e+00"/>
    <Spectator SpecIndex="4" Expression="d0Phi" Label="d0Phi" Title="F" Unit="" Internal="d0Phi" Type="F" Min="-3.14159203e+00" Max="3.14159250e+00"/>
    <Spectator SpecIndex="5" Expression="d0Eta" Label="d0Eta" Title="F" Unit="" Internal="d0Eta" Type="F" Min="-6.18966055e+00" Max="6.41668320e+00"/>
  </Spectators>
  <Classes NClass="2">
    <Class Name="Signal" Index="0"/>
    <Class Name="Background" Index="1"/>
  </Classes>
  <Transformations NTransformations="1">
    <Transform Name="Normalize">
      <Selection>
        <Input NInputs="12">
          <Input Type="Variable" Label="d0Pt" Expression="d0Pt"/>
          <Input Type="Variable" Label="d0E" Expression="d0E"/>
          <Input Type="Variable" Label="pionPt" Expression="pionPt"/>
          <Input Type="Variable" Label="pionE" Expression="pionE"/>
          <Input Type="Variable" Label="kaonPt" Expression="kaonPt"/>
          <Input Type="Variable" Label="kaonE" Expression="kaonE"/>
          <Input Type="Variable" Label="DecayLength" Expression="DecayLength"/>
          <Input Type="Variable" Label="cosTheta" Expression="cosTheta"/>
          <Input Type="Variable" Label="DCA_D0" Expression="DCA_D0"/>
          <Input Type="Variable" Label="DCA_Pion" Expression="DCA_Pion"/>
          <Input Type="Variable" Label="DCA_Kaon" Expression="DCA_Kaon"/>
          <Input Type="Variable" Label="DCA_piK" Expression="DCA_piK"/>
        </Input>
        <Output NOutputs="12">
          <Output Type="Variable" Label="d0Pt" Expression="d0Pt"/>
          <Output Type="Variable" Label="d0E" Expression="d0E"/>
          <Output Type="Variable" Label="pionPt" Expression="pionPt"/>
          <Output Type="Variable" Label="pionE" Expression="pionE"/>
          <Output Type="Variable" Label="kaonPt" Expression="kaonPt"/>
          <Output Type="Variable" Label="kaonE" Expression="kaonE"/>
          <Output Type="Variable" Label="DecayLength" Expression="DecayLength"/>
          <Output Type="Variable" Label="cosTheta" Expression="cosTheta"/>
          <Output Type="Variable" Label="DCA_D0" Expression="DCA_D0"/>
          <Output Type="Variable" Label="DCA_Pion" Expression="DCA_Pion"/>
          <Output Type="Variable" Label="DCA_Kaon" Expression="DCA_Kaon"/>
          <Output Type="Variable" Label="DCA_piK" Expression="DCA_piK"/>
        </Output>
      </Selection>
      <Class ClassIndex="0">
        <Ranges>
          <Range Index="0" Min="7.9026380553841591e-03" Max="9.9952926635742188e+01"/>
          <Range Index="1" Min="1.8686757087707520e+00" Max="7.8855751037597656e+01"/>
          <Range Index="2" Min="1.3788022333756089e-03" Max="7.5234672546386719e+01"/>
          <Range Index="3" Min="1.3976237177848816e-01" Max="7.2330123901367188e+01"/>
          <Range Index="4" Min="9.7690494731068611e-03" Max="9.2332687377929688e+01"/>
          <Range Index="5" Min="4.9409064650535583e-01" Max="7.5381477355957031e+01"/>
          <Range Index="6" Min="3.3792466638260521e-06" Max="1.3372583007812500e+02"/>
          <Range Index="7" Min="3.8478424357890617e-06" Max="9.9999994039535522e-01"/>
          <Range Index="8" Min="3.3289502425759565e-06" Max="8.2476646423339844e+01"/>
          <Range Index="9" Min="1.6538964118808508e-03" Max="1.0164567260742188e+03"/>
          <Range Index="10" Min="4.5495200902223587e-03" Max="1.1287823486328125e+03"/>
          <Range Index="11" Min="5.0740318329189904e-06" Max="1.2871124267578125e+02"/>
        </Ranges>
      </Class>
      <Class ClassIndex="1">
        <Ranges>
          <Range Index="0" Min="5.4551318287849426e-02" Max="8.1254081726074219e+01"/>
          <Range Index="1" Min="1.8670412302017212e+00" Max="7.7944763183593750e+01"/>
          <Range Index="2" Min="2.0629627630114555e-02" Max="6.5179206848144531e+01"/>
          <Range Index="3" Min="1.4127348363399506e-01" Max="5.9949005126953125e+01"/>
          <Range Index="4" Min="2.9100671410560608e-02" Max="7.7682846069335938e+01"/>
          <Range Index="5" Min="4.9494877457618713e-01" Max="6.2781024932861328e+01"/>
          <Range Index="6" Min="3.3041334245353937e-03" Max="1.8193556213378906e+02"/>
          <Range Index="7" Min="1.2858467016485520e-05" Max="9.9999982118606567e-01"/>
          <Range Index="8" Min="4.7021385398693383e-04" Max="1.2657830047607422e+02"/>
          <Range Index="9" Min="2.4383382871747017e-02" Max="1.3268776855468750e+03"/>
          <Range Index="10" Min="2.6029236614704132e-02" Max="1.2052342529296875e+03"/>
          <Range Index="11" Min="2.3802889045327902e-03" Max="3.2968603515625000e+02"/>
        </Ranges>
      </Class>
      <Class ClassIndex="2">
        <Ranges>
          <Range Index="0" Min="7.9026380553841591e-03" Max="9.9952926635742188e+01"/>
          <Range Index="1" Min="1.8670412302017212e+00" Max="7.8855751037597656e+01"/>
          <Range Index="2" Min="1.3788022333756089e-03" Max="7.5234672546386719e+01"/>
          <Range Index="3" Min="1.3976237177848816e-01" Max="7.2330123901367188e+01"/>
          <Range Index="4" Min="9.7690494731068611e-03" Max="9.2332687377929688e+01"/>
          <Range Index="5" Min="4.9409064650535583e-01" Max="7.5381477355957031e+01"/>
          <Range Index="6" Min="3.3792466638260521e-06" Max="1.8193556213378906e+02"/>
          <Range Index="7" Min="3.8478424357890617e-06" Max="9.9999994039535522e-01"/>
          <Range Index="8" Min="3.3289502425759565e-06" Max="1.2657830047607422e+02"/>
          <Range Index="9" Min="1.6538964118808508e-03" Max="1.3268776855468750e+03"/>
          <Range Index="10" Min="4.5495200902223587e-03" Max="1.2052342529296875e+03"/>
          <Range Index="11" Min="5.0740318329189904e-06" Max="3.2968603515625000e+02"/>
        </Ranges>
      </Class>
    </Transform>
  </Transformations>
  <MVAPdfs/>
  <Weights>
    <Layout NLayers="4">
      <Layer Index="0" NNeurons="13">
        <Neuron NSynapses="12">
          -1.3167875351799567e+00 1.5089907933585829e+01 9.1781301763877199e+00 2.1511735244379140e+00 2.9774250948855902e-02 -3.0179503850488025e+00 -5.6817528564584814e+00 1.3860076040002429e+00 -2.1554975981731544e-01 -7.4883601015919427e-02 1.3193148223962731e-01 -5.7943654941910672e-01 
        </Neuron>
        <Neuron NSynapses="12">
          -1.8585371635015082e+00 -4.2607302489195220e+00 8.1325347413848572e+00 1.1853535667922712e+00 -1.9760205343208128e+01 2.5064288132620490e+01 9.3314451416958608e+00 1.0582871544674120e+00 -5.4064976944133247e-01 6.8210556206525244e+00 2.6560111488354572e+00 -2.5221186842984722e-01 
        </Neuron>
        <Neuron NSynapses="12">
          -2.3071911904086524e+00 1.2757417978409412e+01 1.1759893391900583e+01 -3.7635128048734473e-01 1.2174528861329864e-01 -6.4864209509595678e+00 -9.5314089752556477e+00 1.6237569772606248e+00 -1.3993814144977994e+00 5.5788463532370491e-01 8.2108756102768155e-01 -4.4449753049170221e-01 
        </Neuron>
        <Neuron NSynapses="12">
          -3.1758441355625027e+00 -9.1913852036724393e+00 -8.5978203605254997e+00 2.4449873876878887e+00 1.8981619080044158e+01 1.9318326202826363e+01 8.3315943994708999e+00 1.4744712770395509e+00 -2.3493184285437065e+00 -7.6972726189629013e+00 1.4172462364229468e+00 -1.0945525821874026e-01 
        </Neuron>
        <Neuron NSynapses="12">
          -3.4530022720220348e+00 1.4152219900809015e+01 1.3123083434622457e+01 2.5769416365354214e+00 1.2896779195289360e-01 -6.4119440894910014e+00 -8.6501135358342633e+00 -6.1303221037742073e-01 -1.4528606571747229e+00 7.4506886480788859e-01 4.7895042205353555e-01 1.1151202516809324e+00 
        </Neuron>
        <Neuron NSynapses="12">
          -3.3453713808588721e+00 -8.7335625055422188e+00 -8.7960918031684034e+00 9.6047802255049192e-02 1.9684965897930280e+01 1.8644101087005971e+01 6.5945148070094595e+00 -1.0848778572575271e+00 -2.6863707361638558e+00 -7.8904869492351377e+00 1.7145187694324329e+00 -1.7357983443531217e+00 
        </Neuron>
        <Neuron NSynapses="12">
          4.0768452034040239e+00 -7.2152151029353601e-02 4.7857387171244996e+00 -7.7578109877663526e-01 -2.9806340064526587e+01 -1.8685554196124158e+01 -4.2065343871596211e-01 4.2811489395799601e-01 4.9686930930673654e+00 1.1415701510554344e+01 -2.9731515051980285e-02 -1.3384526579622145e+00 
        </Neuron>
        <Neuron NSynapses="12">
          -1.8255900436475064e-01 -9.3559341465453541e-02 -2.6829865655031385e-02 -5.7282936300199927e-01 -1.4942179790007771e-03 1.0921862796185938e-01 -1.0949340164564583e-01 -1.4762385078818079e+00 -1.8816999166387710e-01 -2.4250008856900034e-02 1.4148888595422912e-01 9.7306992227418876e-01 
        </Neuron>
        <Neuron NSynapses="12">
          1.5723569051768955e+00 -7.0226816069210041e-01 -3.1987418986141973e+00 -8.9251851180654940e-01 -1.1974625103589336e+01 -1.5655958415916936e+01 1.8840076499691633e-01 1.4352055758059030e+00 1.0466928818059484e+00 2.8991236429863640e+00 3.5635348853947135e-01 -1.3519886883330607e+00 
        </Neuron>
        <Neuron NSynapses="12">
          3.6024113673132363e-01 5.4134542750425696e-01 -1.8663457132165914e-01 -1.0492436976591519e+00 -4.0442886329445898e-02 -5.4083518274852893e-01 -8.3751102394172172e-01 2.2981298838994881e+00 3.4464066214314243e-01 -5.6548009897097007e-01 -1.2692850043684680e+00 -1.1377563475536774e+00 
        </Neuron>
        <Neuron NSynapses="12">
          1.1679801528151492e+00 6.4190724734332538e-01 5.3844061077234340e-01 1.0318631714681996e+00 1.1569460327570479e-01 2.7552740050151320e-01 -6.5655425646940990e-01 6.3892122956084529e-01 3.4561182174203814e-01 -6.7994291222099468e-01 -1.5860657463228842e+00 -1.6874740012135969e+00 
        </Neuron>
        <Neuron NSynapses="12">
          6.2209680774487568e+00 -1.5910191984806792e+00 5.6112790157958976e+00 1.3587955095550537e+00 -3.7745856640088945e+01 -2.5292487098641757e+01 -2.4488335806265353e+00 2.1667646400223108e+00 6.2272959175780471e+00 1.8086118352578623e+01 -7.2899139230179377e-01 -2.7259799511511884e-01 
        </Neuron>
        <Neuron NSynapses="12">
          1.6502343315706727e+00 1.8999597800409482e+01 2.8472806353152887e+01 -6.8050907667848703e-01 -6.1187203892361651e+01 -1.4032737382185530e+01 -4.9423183067628447e+00 -1.8262070161809363e-01 6.9987180911047560e+00 2.2345869963767264e+01 -1.8361964296762230e+00 4.1642791019115222e-01 
        </Neuron>
      </Layer>
      <Layer Index="1" NNeurons="13">
        <Neuron NSynapses="17">
          -2.5963668351589436e-01 -8.1517389908862747e-01 3.9313706145514599e-01 -8.2934395160359908e-01 1.7516081582936369e+00 1.1280001617193829e+00 4.2173104555799773e-01 2.1640702989040331e-01 -4.7964905533654983e-01 -1.9191072577846247e-01 -1.1145447414557552e-01 -3.6948084904704998e-01 -5.2994720127195738e-01 -3.2963422655598924e+00 -1.7492918115783505e+00 3.3200260070765721e+00 7.4332910581495915e-01 
        </Neuron>
        <Neuron NSynapses="17">
          -3.1784383599050772e+00 1.7875719013514235e+00 2.3116000660792433e+00 -1.5748872876215948e-02 2.8560538808568747e+00 2.3248654270196174e+00 -1.9122488342145307e+00 7.7079310612167962e-01 1.2705973495315346e+00 -7.8108487689733763e-01 -4.0774998571378438e+00 -1.0930717068490461e+00 -8.2314294143119815e-01 -1.4474500202569023e+00 3.4102638316571290e+00 1.2812249714098716e+00 -6.5360012463592165e-01 
        </Neuron>
        <Neuron NSynapses="17">
          -2.2553062217896702e-01 8.0603118743683888e-01 8.4290563881685854e-01 4.2635100998857911e-01 1.0793766593956142e+00 7.0852023548415188e-01 -2.3109256511248302e+00 -1.7263778631318830e-01 6.7324139038827002e-01 1.6812856394705761e-01 -1.8009106489589612e-02 5.7193279338113301e-01 -3.1107301704284918e-01 -3.3891920171482165e-01 2.5236569978949519e+00 2.9613403857116021e+00 2.4832752614360842e-01 
        </Neuron>
        <Neuron NSynapses="17">
          7.0895120815460111e-01 3.6511802227874717e+00 1.2790643655089820e-02 7.8970808951897109e-01 2.2105729454455987e+00 -4.7063140546769244e-01 -1.5505391076741075e+00 1.8539243210356806e+00 -1.6091571110298832e-02 1.0943972316592367e+00 -1.5795181675402119e+00 1.5959482802716691e+00 -9.3763050284544780e-01 -2.9899114557276256e+00 6.4343993301716407e-01 -1.9579663521640052e+00 1.1799990072664261e+00 
        </Neuron>
        <Neuron NSynapses="17">
          4.1262831334176280e+00 -1.1196472762200556e+00 1.0365694614892226e-01 8.0755269455096382e-02 -3.3152930240136262e+00 -1.9976261477168349e+00 3.4589667051938089e+00 1.3724767193479323e-01 1.1866940019838003e-01 -1.4560136176476091e-01 -6.4867541925645900e-01 -2.0592578589483385e-01 6.8827387113691285e-01 4.9201804556263893e+00 -2.1749422501940434e+00 -3.6663618075401576e+00 -1.7087492545320040e-01 
        </Neuron>
        <Neuron NSynapses="17">
          3.4126729331075939e-01 -1.1752919340767198e+00 -2.6542336053620874e-01 -2.4125816610746846e+00 -1.5762928556644735e+00 -1.8685700365194624e+00 -1.2860332302773176e+00 -4.4603107303697315e-01 -4.7013100338650071e+00 4.9254333911496845e-01 -1.2482857158854951e-01 5.7358842446357672e-01 1.0587302614422811e+00 4.4937429200069004e-02 -1.2261687449963208e+00 -3.0970136120276676e-01 -3.9163767344717386e+00 
        </Neuron>
        <Neuron NSynapses="17">
          -1.4800115609666809e-01 -7.9351226936686026e-01 -1.3146944370879079e+00 2.2655559008265803e-02 2.1758058731135307e-01 -4.2730437331317244e-03 -1.0352224017805427e+00 1.2976895962944962e-01 -1.0730462563100027e+00 -2.2909590221304171e-01 8.4341819302154189e-02 -1.2039272561752053e-01 -6.1632441179574782e-01 4.5062871132349797e-01 3.2036678662045688e-02 4.5096428448725784e-01 -3.4958540064295716e+00 
        </Neuron>
        <Neuron NSynapses="17">
          -6.1002128100821651e-01 2.1392700189068838e+00 1.1172827083429844e+00 1.4913697634995429e+00 1.1499303677027684e+00 2.3306142512741683e+00 -1.4353881627585485e+00 -8.5393657261227129e-01 -1.2204513514212285e+00 -2.0647205963718016e+00 -2.5796942195242161e+00 -2.4937097316427650e+00 2.3469757002364475e+00 -4.2708925277473524e+00 3.7254576881551573e+00 7.2161429546793776e-02 1.3825133752135204e+00 
        </Neuron>
        <Neuron NSynapses="17">
          9.1944680713611349e-01 1.4442078723102805e-01 3.7801266657364924e-01 -1.5329938326742083e+00 1.3808298197186415e+00 1.6950144007635035e+00 -1.0125050726232494e+00 1.4496593628801177e-01 -3.9110949323499566e-01 -7.2756595069871408e-02 -2.6783098982270442e-01 -2.3065176878639895e-01 -2.7542841349743441e-01 -7.5523384259407156e-01 2.1631807020573248e+00 1.8257099460167798e+00 -8.2079202340370450e-01 
        </Neuron>
        <Neuron NSynapses="17">
          -2.9895956873829155e+00 1.5250434099173227e+00 5.3926171764046765e-02 -6.2994842053834299e-01 7.8641402435595281e-02 5.8576523390945434e-01 -3.6397254306190635e-01 1.4186117519546626e-01 4.0591578127262162e-01 -2.1794245797088385e-01 4.3228060334038263e+00 -4.5372345017518029e-01 -4.0282780406798879e-01 -9.6500707291312926e-01 -9.5913756487224028e-02 1.1930182759550365e+00 -5.7644072203582108e-01 
        </Neuron>
        <Neuron NSynapses="17">
          -2.5778206636774720e-01 1.0366547932087025e+00 -1.8971513953914863e+00 8.4997265504542097e-01 -3.9912900449037850e-02 -2.2287693481746786e+00 -2.1529464332500075e+00 -1.2574055328911418e+00 -9.8996462850383027e-01 5.0330584712713722e-01 -6.0614475273562805e-02 2.4009608375157421e-01 7.8114394433907275e-01 -8.5300861922658311e-01 -5.6638954692041765e-01 8.3690099368618609e-01 2.0530421371235468e+00 
        </Neuron>
        <Neuron NSynapses="17">
          -1.2425964715807540e+00 -4.7240893970442382e-01 -1.3164298555374803e+00 -1.1417041671106016e+00 -1.2245579957702444e+00 -1.8499881815101462e+00 8.0186053144966577e-03 4.9809576116271259e-01 3.1285310745261357e+00 9.1813777975799660e-01 1.0665598490633885e+00 -2.9424207923438719e-02 -2.2652369357276583e+00 -5.6066911804678554e-01 -9.4104848114782391e-01 -2.2186107344441139e+00 -1.2772122152794176e+00 
        </Neuron>
        <Neuron NSynapses="17">
          8.0411410370944603e-01 -2.3184920724720564e+00 -1.1546296307135790e+00 -2.2893130910767141e+00 -2.6478083459178597e-01 -3.5038146830331898e+00 -5.9284186798679162e-01 -1.1306303950095289e+00 3.5661653290489792e-01 -1.3131525274947287e+00 2.4428238479065012e+00 -4.2480958471599395e-01 -2.0193673725519186e+00 4.1596584384671953e+00 -1.4736121460171834e+00 -1.3893795851649848e+00 -1.7188024519261627e-01 
        </Neuron>
      </Layer>
      <Layer Index="2" NNeurons="18">
        <Neuron NSynapses="1">
          1.7027919151688331e+00 
        </Neuron>
        <Neuron NSynapses="1">
          2.3879697583686106e+00 
        </Neuron>
        <Neuron NSynapses="1">
          -3.4861219522173897e-01 
        </Neuron>
        <Neuron NSynapses="1">
          -1.3434943226105316e+00 
        </Neuron>
        <Neuron NSynapses="1">
          -4.1283222542904241e-01 
        </Neuron>
        <Neuron NSynapses="1">
          -5.8552032903583717e-01 
        </Neuron>
        <Neuron NSynapses="1">
          6.0609348024873899e-01 
        </Neuron>
        <Neuron NSynapses="1">
          -1.6007351981646317e-01 
        </Neuron>
        <Neuron NSynapses="1">
          -1.9235329172383306e+00 
        </Neuron>
        <Neuron NSynapses="1">
          1.1646974511954544e-01 
        </Neuron>
        <Neuron NSynapses="1">
          -8.4572095686301041e-01 
        </Neuron>
        <Neuron NSynapses="1">
          4.6143320520953718e-01 
        </Neuron>
        <Neuron NSynapses="1">
          -1.5496195840026974e+00 
        </Neuron>
        <Neuron NSynapses="1">
          1.9985978713208665e+00 
        </Neuron>
        <Neuron NSynapses="1">
          -5.3932903633018814e-01 
        </Neuron>
        <Neuron NSynapses="1">
          -2.6165118260664016e-01 
        </Neuron>
        <Neuron NSynapses="1">
          -2.5938257378368923e+00 
        </Neuron>
        <Neuron NSynapses="1">
          -2.2204128005808874e-01 
        </Neuron>
      </Layer>
      <Layer Index="3" NNeurons="1">
        <Neuron NSynapses="0"/>
      </Layer>
    </Layout>
    <InverseHessian NElements="156025" NRows="395" NCols="395">
      <Row Index="0">
        2.4001220996136866e-01 3.0132678917411712e-02 4.9267788745011212e-02 6.8862943994330850e-03 1.2160331754809248e-04 -2.8804338172637285e-02 -1.9665790007033349e-02 4.5125429450099909e-03 -2.6937785042551871e-03 -1.1414678678729188e-02 -2.5072231808733183e-03 3.4338280766478013e-01 -3.1825517784319628e-02 8.6873551341410359e-03 3.6844082144857626e-03 1.0673135205252015e-02 5.3932132320807083e-02 5.7614376040329415e-02 1.0775491983486170e-01 -1.3371137066769734e-02 5.6448337091754668e-03 -2.8029012200976873e-02 3.1089383627855155e-02 2.1916984786707161e-01 1.6265411876114672e-01 1.7924714277631489e-02 2.0001884140704605e-02 -2.6019554201052453e-03 -1.0061729076973785e-03 -2.3851926768714241e-02 -1.4781086626972981e-01 -5.7684472719772839e-03 -4.4884897220728581e-03 5.0111311427258019e-04 1.1968851577759964e-02 -5.9620798454199253e-01 9.5409084119220354e-03 -2.1599420158257322e-02 -1.1474054544655157e-02 4.3750452542740369e-03 -5.4304288028929511e-02 1.3641371264567718e-02 8.9814332113002049e-02 -4.6924730263778122e-03 -2.2108893638646650e-02 3.8903891972059811e-02 4.0330608870529257e-03 4.2224002419082396e-01 2.1026594426745718e-01 1.4444181058309250e-02 2.4143508484319939e-02 7.3685329902355434e-03 -5.0103309637085282e-04 -2.3685278274234948e-02 -1.4829810600564275e-01 -2.8121363149995027e-02 2.0593434147563724e-03 -8.1694913912438646e-04 7.4415226167652559e-03 -1.1891569756681974e-01 2.7852718194348827e-02 -1.9415534498442428e-02 -1.3488950634864732e-02 -5.9024382716587054e-03 -5.6414829519400349e-02 7.9177359926528058e-03 7.1515384975461879e-02 -8.6843664904001638e-03 -2.6555543738794957e-02 3.9923846617602496e-02 8.0848896859955464e-03 -2.8966269744621442e-01 -1.7158247178279978e-01 4.9434657564583397e-03 -1.0829204344132662e-02 -4.6350522819785245e-04 7.2127319511270632e-02 2.8435540883077325e-03 3.6377776313419180e-03 7.6152809340106140e-02 3.9442792965900322e-02 -5.1833945306435765e-02 2.0231693761634265e-02 7.6699691672659576e-01 7.6935493140783857e-03 -2.5253476833658479e-04 -3.2955769645849793e-04 -5.4781226870448396e-04 -1.1646225091366209e-04 7.1361415894608936e-06 -1.5465362083976700e-03 -1.0127493417406264e-02 -1.8860243975484837e-03 1.6164357120731273e-04 9.7899499404991309e-04 -1.3765759195620042e-01 -6.2866354006674272e-02 1.3523819990259520e-03 -1.1319467931562695e-02 4.8643132534115230e-03 4.3650089706689481e-02 2.1144653693188485e-02 1.6874656058842911e-02 -5.6163434025076509e-02 1.6123174938054222e-03 -1.8540376715768175e-02 7.3585127487278135e-03 -3.6412999865689599e-01 6.4371554137206142e-03 4.6568855342389859e-03 5.1900839513126934e-03 -4.7957615811852206e-03 2.9351364729045151e-04 -4.7009749272561132e-03 -7.0017367596928821e-03 9.7671886129964136e-03 5.9750195634063925e-03 4.4153543075815230e-04 -1.2995991836398713e-02 -1.3545747392925733e-01 -3.8776489471185463e-02 4.2289992233513311e-03 7.1381044044347393e-03 3.8228782105274584e-03 -8.9337370000075141e-04 -1.7604310690218332e-03 -6.5519190588261538e-03 -1.5852359772894342e-02 2.0659576811724919e-03 6.0706002875726608e-04 -2.0160413005055257e-02 1.0960778499054413e-01 -2.4793982525398697e-01 3.9069031731984952e-03 -2.0175284397136097e-02 1.4495431904188529e-02 1.0688021783917223e-01 2.3822011540664455e-02 -8.3347905456994803e-03 2.3751062230735087e-02 4.3956204603026558e-02 -9.2130132017759200e-02 1.8407800001661926e-02 1.3234154581443391e-01 -4.4567229697806583e-02 4.7009485450213002e-02 3.8976273064377204e-02 1.6689691859943068e-02 1.6749323547070061e-01 4.2595898744975158e-02 -6.1959343685823710e-02 1.5052568389173349e-04 5.8188899364454399e-02 -1.1681905682517277e-01 2.3764186612791921e-02 1.1947160476080132e-01 -3.3213781194789023e-03 -2.9558768407457872e-02 -1.5488662317715765e-02 -1.1293182391827372e+00 2.6647053222257511e-02 6.2789243505162323e-02 5.6748205136261269e-02 8.0883532258002866e-01 -3.4051887187285926e-02 5.9061862512500785e-01 -1.4857517638496697e-03 -4.1997996308703774e-03 2.5930540539765161e+00 1.5012538622916227e-01 -4.0874991010244471e-02 -9.9348888320878320e-02 2.4854076642679468e-01 1.6259874631324157e-02 2.2270162782197893e+00 -3.2368303199944562e-02 1.2001196886609566e+00 -3.5949934459946389e-02 5.4665348935525632e-02 -3.7081256879463134e-02 3.0579952172582131e-01 1.2925525659278410e-02 6.3764027322374028e-01 1.3271701402349945e-02 -1.3797475959556008e-01 1.2019805710430305e+00 2.1199821770514923e-02 1.7571967803557506e-01 -7.7370372216962621e-02 8.6660626676571331e-03 -7.1942612654278329e-03 -2.8786259505801937e+00 -1.1664980807921874e-03 5.4851977088146953e-01 7.3670126809230428e-03 2.4752789183769233e-02 1.5824871783903403e-04 4.6089638285458517e-01 -2.0479196920614486e-02 9.1260719239953803e-01 -3.2385054468004760e-03 1.2482730523405333e-01 -2.5674807504315140e+00 -4.5462712014707786e-03 -2.2900758136982099e-02 -1.3124582984489480e-01 3.5977291417613397e-03 1.4413196629161837e-03 1.4718778665263610e-02 5.8582090420687835e-02 -1.0200406289036934e+00 -2.2272569452009131e-02 1.6057974662300156e-01 -1.1339819030484230e-01 -1.2934881440912960e-01 1.7448208598657956e-02 5.8699994117294518e-01 2.7497479986141698e-02 5.8842234866893134e-02 -2.5632296565655679e+00 2.2756561282662113e-01 -3.2468323662877607e-02 6.7954736302240304e-02 1.6050237969160441e-02 -3.6460053492839897e-03 -4.5092609228083169e-02 2.2392084269237111e-03 -1.7148497366758342e-01 2.8804422007663588e-02 -3.2370224744400170e-02 4.4712454724705628e-02 -1.1011890474729363e-01 2.6367913373928110e-04 4.2335195911438528e-02 2.0262272389810392e-03 -5.7852337745568694e-02 -6.2410989097682545e-01 -5.5295305608415302e-01 2.3432406764935534e-02 3.5504140544631024e-02 -9.5224950092778651e-04 7.4262087440259660e-03 -1.0522157560601153e-02 -2.1902046126204031e-02 1.1210780101247932e+00 5.6258819265188192e-03 -3.4705358799888723e-02 3.2476614257725550e-03 2.8844010281959304e-01 -2.7025587079732578e-02 5.2670910862819942e-01 2.7605576631614444e-03 -1.0199727392117691e-01 5.0889795081184275e-01 -6.3720196873975343e-03 -1.2473486432305295e-02 5.7895026112145274e-02 -1.0382792538461069e-03 1.5284179683174061e-03 1.8939553919055940e-03 2.1296690401287163e-02 -3.6244407258772853e+00 5.6637908272086160e-03 2.2803754607381568e-02 -4.3115633341963434e-03 6.8362691388217198e-02 7.3244588162442847e-03 3.1088431628726942e-01 1.9053848591875238e-03 2.5580900273597926e-02 -1.2457825100711943e+00 -2.2683083584753320e-03 -3.9250242313767919e-03 -9.8007144341049832e-03 -3.0647674421019214e-03 1.8342425820915421e-02 4.7860403924747441e-02 -5.0552877433107917e-04 5.0211547275428359e-01 -6.9356705072595726e-02 -1.5543876972156401e-01 3.4649299665406857e-01 -1.1747562955841118e-01 -1.1557001916248630e-02 3.5204756194868636e-01 -3.6992044929313572e-02 -2.5320588584092540e-01 -1.2861470386765976e+00 2.4766557002519951e-01 -6.3045414149304202e-03 4.1397211320542020e-02 -1.2553782800502195e-01 -5.5845356792418874e-03 -1.6966942601320478e-02 7.6641373224759363e-03 8.7918885854375617e-01 -2.9142606694564012e-02 -1.8958004939614918e-02 -3.9092010853821565e-02 -1.3446330855565403e-01 7.4289736049467994e-03 -3.8818982881670461e-02 -1.2910493809361948e-03 -1.1434432753305837e-01 1.3186034860643758e-01 1.1213534927817161e-01 1.5572162942852337e-02 -3.0411333653496769e-02 -2.5010041611786571e-01 2.3626772461424594e-02 -1.3420727233164342e-02 -4.4599630693335050e-03 6.5753925832966686e-02 2.2436437328019799e-02 1.6666824206522636e-02 -4.4217919091087618e-03 -5.7854106004251421e-02 6.0285197102984047e-03 -1.2292329528604112e-01 -1.1637518654232246e-02 -1.0317704383020426e-01 1.1729464320399927e+00 5.1517948017473399e-03 8.9764320634763417e-03 -1.3789409385792990e-02 2.9122040455890944e-03 1.0972718753450572e-03 -4.7348975871077947e-03 7.6063412311020463e-03 -1.2893028241695568e+00 -3.3142765777959340e-02 3.3903038176138539e-01 -3.5308859897284606e-02 1.5213307307200324e-01 -5.4666165718725221e-03 -7.1620740852684195e-01 -2.3946945147072188e-03 -1.4215238278340731e-02 1.6698863587289026e+00 2.8814922443536561e-02 1.2309185321999219e-02 1.1575299951894928e-02 -8.3361542703154656e-02 3.7597731916033339e-01 -2.7648974389494008e-01 6.5967409470005478e-01 7.2274870410363690e-01 -1.7244421645302854e-01 -9.4076220211435402e-01 1.0968593283697370e-02 7.2061086803132213e-01 1.0777225484346900e+00 5.2319168274972194e-01 4.4224675577866668e-01 -8.9381089598110364e-03 7.1267672462022347e-01 -2.1721837801374244e-01 -2.6556544557586381e-02 -1.6719292663116221e+00 -1.9025340591027837e+00 -3.5038268354698715e-01 8.6797715996686531e-01 -5.5889180534782434e-01 5.8630110368380883e-01 1.1309540496374541e-01 1.2270825469761260e+00 2.4004891952819052e-01 -1.2867607822005314e+00 -1.0504222763603570e+00 -1.1698529340088986e+00 -4.8415128494815501e-01 -9.9473797250222429e-03 3.1444097830069495e-01 -1.2604775450387651e-01 -1.4184496317905171e-01 1.8399134237818746e+00 1.6869820365361079e+00 1.0326972653174468e-02 1.4491013197958633e-02 -3.5343694411758188e-03 -1.1100875119844993e+00 2.8949077710069470e-03 2.3347122581300749e-02 -8.5114789788185846e-03 -1.7214886880237368e-02 -4.7484193377574611e-03 2.9008433596646005e-01 1.3235504959624249e-03 -2.7073679998523231e-01 5.1612121641973330e-01 -1.0783860715797636e-03 -4.6669778094963008e-03 -8.0247146513332760e-04 -6.7372483257532589e-03 -5.5916080073138319e-01 
      </Row>
      <Row Index="1">
        3.0132678940974489e-02 4.9868631053545585e+00 2.7718071714539405e-01 -2.5173697082726248e-02 -1.2679619601933395e-03 2.7473501290094648e-01 1.2501608814554602e-01 -8.0186377134005074e-02 5.8495267536438633e-03 -1.3872498546789458e-02 2.3380449694537985e-03 8.9515669908952433e-01 -3.7808464475347137e-02 -1.1828340809791591e+00 -5.6844932329364550e-01 -5.0192357684211153e-03 4.2691998027409717e-01 3.6258211810077906e-01 -2.0514703571164783e-01 -9.4556595913672936e-02 -7.2309720710775072e-03 2.1633472955776889e-02 -3.7826143755252062e-02 2.1999536414455179e-02 1.5934628003086315e-02 3.3962201963209018e+00 2.5351731496560598e-01 -1.0842765150253619e-02 -3.9316638606126303e-02 -9.0689838916412080e-02 1.4338017378481305e-01 -4.3615290912898619e-02 -3.5617034988061819e-02 -7.4343665592510322e-03 1.4117777192702352e-02 -2.7700189373416038e+00 -7.6725810791739985e-02 -2.9127396618657824e+00 -1.1331375155270923e-01 -5.3557753205381031e-03 -4.3819283748428084e-01 1.2368497128408722e-01 -1.4131101485760514e-01 -2.4976131370607391e-02 -1.2448356567436811e-01 -2.4171366595879512e-02 1.7511312335200091e-02 2.1481775775371261e+00 1.7612177666771200e-03 3.7665749152673227e+00 2.8452115771734660e-01 -2.7984847488766285e-02 -4.5643407448100644e-02 -1.8653448792233354e-01 1.2567924676895070e-01 -1.6628997618920494e-01 -3.3964937317218433e-02 -1.1046344536655123e-02 1.3224468591085226e-02 1.7149452063230081e-01 -7.1280716177672843e-02 -2.7868189888165897e+00 -9.1613985542780205e-02 -1.7158570488806646e-03 -4.6023412355836779e-01 1.8785394276874071e-01 -1.1250902108771232e-01 4.3061920012560345e-02 -1.3968873100101259e-01 -2.3620478669680568e-02 2.2901028819919622e-02 -9.9497337414603493e-01 4.7178967878662728e-02 9.2596073382988281e-02 -3.6796039729251995e-01 3.9288368771650539e-03 6.5139496196354751e-01 -2.6455764582858254e-02 -2.3571452116635139e-02 -1.6406458468617302e-01 1.7414965110426489e-01 5.3093463748722453e-02 -7.8022894338383275e-02 6.7461566206549151e-01 2.2248159001037118e-03 -2.7478158548005803e-02 -4.8944592989319524e-05 4.2243906833587808e-03 2.3384332293781437e-03 -2.6995705369019796e-03 7.3091438651779984e-03 5.3744903222867180e-02 -3.6307665672219444e-03 -2.7414978063139903e-03 1.3370263841596119e-03 9.2961740278917793e-02 4.4762350312875787e-02 -2.4015941401715829e-01 1.8710285910746594e-01 6.3831348950422750e-03 7.2526144475101006e-01 -4.0266798965146255e-01 2.8312195719786729e-02 8.4929459589808687e-02 5.3149232090854426e-02 1.0161813605771508e-02 -1.8382936902881397e-02 -6.0307341358352318e-01 3.2624646824661180e-03 1.4144350239953640e-01 2.4965376556879498e-02 -1.0102830269097307e-02 2.7590141033923814e-02 2.5959875342371014e-02 1.2855534776658323e-02 -1.5349796207123845e-02 1.5433586137396649e-02 -1.3709139347107574e-02 8.2313997311754782e-03 -5.6230947394919895e-01 1.0260208923961872e-02 1.5136358584309861e-01 7.5826606972658264e-03 -9.4619084676378362e-03 2.6066394027198906e-02 4.3455546456014099e-02 8.6037816490426300e-03 3.9983879186422655e-02 1.3531979056887994e-02 -7.8713333035918334e-03 1.4304495410146334e-02 2.1474907018955491e-02 8.5233032844349133e-02 -3.2993843815339940e-01 -4.2007022680278805e-01 -2.3208491465370074e-02 8.2379550399072754e-01 -1.7199002305433481e-01 6.1845471849078737e-02 -2.6866855819164925e-02 2.5171737010738238e-01 1.0043403462982792e-01 -5.7478157171335642e-02 -3.6507927350215397e-01 9.9692237852980536e-02 4.8244085566808055e+00 -4.0271229937317871e-01 -5.8537319850273661e-03 1.7587644127735556e+00 8.0044818392619760e-02 3.9649853283647118e-02 -1.2721020975202357e-01 3.0844656831628597e-01 6.5489782773482608e-02 -7.7228956631796297e-02 -1.1671327051020022e+00 -2.0508164690052011e-02 1.0541822593319261e-01 -1.1033378845999738e-01 -1.4940330594208717e+00 5.4808857067938754e-02 1.8198288174607856e-03 -1.8782940407952919e-02 1.4256301416905568e+00 -3.9396922999743206e-02 1.3323345142190863e+00 -1.7094882947735424e-02 1.4900517127520330e-02 -3.5548967504975053e+01 -5.8246534821654150e-02 1.3978580217896663e-02 3.5975229791967855e-01 -5.1164941728169016e+00 1.4445024315680910e+00 4.6674880617988208e+00 -3.7400710959951011e-01 -1.5901123098671704e+01 -1.2773006050921909e+00 -6.9725755171495774e-01 5.7694144686396509e-01 -8.6508077013804989e+00 -5.7820946487634861e-01 -1.1251564345239997e+01 1.7950734779402155e+00 7.2614946744435327e-01 3.5895630726434717e+00 1.0717892709657351e-01 -1.8722694141309679e+00 5.4280101386194601e-01 2.4701016469274617e-01 -7.1486252852797139e-02 1.0111268417316097e+00 1.2880831768594225e-02 7.5407338480113140e-01 3.2931714202562135e-02 3.4059976130279015e-02 1.8577215303990191e-01 4.0174428264481401e+00 5.4638724050851545e-02 7.4258936350311719e+00 -1.0425415839596539e-01 -8.3715838861411929e-02 1.8952918893856577e+01 1.5740533103551502e-02 1.9687717190679588e-01 1.8512925334587971e-01 -3.2642519406677062e-02 1.9331523544420581e-02 1.1272588659359517e-01 5.4553891082818495e-02 7.1921721522778626e+00 1.4499138032534553e-02 3.3531311451813706e-02 5.0633664098865117e-01 -2.0790544820314816e-01 1.3971632371451714e-03 -9.2333658625788750e-01 6.3706656161034658e-02 4.7131489021341921e-01 6.4607983628243346e+00 1.0447723024604949e-01 1.9320555060636124e-02 1.6262299624461019e-01 -1.0583453480640819e+00 2.1171110041385449e-01 -1.7731147049072682e-01 2.8332941326178140e-02 5.5804488916062667e-01 1.0559604349457463e-02 3.0685386368946876e-01 -2.8008278374025330e-01 -6.6410898235672733e-01 2.8207243365336587e-03 -3.7567365613595438e-01 -8.3962371989755813e-02 -1.0704629335876931e-01 4.5903764869905217e-01 3.6857765389950625e+00 7.5647282440061581e-02 -9.8056032658852932e-02 5.9238815688140607e-02 -1.7483636125104673e-02 5.7128912479748717e-01 -4.4653475200853465e-01 1.9033409207072509e+00 1.8160083718014064e-01 7.9412106685175302e-02 1.0070862424556970e-01 2.0149962246297903e+00 7.6229871408761696e-04 1.8600323593861248e+00 -5.2900146453237762e-02 -7.5397522749511614e-02 -1.4468063851396437e+01 -1.5285555988797328e-02 -7.1749401736952934e-02 5.7252086504378630e-02 -5.2249398413603099e-02 6.0287682500701573e-02 -2.5949172561544054e-03 -1.2406041507552557e-01 -7.7703772141667287e+00 -1.3487879688252116e-02 -4.2180196871780817e-03 -3.0215826195930495e-02 6.3396475811031250e-02 -4.5027064258108720e-02 1.2622190812074923e+00 1.5168718944088168e-02 -3.0734952688468264e-02 1.3485304053290292e+00 5.2953261334108348e-03 -2.9693873063166787e-02 -2.0705492640749057e-04 -6.2826596698220438e-02 4.5673490127321559e-01 4.6433256085181895e-01 -1.9968051643980367e-01 6.6086689216385821e+00 2.0024905662769665e-01 2.1540237730090173e-01 -3.0239977070343578e+00 -1.4730666295220045e+00 -1.5756310167159829e-01 1.0254204591153004e+00 -2.6618827182624361e-01 -3.2066243216728918e-01 -9.1173553650360191e+00 -2.7196438325749694e-01 1.3085412805567165e-01 7.3521088423954661e-02 -8.6594041838680424e-01 -7.5677192933111176e-02 2.5118382977261433e-02 5.1387536513173265e-02 -1.9018826811625331e+00 2.4012392028470719e-03 1.0962032698650659e-01 1.5474139415495980e-01 2.2108980981525916e-01 -4.1226430407358405e-02 4.1228347168136059e-01 2.4167457625247829e-02 -2.9637386695317003e-01 -2.4106152380863932e-01 -2.4789950024768359e-03 -7.9221379833740890e-02 -4.2260792961445581e-02 3.4521166410441708e+00 2.6596827839493624e+00 1.2171480684184388e-02 -4.2233613889941513e-02 -3.5765958751535436e+00 -3.0142245621548547e-02 9.5774446920942613e-03 2.3890382577831382e-02 -1.1850396585701972e-01 1.8991122493355883e-04 -5.1549037569499623e-01 2.1356673006982152e-01 -1.0385301950757619e-01 9.2465948878984818e+00 7.1701238424081382e-02 -1.1014839219052112e-02 -1.1190587781889416e-02 4.5884029437605556e-02 7.3554049414189304e-02 1.7702686602414253e-02 -6.8251024061122489e-02 1.4649477328127432e+01 2.2032517247305372e-02 -6.5362977137728207e-02 1.1748242322407192e+00 5.5113292386586021e-02 -4.1826009838763945e-02 -1.2740410010394125e+00 -2.7132593213029743e-02 -1.6792944825144174e-01 -6.9069455043176617e+00 -2.1263066444191348e-01 1.2972824685579809e-02 2.7775151111440799e-02 -1.1671160742730207e+00 -9.5268972128841707e+00 -1.5683670829846091e-01 -2.7409566793331104e+00 -7.7942230552611136e-01 -5.2385908140538207e-01 1.3768931499103294e+00 -9.8031182530939240e+00 4.8668899506060388e+00 -1.3969128726909770e+00 -7.2340792356515164e+00 4.8378193241766105e+00 -4.1586616592869441e-01 -1.5319004376238809e+01 6.0849787962566104e-01 4.3873891886103378e-01 -2.3286304530532327e+00 6.3289590019869468e+00 1.1234812821368475e+01 -5.7704979246281098e+00 3.2415816319342463e+00 8.0668451846122480e-02 1.8181261522057250e+00 -4.4584889679871614e-01 7.6474408775792329e+00 -2.9330102210280877e+00 1.8237406808047480e+00 1.1026125776450847e+01 -6.5962762523747163e+00 -1.0073969206696809e-01 -1.4603806256123789e+01 2.6553149136190108e+00 1.5147656405271315e+00 2.0442698868764424e+00 -8.0773331559025827e+00 -5.6048009934599796e-02 -6.8621135916558940e-03 4.0728482218607948e-02 5.6820062477472346e+00 1.5355597777081426e-02 2.1359696147106866e-03 3.0610798919829318e-02 -3.3469660373840471e-02 1.0217149358830002e-02 8.5432697851908945e-01 3.4007052764259665e-02 -6.9942362382036816e-01 5.6058316924317730e-02 1.4290720401223134e-01 -5.0678490020404851e-03 1.2121574563648575e-02 -8.8616229243082767e-02 5.3904566044914377e+00 
      </Row>
      <Row Index="2">
        4.9267788680244284e-02 2.7718071777898001e-01 2.6622877633233637e+00 1.1656671375412405e-02 2.3261513717306075e-03 5.1854073411186488e-02 5.9169600240208467e-02 4.3496920286213665e-02 1.7873718433570294e-02 -2.3623663144608495e-02 3.9610616980502219e-03 2.5988526913376814e-01 2.5465731339142650e-03 -6.0835318603625482e-02 1.0399332961438557e+00 1.3653964796281670e-02 -1.2700771848777787e-01 3.9865202997426818e-01 1.6648661266779455e-02 4.2511803205655951e-02 -7.3289469206300160e-03 3.2007674836806527e-02 -8.4765398727296992e-02 1.1295178779870696e-01 1.4033417425095701e-02 4.2053146795846541e-01 2.7864740895381979e+00 -1.4261236397182242e-02 -2.7659404186140442e-03 -3.9621067906858848e-02 -1.8892850788852084e-01 1.8653225947953489e-02 -7.3660957472105451e-02 2.3055681815870796e-02 4.9901638778707125e-03 -6.8138132990456768e-01 -2.0618866231870595e-02 -2.7144873719969104e-01 -2.2553795733832525e+00 -1.5784294170223923e-02 1.3925892355270325e-01 1.6398015962509765e-01 8.3817105876987860e-02 -2.3669585731909137e-03 -1.2780032488564885e-01 -6.0680862059793329e-03 -1.9891102650258230e-02 4.4048685057389037e-01 1.9246416286964108e-02 4.2554036818355656e-01 3.0215414365169924e+00 1.4534123264242103e-02 -6.1069963925115840e-03 -3.2811048089832630e-02 -1.8863602674521418e-01 -3.2877414483060363e-02 -7.4274406184347413e-02 2.3811118180364604e-02 2.7498730119241310e-02 2.5059846934832430e-02 -1.6222867006708282e-02 -2.4862891656377026e-01 -2.2338455866608911e+00 -4.9841338703014992e-02 1.4574464350010724e-01 1.5587328957545113e-01 5.8787884685422356e-02 3.9860690505498342e-02 -1.4677407734753717e-01 -6.0917260866752143e-03 -3.0344390362851137e-02 -2.5326509017640575e-01 9.1216926590794722e-03 4.8145780198354853e-02 9.0745048645053106e-01 3.9713050509610826e-02 -2.0404474611276477e-01 -1.7803415796867283e-01 2.9446791635896349e-02 7.1500076747126329e-03 2.4144256287607885e-01 2.7361921727556776e-02 -5.6582410627166707e-02 4.3220372967953580e-01 -2.5222098849498470e-04 -1.3400656241557628e-03 -4.0184045668117951e-03 -7.3052957095678384e-03 1.0795211200288228e-03 -2.1618499181549075e-03 -7.6757206147695864e-03 -1.1658758200782826e-02 -1.1807912764785385e-02 2.2576867095673196e-04 -5.7907730144201724e-03 -1.3253192865074226e-01 4.6547909957401212e-03 -1.0167206760487167e-01 -5.5490109655253617e-01 -3.8392230591237642e-03 -1.4956543514410311e-01 -1.7589493240643223e-01 9.6760815030904057e-03 4.1310063956474963e-02 3.4819212847333914e-02 -3.5425730094274480e-02 -4.2019851403797465e-02 -2.7545005875271755e-01 -4.7534390915130956e-03 -7.4082244617521345e-04 -2.5460138788901932e-04 -1.9713164990120768e-02 1.0714289473067831e-03 8.2969419857730382e-03 -5.4465485678657222e-03 9.7260312419127359e-03 1.1670041331681591e-02 -3.4365128708413535e-03 3.5842879176378822e-02 -2.1809923476766357e-02 -1.4268236354316750e-02 3.7586477874945443e-02 1.5721100968400284e-01 2.2740570804795052e-02 3.1651081983310988e-03 1.9073180497245368e-02 -5.5518803036277604e-03 -7.7734516796878594e-02 1.2270384439118528e-02 -4.0300128076840736e-03 5.0559273738156774e-02 1.0299297104282878e-01 3.3686351787887980e-03 1.9619840061380123e-02 1.1251072299215226e+00 8.4864265793965110e-02 -4.6250357926318719e-01 -2.2742949413839847e-01 -1.4918425604510732e-02 1.4143820873579038e-01 2.8178421623099814e-01 3.5172477213689837e-02 -4.6007771602381675e-02 -2.3354386662798987e-01 1.1378762176463653e-02 4.9476563939774576e-01 6.0276746743191820e+00 7.8119242190826554e-02 -6.5012756530944782e-01 1.2288058604948635e-01 -1.2766775934035079e-01 8.3373965208441980e-03 3.1643784953623577e-01 4.3012672951445591e-02 -4.5288250344196923e-02 -6.1612367640703880e-02 -2.5619915934422852e-02 -8.0174759660922579e-01 -2.5047221994197434e-02 7.0654768675672130e-01 1.1348231005325626e-01 -2.6479485927107686e-02 5.4742443712464151e-01 1.4001147254303916e+00 -4.1403359991826261e-02 -4.4439836253503928e-01 3.8392086436753181e-04 6.9880719944780623e-02 -5.0354113211602680e-01 -1.0444066099803570e-02 -2.0631003480789190e-01 -2.0780791950331423e-01 -4.7997153471110146e+00 2.8567617877616236e-01 4.3459481099955674e+01 -2.2090318835576947e-01 2.0502917293821241e+00 -8.0258309390608407e-02 7.0187626940198616e-02 -2.1587312022839966e-01 -1.5697184841945058e+00 -1.8364396051593734e-02 -2.9579703093041418e+00 2.8549288049922589e-01 5.6341141754599811e-02 -7.1653968647204174e+00 -1.2746712837715957e-01 -2.5118288270890243e-01 -2.4828300863541197e-01 7.8934583354514795e-02 -6.3901027167837701e-02 -7.8177943950075118e+01 2.4183662560234534e-02 8.5536283377905420e-02 9.9096364813873392e-02 -5.4030788785711756e-02 3.8799783146286870e-01 -2.9557433888998264e-01 -6.8717078781817306e-02 -6.8579079480009630e-01 -2.7222808361488146e-02 3.3197208196958961e-01 5.6478145222751266e+00 1.0630595538320825e-02 6.9313704767966200e-01 -2.8578758237723084e-01 -3.3980280829441489e-03 5.0318833899567761e-02 5.2252878966432104e-02 -2.6987901699496858e-02 4.7791758347506743e+00 1.6184187726752530e-01 -3.6678135055423566e-01 -1.2358051157862548e-01 -2.4058088051719406e-01 2.7844565944304525e-02 -5.9754343091330520e-01 -2.6985695870967330e-02 5.2746107050717228e-01 8.9395055882273482e+00 3.0379730143885331e-01 -2.7240090131454949e-02 8.3931972703080310e-03 -3.7118756852139789e-01 -6.7756576630185472e-02 1.6734459054795181e-01 5.2940525597405808e-03 -4.9016146974125565e+00 -2.4357395524340958e-01 -1.1355473167636454e-01 3.0585504644396555e-01 -6.9650058696257999e-01 4.0251272493747360e-02 -6.9707073785739393e-01 -6.9217927426959425e-02 4.3608456352157060e-01 -9.2017607064775291e+00 2.5424162683847986e+00 1.5267833869394851e-01 2.5358706033039891e-01 1.2482294775394854e-02 1.5742913335612788e-02 -5.8836853308380033e-01 -3.2124622912907123e-02 -7.8305985834839476e-01 -4.5468956511832692e-02 -3.7792308516463466e-02 -1.4916810531553953e-01 2.0722837933385767e+00 -1.9879440707803125e-01 2.2989293088505312e+00 2.0690552320266991e-02 8.8300324413880471e-02 -6.0743369495571642e-01 3.4519507122105719e-02 -4.5821016003834236e-01 1.1685646751642674e-01 4.2660097388243612e-02 1.7551079081715864e-02 -2.2286646670596523e-03 -6.6053128561934737e-02 2.3763946518843113e+00 -3.9957432023557046e-04 1.7148598118883342e-02 -1.7523258792951590e-01 -1.7506861766945014e-01 1.5904112446097945e-02 9.4833214302243718e-01 4.0924458459777992e-03 5.6847553066097983e-02 -1.6971537396670442e+00 -1.5502224467043767e-02 -1.4519591378454953e-02 -2.4622995002813897e-02 9.8758965353645145e-02 1.0012581734358126e-02 2.6461818344678800e-01 3.2683864587111283e-01 3.4291663289678258e+00 -1.3294323219415838e-01 5.8191639109400617e-02 -5.7705916763167409e-01 1.5186604447603695e+00 -2.4314603962443088e-02 1.3264569579392491e+00 -3.1622037333418729e-01 -9.5705254265940554e-01 -5.2332558467221588e+00 -3.6586210977444411e-02 5.2803463635766956e-01 -2.2563406991980695e-01 -1.1139597418632217e+00 -5.3133656070342428e-03 -3.7289850029212590e-02 5.1705244292733959e-02 9.9490630883105950e+00 8.2530712299185710e-02 3.4716752175283538e-01 -7.8345815026706178e-02 1.5800506401326520e-01 8.0470877879479374e-03 -1.1563573052365417e-01 4.7475887341358880e-03 -3.4781582716130133e-01 2.5612316087285194e+00 1.9445472165032518e-01 6.1197860782650743e-02 -4.6294352261717631e-02 4.4990538880728979e+00 5.1445147399241764e-01 2.0337546755437641e-02 -1.8794715582632193e-02 -2.4294256613754328e+00 -4.0397129747898275e-02 2.6149709946070826e-02 -9.0947112226020560e-02 -2.8946509207770843e-01 1.4358048725549223e-02 -4.0093062858611234e-01 -7.9436431384823925e-03 -4.0074510244363692e-01 2.3923590546097557e+00 -4.0236957823973823e-02 8.9288247030668358e-04 -1.1511690060646118e-02 -6.1516286612558341e-04 -3.4546299682304438e-02 8.0220321311969656e-02 -7.4207165696709154e-02 -2.1601727727420439e-01 7.6729109607936552e-02 -3.4800811255271868e-01 -2.4869466592442335e-01 5.6458815213261881e-01 -7.0004390492411049e-04 -1.6636099568103648e+00 4.7102353150171861e-03 -6.1846603884039619e-02 2.9411895933365884e+00 -4.8881752120513461e-02 -7.9656891975232735e-03 1.6966514861821325e-02 -3.1164665074244779e-01 4.4352947574258028e-01 -6.2852398743934224e-01 -3.0118003942796854e+00 1.3832530945387589e-01 -1.2440636221002037e+00 -7.7976592318263660e-01 -3.5219254418753403e+00 1.5783309240993550e+00 1.7096729686876495e+00 -7.7106470495004746e+00 -3.7180691016916279e-01 -7.1199861147263999e-01 3.5619966617032333e+00 -4.8848434134772245e-02 -1.0474030921303272e+00 3.2192033007266807e+00 9.2385199820171393e-01 -3.1656366903822653e-01 3.5444774650270091e+01 3.4491605993734220e+00 2.5527146882382112e-01 1.1685279846773160e+00 -3.2684054028023946e-01 2.8302367153305958e+00 8.0052891578744756e-01 -1.4398122958322870e+00 9.3256371132674580e+00 -3.2905271728122809e-01 5.7430604920993700e-01 3.4248216146853565e+00 2.7431614866256897e+00 1.5542491201048187e+00 -2.9590067957984321e+00 -2.3453961649668926e+00 5.4546104927322814e-02 -4.1866078893535885e-02 3.5136770223808948e-02 7.0617083912725409e+00 7.4431082137585952e-02 6.8159698378032443e-02 -4.6260579976713109e-02 -1.0641273735652904e-01 2.2382335142101473e-02 1.0550611188674037e+00 7.0919401664636707e-03 -9.4835427003738748e-01 -4.0788231380781861e+00 -3.8427497190806570e-02 3.9812609455280867e-02 1.2199373021420591e-03 -2.7849215013918682e-02 2.9592833623387520e+00 
      </Row>
      <Row Index="3">
        6.8862943087818415e-03 -2.5173697958474739e-02 1.1656672245005934e-02 1.0934494976174867e+00 3.4870029461172630e-03 1.0879118309436747e-02 9.4693791366696079e-03 -2.5668333533755402e-02 9.3190109190579018e-03 -1.2034756476108441e-02 2.9818574065897802e-02 1.4354177525292309e+00 7.7833235152140468e-03 2.6842761681746489e-03 -3.8343236074561693e-04 4.9780837992049504e-01 -1.8693047286338810e-01 -2.0422829169091064e-02 -2.4053952471596560e-02 1.2661641382042899e-02 1.4285419624101620e-02 3.7222008208204191e-02 -2.4041144795317167e-02 -1.4088290224657740e-01 -4.1774761616422988e-03 -2.3297177588538408e-02 -3.9451811366360756e-03 -2.3354926551754918e-01 3.7316201149639704e-03 2.4005740246774286e-02 1.9169131673763103e-02 5.9009680422791165e-02 1.0136981204450630e-02 2.2167503170088185e-03 -3.2911996415189763e-02 -7.1382956710092627e-01 7.2842479717216595e-03 1.9736828166226641e-02 -1.4706344725363817e-03 8.5289405218655445e-01 1.8818162493302645e-01 -2.3006022734043823e-02 -1.5478008425806152e-02 1.5720387169458672e-02 1.0491527418223864e-02 -1.9533647598667249e-02 -1.3954732812699733e-02 5.5857658273893485e-01 9.7174032637263180e-03 -1.8081376803061537e-02 1.6754357229928764e-02 1.0212536156615468e+00 9.2846447266263059e-03 7.4344366067028841e-03 2.5831993799783081e-02 1.0725111198803550e-01 2.8299677330131563e-02 -1.4317427972642995e-02 5.7113616683149432e-02 -3.4274090640328492e-01 -6.8698779873438247e-04 1.5324226752822391e-02 -1.5615879580192013e-02 -1.6080809104908747e-01 1.9174324797750689e-01 -9.7959211506265676e-03 -1.5954970754449162e-02 1.6754713457288600e-02 2.4564184846001041e-03 -9.1630284217880300e-03 -9.0034009464143028e-02 6.3597802606968123e-02 1.2285702247464246e-03 -3.8594218124753444e-03 3.8769754056979973e-03 -2.1829796079766492e-01 -3.9682494107737254e-01 9.9977186211670146e-03 1.0085092370831679e-03 -1.7546803258246271e-02 -2.9704503290156711e-02 4.0968449383839561e-02 2.1175329895491691e-02 1.5047404934825548e-01 -1.4930634767025635e-03 2.7856342545177918e-04 -4.1306348243576947e-04 -2.4899995251772788e-01 2.2507760427344605e-04 6.1740861455457949e-04 8.0985805826079473e-04 -3.4896500333287568e-03 1.2190319018102521e-03 9.0281046980049450e-04 -2.5687418594001903e-02 -1.7753480304077440e-01 -1.3454548189485872e-02 -5.2928391985596832e-03 -5.8310488930783996e-03 -4.1164366230296023e-01 -7.4284176201319163e-02 -8.2508088338861599e-03 3.0599008210467540e-03 2.5858253755898716e-02 9.7692286253825353e-03 1.8123626405400731e-02 -5.1077254812356483e-02 1.7333449533852541e-01 2.1207273088145605e-04 -3.9185033072238178e-03 1.8275858243310176e-03 -4.4449445655800757e-01 -3.1965474640270088e-03 1.5352326651838907e-03 7.6657817547510186e-04 -1.2601070671905690e-02 -3.5108033140123724e-03 -9.4967710188879721e-04 1.2385427613266140e-02 1.8680223772315951e-01 6.7359023124287723e-04 -8.6037459141372812e-04 1.1264372403489632e-02 4.0186052746044110e-01 1.8739939098299523e-03 -6.6976963123701709e-03 2.5187469560218833e-03 -7.3793699403339685e-02 -7.1359723757548257e-05 -7.4062000787514168e-03 9.8410670100610401e-02 2.0103211819008271e-01 -7.2159066361185964e-03 4.2471038576420844e-03 1.3869523165732679e-03 6.6348940968307291e-01 -3.9118452481734356e-01 2.1905260588141708e-02 -8.9184831326232297e-04 -3.2377325952807109e-02 -7.5011205984430616e-03 3.9329124531243202e-02 5.3793705149549786e-02 -2.9345681037244109e-01 3.1785137059260476e-03 -4.0375265349981565e-02 2.1107383309219019e-02 -1.2673866870206038e-01 -6.6093222975371080e-01 1.2555186920889735e-02 9.2900742818840254e-03 -1.8764363653514082e-02 -9.4834389307641431e-03 6.0986933334164051e-02 7.1277205040616617e-02 -8.2646478513147903e-01 -1.6276410632227682e-02 -9.8904111187484811e-01 -1.0888615395920044e-02 5.8003550234698764e+00 5.3826576256977288e-03 1.4482693790283786e-02 2.3485759483677517e-02 3.2011405939110560e-01 8.8891726343976879e-03 -4.1556601328406662e-02 4.5239568518012831e-03 -6.1353381019499387e-02 4.0980575945785214e+00 -1.2442118080557228e-02 -5.2284285987594326e-02 -5.0921066478310656e-03 9.0985716474161138e-01 4.2178553236574927e-03 3.9726495491538216e-01 2.1267519604693641e-02 -5.0068867103473842e+00 3.8434605141558831e-02 3.8988010118668107e-02 -7.8196442734711213e-04 -3.7436458373457526e-01 3.4565601045810149e-03 -5.2823636699478538e-01 1.0401366231898554e-01 -2.3741546658444440e-01 8.3656164866974496e+00 -8.9982997816011601e-03 -5.0077595025070337e-02 1.9393313554893155e-02 -6.1237119225694032e-03 1.0449741190149530e-03 1.9217037723720138e+00 4.0633253371948619e-03 -5.1150094025494468e+00 8.6200559927858741e-03 4.4602753232945826e-03 1.8600909199607456e-03 3.5413417350675902e-01 -3.3051726092877308e-03 1.0865490297738098e+00 3.5628253128940977e-03 1.7792152837728958e-01 5.8852208933528445e+00 -6.6392712950645843e-04 1.0938583093211537e-02 3.8195902112067907e-02 6.1461592669143153e-03 -1.4340455673065661e-01 -1.5513149574586633e+00 -1.5288071434846984e-01 -7.4940107140326262e+00 -6.1807161940685995e-01 -1.7266142519419279e+00 3.8207701889299939e-01 5.3797665475251688e-01 6.3815415415078125e-02 5.9194623964413653e+00 7.8601517999958320e-02 -1.7921867744175874e+00 -4.4835192639437764e+00 1.1186151928146215e-01 1.8742394647640356e-01 3.3598862376083893e-02 -5.1934207323258241e-01 -5.0358837454849689e-02 9.6882306377947192e-01 -1.3680162673700435e-02 4.7437624545216615e+00 1.0504473738221802e-02 -2.3579428470376525e-02 -9.7384618946203122e-03 -5.4138146283290633e-01 1.8262277940020890e-03 -7.4487045432165377e-01 5.3144289445529198e-03 -6.1922174281223707e-02 -5.9144767378011238e+00 -3.0841893168212930e-01 5.0660542604372596e-02 5.3079007941436419e-02 -1.9067116675719530e-03 -2.6706012721796268e-03 -6.8686255327869827e-01 -9.9666692017576636e-03 -5.8396028394768322e+00 -1.3277613518526611e-02 -3.0749871182460514e-02 8.5735962098123716e-04 1.1149005137524254e-01 -4.8904755008674763e-02 -9.4921896331374711e-02 -6.3430594002382313e-03 1.3807968480923877e-01 -2.4662811339685504e+00 -2.5057796275533293e-03 2.2793701991373344e-03 -1.1636782494717991e-02 2.0473512619013645e-02 1.7740863960826066e-03 1.9743321125210511e-01 -1.4702404694840007e-02 -1.3752126482241636e+00 6.8345093754915310e-03 3.6844357615335704e-03 -5.6814189218961295e-03 -1.8671926424170981e-02 -3.8243597591037463e-03 3.8290592150853442e-01 -6.9103037306713733e-04 2.0658978518639610e-03 1.5835964348189083e+01 4.4095330874112737e-03 6.3056445479136823e-03 9.4285789668211162e-03 -9.4465846649997732e-03 2.8983305287277938e-01 -3.8728558182995299e-01 4.4188005267402519e-02 7.2972946532884464e-01 1.7856634261719401e-01 2.2460242684226847e-01 -1.2531617585718453e+00 3.1779968955745508e+00 7.0064314564698527e-02 4.6262055122388124e-01 -1.6623344283170338e-01 -5.2471025397022442e-01 -1.0365245795953491e+01 -8.0628667370254634e-03 5.3015615418579021e-03 2.7402681422537445e-01 -1.5702050840037309e+00 3.3379509930413664e-02 -9.6595573580457977e-02 1.4961684925100978e-02 1.2945118455318465e+01 -3.1080672299826181e-02 -1.0149010526381474e-01 1.1481762895571901e-02 -7.0019415308009592e-02 -9.0138481847463446e-03 -3.0010101877323003e-01 -4.3797423939219669e-03 -1.0248972432245156e-01 -2.4051596817873389e-01 -5.8407463832789608e-02 5.8476872373804369e-02 7.8783074437272470e-03 -4.2762361950522731e-01 -2.0399688162970109e-02 -5.1389375913057345e-01 -6.1460510993107779e-03 3.1399282423979411e+00 1.0288179830257958e-03 1.1134943571696808e-02 -3.0521260919368228e-03 1.5089099126986247e-01 4.1493221038262839e-03 -1.8390373817261096e-01 3.4855263719120955e-02 -1.2763164983957187e-01 -9.3379645087717620e+00 5.7114454457713477e-03 8.1800302595265700e-03 -2.1425894422514802e-02 -2.3883420599701676e-03 1.6786938125203432e-02 -1.5066918707126159e-01 -9.5367852757196517e-02 5.4974461206619154e+01 4.1995199403453642e-02 -3.4388942474406492e-02 -1.7076739147006151e-01 4.1482985817179674e-01 -1.2663444797174489e-02 -3.3791079352510595e-01 -6.1282688856850842e-02 -6.5786195019079785e-02 -1.2960073652164070e+01 -8.1793613297298062e-02 5.3102837970988373e-03 -5.9080782513836222e-02 1.0801727542758284e+00 -8.5467421061120774e+00 -5.0810884252328314e-01 -9.1364852946005914e+00 -4.9431279982021152e+00 1.3822075074828233e+00 7.0516333889746212e+00 -6.2882378446723139e+00 1.9045016595516014e+01 -2.9603781522794490e+00 6.1180511897419159e+00 2.0356081744790288e+01 2.8964470187551905e+00 -2.5986475020049511e+00 1.5180640038514075e+00 2.5858335740510547e+00 -2.2398550255374090e+00 6.4692217793722566e+00 8.6462315523496773e+00 -1.9316340546843609e+00 8.9038275409140812e+00 -5.1415213718235009e+00 -1.7540224186216791e+00 -8.5232244874746073e+00 5.2048678353408651e+00 -1.5752441072726299e+01 3.1338208278868924e+00 -9.4115263501659285e-01 -2.0543661049563610e+01 -5.2660273289283719e+00 -3.0414448217205461e+00 -1.7311859150659088e+00 -2.2995351797565249e+00 2.5050023588214696e+00 -7.9382803105252790e+00 8.4852559899912805e-03 3.5507358944982326e-01 8.9931280666724171e-03 -2.4584675277226338e+00 5.0224575205902386e-03 1.5498893167388925e-02 -5.8606806653456987e-04 -1.5496888191495164e-01 1.5696578950745964e-04 3.3395899481661995e-01 -2.4745953617415967e-02 -4.3202082307593148e-01 1.5247784999785603e+00 -1.4906975385194365e-02 4.4300965157870967e-04 2.3037082008862059e-03 1.2260990673074068e-02 -5.4255849070643059e-01 
      </Row>
      <Row Index="4">
        1.2160331768389294e-04 -1.2679619868404650e-03 2.3261514150021180e-03 3.4870029449490664e-03 1.2710191915410670e-02 -4.2040977985873702e-03 4.6652480396902687e-03 3.9259465390770090e-04 7.0126772373649369e-04 2.6843085814831982e-03 -8.7661866345236750e-04 -1.0541666605767417e-02 7.5703277879207720e-04 1.1326274784002974e-03 -9.0737548710481024e-04 3.8078388851472411e-03 -3.0124788363396639e-02 -1.5253360924283137e-03 6.3879338311242755e-04 1.0666262173062435e-03 4.8996172126091527e-05 1.2335961806581031e-03 -1.1530607620600514e-03 5.2448602378323272e-03 6.4261601518941737e-04 -5.4446379198106205e-03 -2.8968865775574884e-03 -4.6501445107827166e-04 4.2377896534556269e-03 2.7485022083793866e-03 -1.5275700248356607e-03 1.4519366518518026e-03 1.7524947819648608e-03 -1.6690613853209291e-03 -2.4863293587157956e-03 -1.3921018576780853e-02 6.9021648513564651e-04 3.8835715804482174e-03 1.1273400128308962e-03 4.0005228627256195e-03 1.6974585733602610e-02 -5.3262077978754978e-04 6.5946578946548748e-04 -1.4251829070439648e-03 3.9488795968050487e-03 -1.0714392280759258e-03 -9.4004541877570902e-04 3.9043055617077327e-03 6.7615703135361777e-04 -5.7863837867376568e-03 -3.2428377168039111e-03 5.4695306520499420e-03 3.7716140420779288e-03 3.8171621608999624e-03 -1.6637510348122353e-03 -5.6095691645339230e-03 1.9113749723006549e-03 -1.7029471274864648e-03 -2.1296208623947377e-03 3.7920299227147680e-03 8.6307937551713398e-04 3.7207308317204184e-03 1.4545706226634174e-03 3.1370401850416840e-05 1.8526931809444581e-02 -7.8324643007136483e-04 8.1955833370689520e-04 3.0971735346770196e-03 4.3523978807475982e-03 -1.2661240234385662e-03 -1.5799838003422439e-03 -3.4299480536366111e-03 -9.5453709270136231e-04 -1.4218321589355015e-04 4.6606190764586454e-04 -7.7129214851145989e-04 -4.0830380927551403e-02 3.2874392695505291e-03 -1.1272938179080674e-03 -1.8113950664818690e-03 -5.5412463234497502e-03 1.8325856624001836e-03 1.4306239942206422e-03 -3.0388603042013074e-03 1.0015206766932072e-05 8.2478259730220382e-06 -5.8091601717324970e-06 -1.0284490833398774e-03 4.2718938420271442e-05 -1.4723932733621582e-04 -5.0462193959180997e-05 5.3453128303626585e-05 2.2941982654337391e-04 -1.2069033453193309e-05 -2.7199311625773076e-04 -1.2931763296650800e-03 -5.9765685791793310e-04 -4.7772826393418719e-04 -1.9264922064456125e-04 -7.2035841607753781e-04 -7.5466686895581921e-03 -3.1942395263208218e-03 1.8887398338867083e-05 4.0813655673952454e-03 -1.2742578534450455e-03 9.0968680459771023e-04 -4.6160459288641098e-04 2.2212360493010230e-03 -2.3841912710334187e-04 -4.0631029097795701e-04 -7.7760265511699414e-04 -1.5852321407253678e-03 6.0120044453339759e-04 3.0520840927088060e-04 8.8639598388409735e-05 8.8737514298919962e-04 -5.3911094826239458e-04 -1.8737889173589496e-04 7.8756592168915951e-04 3.9479592122724227e-03 -3.1109834305410693e-04 -4.2469318395082709e-04 -1.1621310621732954e-03 1.3994721225808471e-03 7.0927010327886996e-04 3.0141704830481675e-04 -1.2269650487761394e-04 -2.1641350579635343e-03 -5.8918603556726290e-04 -1.1318983858775401e-04 1.2796955073677424e-03 4.7228616211967278e-03 -1.7081371398877665e-03 -1.0883121260169548e-03 2.0728437370598170e-04 3.4606333132510825e-03 -5.1305796003254217e-02 -5.1393900012806166e-04 -2.0500711342387665e-03 2.3073091889926900e-03 -7.0909401099696623e-03 3.2290159632327557e-03 1.7152247701197054e-03 3.4337255986827131e-03 -4.2983136869684246e-04 -7.3020225478323091e-03 -4.1897560241089329e-03 2.8271534879176219e-04 -7.2821632992863081e-02 1.9927185131230884e-04 -7.6510506923623814e-04 -6.4600380842705363e-04 -8.9431552495090536e-03 3.3466874747279177e-03 1.2171543091629052e-03 5.5971838832551413e-03 1.0912088234558900e-03 -2.5932608168659499e-03 1.9946482589386361e-04 1.8764889834017140e-01 -2.5482059962187061e-03 9.7649466909459370e-04 2.4898633532613700e-03 -4.7441688876492250e-03 1.5289127793628192e-03 3.5775910658990745e-02 3.3662653282473531e-05 5.9192939560414326e-03 -4.9506164956981280e-01 -2.4230342763568238e-03 -6.3972579693387932e-03 -1.8092251273752077e-02 -4.8936602491872871e-02 1.5725163334277155e-03 1.5172562215413521e-02 -5.6571888198643297e-03 -1.2322426894468919e-01 -3.7328834858181559e-04 2.9027228832145466e-03 -5.0286732353690758e-03 -4.9897318324190865e-02 -1.1011489644929748e-03 -5.4361819420386384e-02 -3.9993464382951068e-03 2.6628450475776194e-02 2.9242645869969408e-01 1.7198652846324193e-03 -1.6062161526157609e-03 1.4084603601441033e-02 1.5135646230290400e-03 -1.8861566814084268e-03 -1.9307402240406024e-01 3.1570516000792304e-04 -1.6802370808383671e-01 3.2390868939210365e-04 -3.8677245222244749e-04 -4.7626620394145280e-03 6.9592239367075731e-04 8.3013109156966809e-04 -1.1187541424159862e-01 4.0025742381360682e-04 -1.9630169375168149e-02 5.6799564533262981e-01 -4.1973443650451608e-04 -3.3162883150315153e-04 -1.0344613104593364e-02 7.6304057518059021e-05 -1.2770261744490231e-02 -2.9101890409961584e-03 -6.1361922205174033e-03 9.0615635873234623e-02 -1.2513550014845165e-03 1.0816419897651808e-02 -7.9504765155328505e-02 1.9596201600809715e-03 4.3591847982521470e-04 -4.2728387234080289e-02 -3.7472649237927785e-03 -4.1325701577315591e-02 -1.9181094732846304e-01 1.1890937752397079e-03 -7.0352143568660520e-05 -3.6284600329994643e-03 -3.3846543864741053e-04 -1.1590068770438409e-03 -1.1378723483120856e-02 1.0847042204209394e-02 -1.4857897227964401e-01 7.5648154337454900e-03 -1.2775492591842533e-03 1.7371833978287558e-03 -2.0392999260556696e-02 -1.9284635172408891e-03 8.9290148987205692e-03 1.1006892091856039e-03 1.9969821394764085e-02 8.6293373866180190e-01 5.4640848252453120e-02 2.8100887522077792e-03 7.2441050258455209e-03 8.8094116083742887e-04 -4.6082428269939024e-04 2.4412066975704472e-03 -2.9634938424675378e-05 -2.4062090318422147e-01 -2.2443326835933017e-03 -2.2548288135854355e-03 -2.9315325235256817e-03 3.7439383443469823e-02 -6.1960603081601274e-03 7.3397001587189425e-02 1.1193064623208487e-04 -1.3579179915243296e-02 -2.1222802595740120e-01 8.6676022987854789e-04 5.7639859073223970e-04 1.0251275466892362e-03 1.7486098853218557e-03 5.1813212248971938e-03 -2.1975471803155518e-03 1.0935592617765735e-03 -1.6010033276188551e-01 3.3099789730759235e-04 3.7240279517109648e-04 -1.3381376961689243e-03 -4.7127156164208095e-03 -5.7608608378143661e-04 -3.2756374470816349e-02 -5.3781755133969461e-04 -4.3712288531283366e-03 -2.9316697145226556e-02 -9.3378287372792960e-05 -1.0716297993261722e-03 -7.1256674102959661e-05 -6.5666893694832432e-03 -4.3985631456706857e-02 3.3248317875167466e-03 2.3082098886180458e-03 3.1870526050471426e-01 -5.2920880671494114e-03 -5.3117323586719320e-03 -1.9195509720843468e-01 3.7229612130306150e-02 7.5409067393324841e-04 -1.2880082424482353e-03 -5.8645144267074831e-03 4.8734382443346616e-02 1.4150425081619744e-01 -3.0640509623884316e-03 4.0739168598427633e-04 9.2297232005537910e-03 1.1714052963216315e-02 8.5079861699781986e-04 -2.4901908823562469e-03 -3.2424545531803406e-04 -1.1537330638336130e-01 -1.6402006623930654e-04 -8.8337510037000098e-03 2.6546122328541810e-03 -2.4891777525964838e-03 1.0323155993495880e-03 1.7875924505901315e-02 -7.0005384586205506e-04 1.2423740582336265e-02 -5.4748226765184427e-02 7.4856717088915281e-03 7.8237330003360431e-03 7.5336427256932695e-03 6.2184979931953106e-02 2.9786164939371723e-03 1.1954284254627190e-03 2.2557553750421344e-04 -4.2582807093197061e-02 8.0168588742660085e-04 1.2760033606804833e-03 -2.7344864758446913e-03 4.9100446317964265e-03 -1.9982408691715872e-04 3.5123246219972468e-02 8.3861703415377652e-03 1.8405611920125707e-02 1.6593673631859929e-02 -1.4843510006401321e-05 -7.1909171378831409e-04 1.6594722247395555e-03 -3.6786424694833578e-04 -2.6823995358609964e-03 4.6731427091169231e-04 -1.0451203988144121e-03 6.7437853827109961e-01 -1.3693293051068173e-04 3.5425318586106078e-03 -2.2796232389185503e-02 -2.4240245824378552e-03 1.9291158990718607e-03 6.4399997985427865e-02 2.3479830033481391e-04 1.2069445576895266e-02 3.3767684954284505e-02 3.7733794097374283e-03 1.5790890844920389e-03 2.5642938797319353e-03 6.6455832856952279e-03 -1.5847139336181280e+00 -7.1655220348758597e-03 2.1157484448891282e-02 -1.7113580471825784e-01 -3.8214808926316082e-02 -5.9358391266178236e-02 -9.9254152172858379e-02 -9.7826613185087424e-02 5.6535615678622253e-02 2.3437807069267036e-01 3.5154912647408365e-01 2.4097261345692442e-02 -2.6113001007298209e-01 -7.9459584659846080e-03 1.8522133654435058e-02 -2.5717872838011613e-01 -1.3155962299698012e-01 1.5238883786988271e+00 1.7048067800576694e-01 -8.4292626754676747e-03 -1.7647744093596884e-01 4.2721405969707194e-02 7.5391344079626804e-02 -1.9750862041979772e-01 1.2531886436338441e-01 -5.1007999697581706e-02 -2.1977744567015689e-01 -3.5148001191375522e-01 5.1876018956625303e-03 -2.7170063075078588e-01 5.6846040915459708e-02 -1.2069394296698399e-02 2.5548742760131726e-01 1.3127461654114203e-01 -1.9916617380594239e-03 -1.2229013632852942e-03 2.3747276455296853e-04 -1.5900829604560104e-01 -1.8778589380654288e-04 1.3087158351475830e-03 -1.3505432305117738e-03 3.7677871440419371e-04 2.8744450657906245e-03 -4.8955950669984344e-02 3.3881025070484818e-03 5.0207667552423924e-02 1.2740557133634114e-01 -1.7620980830573754e-03 5.5796284068681005e-04 -2.8580521481898734e-05 6.3231697308630680e-04 -3.8433662306309901e-02 
      </Row>
      <Row Index="5">
        -2.8804338176367239e-02 2.7473501251153798e-01 5.1854073600087237e-02 1.0879118400574372e-02 -4.2040977939837472e-03 4.1388036261933010e+00 1.2940713965410142e-01 -3.9618929487376039e-02 -1.2909180891659711e-02 9.7943094558093358e-03 -6.1061749306177311e-03 9.3631131497447573e-01 -5.4861962741967751e-03 -1.6514747597602436e-02 6.4213419870636113e-02 1.2442285315996671e-03 7.1176132249286747e-03 -5.0431764685606693e+00 -1.9558471310853232e-01 -6.1461466890108341e-02 9.4620932179945438e-03 2.9981536319698715e-02 -2.3627434167835304e-02 -7.6028330480696127e-01 -4.0895922084878467e-02 -3.4684213942799497e-02 1.8181405729192951e-01 -3.5440084549462902e-03 4.8715535116612696e-03 2.6712063459988520e+00 2.0293910578974061e-01 -4.7433253917263926e-02 -5.7247751139384503e-03 -1.8900242798558980e-02 -2.6295233907927207e-02 2.5083426799770336e-01 -3.6346648869051104e-02 1.6538474760220523e-02 -6.2095971765123520e-02 9.9128132221535104e-03 -8.5853976503554585e-03 -4.2006153820790519e+00 -1.5699746787461663e-01 -2.1071308545501211e-02 -1.3329449169336760e-02 -4.3838315413143827e-02 -2.6867022703784049e-02 -6.3545622087971765e-01 -5.5509963911571092e-02 -1.8696818361079171e-02 1.9980820170775082e-01 1.4320955138847236e-02 4.7516218984357192e-03 2.7770063241830889e+00 2.1334442697996892e-01 -9.1199450237219537e-02 -4.0781374303253404e-03 -1.7816249176379521e-02 -2.8158678048324504e-02 3.4873407609673435e-01 -4.1456098906818367e-02 1.1166023460162246e-02 -5.8762987580105688e-02 -4.9023263319494248e-03 -8.4562082797067888e-03 -3.9693131979117875e+00 -1.3456040739153943e-01 3.4249768080771847e-02 -1.6406211641985163e-02 -4.8306674813385769e-02 -2.9325488276764275e-02 1.0880917332255091e-01 7.4839416110766790e-02 -1.4706774511220139e-01 -4.5566942134869837e-02 -1.1042692756522143e-03 -8.0191177544666481e-03 2.1647611879041837e+00 -4.5149317003201350e-04 -1.1892119336060514e-01 2.6418339530109192e-02 8.0714289850044391e-02 1.7571735990693949e-02 -1.6145209833565559e+00 -3.8561329304346720e-03 5.0738292304465028e-04 1.4664225821156215e-05 -8.7078400916884569e-04 2.5376399496940087e-04 -3.0703335789578880e-02 -4.7672811713724839e-03 3.3160020803547852e-02 -2.0084947194315595e-03 -1.0481808747091342e-03 -2.5256152548167599e-03 2.3455386658480393e-01 3.1620659834531356e-02 -4.4772265942951139e-02 -3.6462564355959827e-02 -1.0976943969458475e-02 6.6742511185647641e-02 1.6798801756713917e+00 -4.1677813833728983e-03 4.8032108657480421e-02 -5.1831874032459702e-05 1.5783736732191356e-02 1.9569470589312354e-03 7.1388956453114361e-01 1.7691573573510311e-03 3.6276878064919818e-02 2.8760180964574472e-04 -1.1279585948733128e-02 2.6146374246580452e-03 2.0555462111167744e-01 2.8360056263128514e-02 -1.3548330764702854e-02 1.2140561631613922e-03 1.2887599397036487e-03 2.1568745962998181e-02 1.2918495630249254e+00 1.3416653531040407e-02 2.3376506617803300e-02 6.9296135766440947e-03 2.8319546131408135e-03 2.3081355829537315e-03 1.0265500505011989e-01 1.1098643950141512e-02 -2.0870556676232610e-02 -9.2419262670820346e-04 1.7422911061877643e-04 2.2419851517148204e-02 -6.3614814046104584e-03 9.4829822438532663e-02 -1.4422261291364019e-01 -2.2823970920789000e-02 6.1861940935030724e-03 3.9030242686581583e-02 2.5481262197377132e+00 1.4752469602420604e-02 2.6431869230158611e-02 2.3885370549614343e-02 1.1312559597368216e-01 2.3056473478738626e-02 -9.0425423653680070e-01 6.3796479720616694e-02 -9.1684152455341117e-02 2.1485510786890571e-01 -1.7796071217262011e-03 1.0167143029374665e-01 3.1645839196055525e+00 1.1010908636955516e-01 -8.7028946256074491e-02 2.8814910896487467e-02 1.2769968060786080e-01 3.9719061490569807e-02 -3.0759098127300188e-01 1.5116333347315956e-02 2.3482912437910564e-01 -3.4432176084425462e-02 -2.2794348810530209e+00 2.1634353305185788e-02 -1.8093153294757486e-02 -1.9934275523250111e-02 -8.5184493527793581e-01 -7.1414723094613830e-03 -1.4354695514384193e+00 -9.9991189063652897e-03 1.0862711781441148e-01 -9.8113821159459462e+00 -6.5151482959853041e-02 -3.9925821501461289e-02 -1.5343270586224023e-01 -2.2934370744562287e+01 1.3563705989705854e-01 1.1629895489000717e+01 -7.8590149349157334e-01 -1.9658013088438508e-02 -3.4612949959288236e-02 1.3227055850808317e-01 -1.5048753907573875e-02 -3.4847238023723777e+00 -4.3129976831138506e-02 -8.6526557826977903e+00 4.5993767235516891e-01 2.9145770181972930e-01 8.9186485404931659e+00 2.9506440813212997e-01 -1.5909490827034478e-01 -8.3518241930592652e-02 2.4507145883719406e-01 1.0403168320322828e-02 -1.1363652463405757e+01 -1.1963304696911142e-01 -3.2129685302963935e+00 5.7588670900628747e-03 -8.2876523405683855e-03 -2.5281594565853459e-02 4.0765949053828532e+00 3.5261101738633643e-02 4.8782531470909305e+00 -2.2969010017611834e-02 1.9556199874725355e-01 -3.5230546858322498e+00 3.8658955162746644e-02 6.5395528034191408e-03 -1.5424151345845458e-01 2.8034386901814548e-02 -2.8759629222900887e-02 5.0812363512164893e-04 -4.5465670329352281e-02 -5.3251293604163266e+00 -8.0689680540585451e-02 -4.5510796128641928e-01 -3.1282776597436257e-01 -1.9380562977661631e-01 -4.3542647435409809e-02 2.5754922688545978e-01 4.8116794338007252e-02 -2.3199300462679182e-01 -1.2071019380088273e+01 1.8346578207275321e-01 -2.0487227710024314e-02 1.4106914381341562e-01 -1.6644844648908110e+00 -3.0845515664232687e-02 4.6870587467024549e-02 5.4844791213352284e-02 -2.9087985958735949e+00 -6.0901555848066558e-02 1.2006531748133686e-01 1.6199248308256031e-02 -4.0849690703085384e-01 2.6824198536510704e-02 -4.6687373723142578e-02 -3.6633680833853294e-02 -2.4252795621550022e-01 5.6083421094696178e+00 -5.0881086800073039e-01 -6.7451168623638091e-02 -5.3862883508295933e-02 -7.4802474982037265e-02 2.7869885035255747e-02 5.7468897401009222e-01 3.8310779576584386e-01 2.4605839991921243e+00 -1.3565486009612937e-01 -1.2596640965024064e-01 -9.4880345534982397e-03 -4.2379151657800316e+00 1.9422831293343186e+00 -6.6296392677594840e+00 -7.4027379629293774e-02 1.3721818897866389e-01 -7.2324875264930597e+00 -7.4141470493403319e-02 -2.5553525190672710e-01 7.0894764430396440e-03 1.7973147228809000e-01 7.6610322945557113e-03 6.3985050549929864e-03 -7.1050281475190546e-02 -2.1996274345010534e+00 -3.0119184342007263e-03 1.0264240587086221e-02 -2.9425071455936258e-02 -2.0799955993797803e-02 -4.5440838724004132e-03 4.8808858734550553e-01 -1.6129267238911282e-03 -2.6484321024057733e-02 2.5408254520637712e+00 -7.5211324445116868e-03 -9.4192812526307512e-03 -1.2944528371219399e-02 -6.1347055487268909e-01 1.3207394633052227e-01 3.1049640134320455e-01 2.4669517741206326e-01 -6.5911364893889868e+00 -5.8824419384661264e-03 9.5601472934987441e-02 -3.2174099295906045e-01 -2.1869788538362069e+00 -2.0094405310924435e-01 1.2000111352652532e-01 -8.7734065842925729e-02 -2.4807675081455094e-01 2.3077007827099010e+00 -1.9876568260378935e-01 3.6957858871011018e-01 1.3911306870603102e-01 -4.8501683564664189e-01 -1.8182579059738649e-02 -1.3978783879557199e-02 3.3206365519889841e-03 -1.0605691696791837e+00 6.1768863933470142e-04 -3.8591302570190944e-02 -1.2143576925748967e-02 -1.1989004250363866e-02 -1.6522638195996045e-02 -5.1764893952297872e-02 7.6120423570106288e-03 -5.9313569023592833e-02 -1.3694163456124784e+00 7.1817825330546370e-02 4.6679616386668066e-02 6.5985635570222995e-02 1.1613402245442403e+01 2.9445661027506609e-01 -4.1266134589188042e-02 5.6666044546806460e-03 1.0115090748279272e+00 -1.0585698237968760e-02 -2.5958588537268221e-02 -2.6078584940398608e-02 -1.7263991809216539e-01 4.7813526072917167e-02 -1.5419765700678667e-01 1.4980764907712565e-02 -6.6911286369526077e-02 4.2140857181611864e+00 2.9800238835444914e-02 -2.2642730460863764e-02 -4.0340379902088608e-02 -1.5921901936094299e-01 -1.7568540306476810e-03 -9.3662849286444971e-03 1.4921119160527851e-02 7.0300616542399439e+00 3.9781991063463362e-02 1.1265399120616082e-01 8.5443675524325746e-02 3.5242887324918842e-01 -5.0091947558421612e-02 -3.9811278297909380e-01 6.7530334704647352e-03 5.7819209925796144e-02 -7.9533550576155676e+00 -1.4441413153183547e-01 1.0432533203821981e-02 3.9350135121157259e-02 -1.3178082360129931e+01 -5.5064383746563539e-01 -5.5314631577086670e-01 -2.3293089651082077e+00 -1.5164763118291376e+00 1.2148385670255344e+00 2.6399780293141961e+00 4.1059424225378010e+00 2.1985309321595077e+00 -1.5009193648628325e+00 1.1258733514362540e-01 5.0187578543399018e+00 -4.5580550624891103e-01 -7.7733388795568317e+00 4.4222165068547503e-01 -5.0693192616294089e+00 5.9613604437051286e+00 -1.8341208321918117e+01 7.5597323398019445e-01 2.8495092395982624e-01 3.1034407427832402e+00 -1.8956765855646154e+00 -1.1423368274906682e+00 -2.7416117624374339e+00 -4.6736641773070726e+00 -1.9964109947417055e+00 -6.5520295453297239e-01 8.5217712315991925e+00 -5.4338552968868585e+00 -5.2645818408484235e-01 -8.1180263227361138e+00 -1.3321883441832512e+00 5.7829849880197290e+00 -5.5984911283374306e+00 1.3986117852688615e+01 1.6483466114267015e-02 2.8024822925115905e-02 1.9178801462626766e-02 -9.4276530295634575e-01 1.0145164400494833e-02 -2.0290076116009317e-02 -4.4090816447617670e-03 -8.0680965933718068e-02 1.7378303375929077e-01 2.2414719693183266e-01 -7.3110931089817033e-03 -1.2737510642342853e-01 1.6537003501538698e+00 1.0639740573848633e-01 2.1497198701830825e-02 1.3307551977537330e-03 3.1630651890806749e-01 6.9747894292946855e-01 
      </Row>
      <Row Index="6">
        -1.9665789938862366e-02 1.2501608777578851e-01 5.9169600330304988e-02 9.4693796333640834e-03 4.6652480530854253e-03 1.2940713980668350e-01 1.4720220073388433e+00 -3.9145329130443980e-03 1.4267685619137563e-02 1.0850586146685215e-02 6.6165553194672622e-03 -3.3295696217261507e-02 8.3798489908160967e-02 -3.6927597202355986e-02 -1.4484956219801165e-01 1.7006875880920092e-02 -1.0111424879047642e-01 -5.2861640003375107e-02 -1.7036540200651455e+00 1.1346733053266611e-02 1.6644417807612708e-02 4.9930943968362659e-02 5.8624795140067812e-02 -2.3361502072496876e-02 -1.4924078262584117e-01 -5.9007959175703548e-02 -1.2368898535440369e-01 -2.0634850174756636e-03 -4.7632447323206822e-03 1.2903035164382676e-01 1.6313268573601820e+00 1.9316190612420792e-02 -1.4853722618554027e-02 -2.0958784390429162e-02 7.1420673519847211e-03 -3.5724544592677177e-01 5.2891916071869396e-02 1.5812704404781636e-02 6.7496932275147359e-02 2.9855409262810467e-02 1.0171002515959893e-01 -4.8854121669555071e-02 -1.5134573029414446e+00 -4.9503777608109090e-02 2.9248345780288957e-02 -3.3204358788594714e-02 4.7025341504675078e-02 6.6125545821319776e-01 -1.5744048236240732e-01 -4.9494971918878805e-02 -1.6225271175173456e-01 2.8329257912230954e-02 -3.6055204621492807e-03 1.4688331225876075e-01 1.4347005169135463e+00 -1.7421678808251784e-01 -1.8356980001854088e-02 -2.1719703529045786e-02 -1.2881860380086013e-02 2.2048735196245395e-02 3.1181303076405639e-02 3.8708068100506386e-03 7.8835483243777121e-02 1.0983179891957739e-02 1.0319752743820659e-01 -4.3924380811069336e-02 -1.1868588043238768e+00 1.2786803974559291e-01 3.1583915238153196e-02 -3.6581620820229824e-02 6.1194334042450782e-02 -2.6276550291457124e-01 4.2934386335870448e-02 -4.3317346354327338e-02 -7.4249671592622357e-02 1.3233951515851938e-02 -1.2984406242419064e-01 -2.5971887840282412e-02 3.3464300485132603e-02 -1.0731607657003284e-01 -3.4851564092290760e-02 6.0557706404143277e-02 -7.2629632380423192e-03 3.0980650594510450e-01 -3.2201977380135888e-03 -9.5314100966291566e-04 3.9052445890962531e-04 -1.8177591495103229e-03 -4.9727603036119885e-04 -2.6166376038975307e-03 2.0530305651340543e-02 8.9821849594744485e-03 2.1183348526694745e-04 -1.1515607147209693e-03 1.4284102418061148e-03 1.9379860004024252e-02 2.8375886782212437e-02 4.3775828791785432e-02 5.0713846974045906e-02 -4.3249526860860144e-03 -6.6424883587226174e-02 -1.5757886551979244e-01 -4.5509962139272907e-03 8.8021601162699525e-02 -9.0395881172222747e-03 1.0596684429846598e-02 6.3559906555762814e-03 -4.7617008334199440e-01 -6.8613062447176812e-03 -3.6491093331642716e-03 -9.0448162393703610e-04 -8.1068921331047539e-03 7.0816289998737095e-05 1.4430485664086008e-02 1.4401207322531479e-01 2.9567973399618808e-02 -2.5930531502299341e-03 -2.0752416827254754e-03 -2.8781947067949773e-02 -7.5378693818613840e-01 4.6909470774793693e-03 -8.7349940747829258e-03 -7.5534475200341794e-03 -9.4424519246660843e-03 1.5503964379036464e-03 1.2472844405855516e-02 9.9373631029731513e-02 1.5602664324519289e-02 -2.7522496790741841e-03 -3.6173463569184267e-03 -3.4148604722276599e-02 -1.3550888524122584e-01 4.5829690563729431e-02 -2.2587571427686221e-02 -1.0923607812253169e-01 -1.9468463521031154e-02 -2.2050467198582699e-01 -6.9674315261326364e-02 3.9135929124977731e-01 -2.1187908963813840e-02 -5.0792318312874132e-02 7.8266153048740600e-02 -2.8032273253398077e-02 2.0675794518732005e-01 -2.8422230053452846e-02 -4.4086827168047904e-02 -3.4605656237705285e-01 -1.0683789884403438e-02 -3.1721963978092621e-01 3.4102823101534285e-02 1.0042211454162624e+00 -7.5865940389812314e-02 -7.8536993434449698e-02 8.5489429694751595e-02 -4.4462063107261827e-02 -4.4111197399979130e-01 -6.8411256425604527e-03 -3.2389785730335330e-01 -6.6337472782490067e-02 -2.2212672973000736e+00 1.8648140499476100e-02 1.4232900780234684e-02 -5.9038272968885870e-02 -1.9646173256157551e-01 -7.2596249107168442e-02 -7.0489788568202116e-01 -4.8729166746493413e-03 -1.5806463787879907e-01 -5.3108579471481647e+00 -5.8482729822624091e-02 -4.8222642363194623e-02 4.1459397719255664e-02 -2.0320949214299620e+00 -3.2838629398384535e-02 -1.7485998844981982e+01 2.2548523829427677e-02 8.1580704662261638e-01 5.1257125969468326e-02 -3.1050467879087162e-02 1.2445242795640787e-01 -2.5016763153891128e+00 -6.5366087573456230e-02 -5.1993942466560981e+00 9.7527190983914880e-02 1.2779983236081438e-01 -1.3799663319446893e+01 -6.6154022895465792e-02 -1.7439479160392146e-01 -4.3655138428526134e-02 1.2186952655425409e-02 3.3043886586895693e-02 1.0048541270375729e+01 -8.6081800746148573e-02 1.9161988951100284e+00 -9.5573666688403419e-03 -8.0926793175300805e-03 6.1605521333921564e-03 2.0887886334021539e+00 4.0324345115188648e-02 3.4304480047593797e+00 -2.2052894479229965e-02 2.9709076681502172e-01 9.6334967142520860e+00 5.7351162680540566e-03 5.1986754080859121e-03 1.4660006349383603e-01 1.9182001972740614e-02 4.7622043701215727e-02 -2.1649842611868308e-03 -6.4662401757025506e-02 -7.5761906980193316e+00 -8.4897933719837670e-02 -9.1594057511057869e-02 -3.1867279542196147e-02 -1.1413767525404417e-01 -4.7158693070117261e-02 4.1410814448483224e-01 -1.1198267627724467e-03 4.5028327181721822e-01 -1.5997450173603852e+01 -2.4430366049772001e-02 5.9312120301276944e-02 1.2175689285575270e-01 3.6119411905748411e-02 8.1161257633634992e-03 6.2181563045282218e-02 -8.4848738606307303e-03 -6.4242506328695015e-01 -8.0092247449320420e-03 -5.1232130784366420e-02 -8.0830459712820657e-02 1.7118633566557948e-01 7.7372937616335263e-03 1.1436741466448819e-01 -7.5525977690048818e-03 7.6641098286800824e-02 -1.3355996492446934e+01 1.8370619832467217e-01 -7.3435591492178959e-02 -6.1386128785080540e-02 -3.8277731586113806e-03 1.2595007315805914e-04 -2.2210715101837142e-01 1.8772577771702251e-01 2.1602923033908681e+00 2.9665135805514720e-03 -5.6123648977658060e-03 4.2447774033144592e-02 -8.1652777067630478e-01 1.1171596005140305e-01 -1.3834576984448841e+00 1.4730580604408156e-02 2.3624115462064574e-01 -9.9022079623565560e+00 -2.1587493703106433e-02 -1.2740716395138574e-02 -9.8210123051901355e-02 2.2363241620905763e-02 -2.3840928456880142e-02 -6.6751857515561591e-02 -3.2513951246890482e-01 -1.1544569958261718e+01 1.2351326677636991e-02 -2.1544863685712012e-02 -7.0638803497185737e-02 6.4879562047599440e-02 -1.1372210102256906e-01 1.2544083202397356e+00 6.2315562338044472e-03 -4.2666487731882669e-02 4.8102324128941376e-01 4.8601924695391215e-02 2.3691674119735745e-02 6.6566681030479025e-02 5.9094290236093283e-01 -1.8038715902860464e-02 1.5251007125291760e-01 -1.4668753143464336e-01 -3.2174221528555336e+00 -2.2128204397241480e-01 6.9441229633411095e-02 3.0905413410096960e-01 6.1853063647482465e-01 -5.3897270318455648e-02 3.5759363921236664e-01 -7.8246115324836801e-02 -5.5881696503551748e-01 -6.4171897148729329e+00 -1.3691871015656315e-01 1.6923598899417969e-01 -3.6129537820513591e-02 1.3996386126143334e-01 2.9615652946194171e-02 -3.2222907503144937e-02 -4.4351714248735366e-02 -6.9231101659636352e-01 -2.9128454164009610e-02 -1.3594933979170962e-01 -4.6344877253969852e-02 2.9891881458493863e-01 2.1245205055056837e-03 -1.9539433205797291e-01 -2.6038929072446718e-03 -1.9130001034775956e-01 1.6698414326517650e+00 -8.6332822067111348e-02 9.0422094785839957e-02 6.0922287775415196e-02 2.8507967753738122e+00 5.9570007421343441e-03 7.0271304546736246e-03 3.7857434151210678e-02 1.9409348702049698e+00 -1.7939091484561465e-03 1.1030544682747112e-02 2.5831979433567645e-02 -1.5143960569524789e-01 -7.5842167774938527e-04 -6.2042238237225955e-01 9.5755487193122102e-04 -2.3057345925891617e-01 9.1122781107125164e+00 -2.9130733456700964e-02 -1.4022094831491855e-02 -4.9992942019528044e-02 -1.6001697134467197e-02 1.5347780572461233e-02 -7.3138442649988478e-02 -1.0302924117888212e-01 3.6655468094778598e+00 2.6510895253609862e-02 -2.1419175418098790e-01 9.5364679675988134e-03 1.6382919719079381e-01 -5.1331759914005570e-02 -1.0586087900912871e+00 -9.3283716009427073e-03 -2.3845846692979045e-01 -8.7039312794879038e+00 -1.4140721652098162e-01 -2.9691162805038918e-03 -2.7115983316902181e-02 8.5209141247575793e-01 1.1389077675267127e+00 -4.7906179712512653e-02 -1.8279090797126285e+00 2.0385559714059411e+00 -5.3943214048963517e-01 1.5226478592986101e+00 -2.4690000868351261e+00 5.2859808339730807e-01 -2.0172148768674383e+00 -1.1791115807253489e+01 2.9402634011615603e+00 -6.5721397183189201e-01 -5.8767069838745556e+00 1.8562732596793735e-01 -2.0731941397080389e+00 2.8555042648321949e-01 -2.7885937597379540e-01 -1.0867223186293635e+00 7.6254194649622651e+00 1.5606653276020785e+00 1.7646886048842134e+00 2.4136440642076740e-01 -1.6439368781354158e+00 2.6589613231494948e+00 1.3909369875040944e+00 1.9405997096800331e+00 1.5252904621604952e+01 -3.1325356357052736e+00 1.6955582971391286e-01 -6.3812291539250054e+00 -9.3666827510451522e-02 2.4201123328375203e+00 -2.9837263705510608e-01 1.2621132237320154e+00 -2.5780069748323003e-02 -8.3794167289217292e-03 3.8387795789746548e-02 -5.9304380390558649e+00 7.8609939820151690e-03 1.3854807600013404e-02 2.0512969182357593e-02 -4.9508754557700256e-02 1.1755672354708584e-02 8.3626823720369559e-01 -3.6257176157209747e-03 -7.3239920456489815e-01 4.2625121902943741e+00 -6.8377561997469083e-02 2.5967152532953560e-02 4.7984411061659810e-03 4.9775236492905606e-02 -1.6141820647775844e+00 
      </Row>
      <Row Index="7">
        4.5125424398122756e-03 -8.0186375052414577e-02 4.3496921004544976e-02 -2.5668335625589123e-02 3.9259474809584700e-04 -3.9618929886260264e-02 -3.9145326256274718e-03 5.8960471798173462e+00 -4.6956741130281983e-03 1.2480727591547690e-02 3.0276801687188656e-02 -1.1929014387167451e+00 -3.2885206163740577e-02 1.3958621631308774e-02 6.3725471871304062e-02 5.1906082422261801e-02 -8.6192283238526901e-02 2.4628178983752386e-02 3.7580914791924241e-02 7.6082797324473939e-01 -2.1848634802875966e-02 -3.0889411196348263e-02 -6.2917484646151656e-02 -1.8227468791569106e+00 3.6055143284908706e-02 -5.7341837136948924e-02 6.8136766006255248e-02 2.3133739644784129e-02 4.0720926346198266e-03 -4.2984716953189117e-02 -1.7361557564299801e-02 1.2382999364549288e+00 1.5276451011892570e-02 3.7320443381718034e-04 2.1206871105538067e-02 2.7514780611362355e+01 -2.2864653674371559e-03 5.2648910128629427e-02 -4.8664606785697055e-02 -9.3666460955593417e-02 7.5672113765630031e-02 4.0028020034154850e-02 8.3275387646730512e-03 -5.9690098965694682e-01 7.4301417418294421e-02 2.8377854906500351e-02 1.3087770022143147e-01 -1.6553015963444849e+01 1.5335426917568442e-02 -7.0614234350567309e-02 6.3678314420279186e-02 5.7188537186383670e-02 4.8965363508673325e-03 -4.8285690309471316e-02 -4.2849297366685996e-02 -8.3993939057333087e+00 9.1500904541333885e-03 -3.5286808947062095e-03 -1.1340531871410795e-02 -7.1069764257532664e-01 9.5684012246925222e-03 5.4975441684281159e-02 -4.8097967213118001e-02 -1.4173412397238866e-01 7.9043922783534892e-02 4.4728314169524788e-02 2.5175054174851719e-02 2.7497033336610381e+00 7.8311110102309039e-02 3.7839099055726709e-02 1.5956987395487571e-01 6.9163416346032447e+00 -6.1473508327329035e-02 -2.2693001269784296e-02 2.1967866560614807e-02 1.4154053175120951e-01 -1.5821737565567129e-01 -3.5901392709633925e-02 -1.0547793585625125e-02 1.0262478768277208e+00 -7.9294888256734378e-02 -7.2957745487981160e-02 -9.6478176779657393e-02 -1.7169766934137458e+00 2.2370947262486934e-03 3.1304306527083517e-04 -2.9692068658187013e-04 -7.8842400070229385e-03 -4.3018088447439084e-05 1.9251582380402427e-04 -4.5500796254255033e-04 -1.6226362125527491e+00 4.7296460947414149e-04 8.7788312771700980e-04 4.3107013042134792e-03 2.6586147370450175e-01 8.3412325653832338e-03 4.8820301042534174e-03 -9.4255250513482353e-03 -1.6923335282007290e-02 -4.0955680066104554e-02 3.7967906030265966e-02 7.1910230844583999e-03 5.3041658372645872e-01 -4.7929477282583496e-02 -1.8660766155753492e-02 -1.2421995043915414e-01 4.8146137217546441e+00 -9.8185141658214039e-03 4.2362575686637829e-03 2.9655266115314136e-03 3.6141235452286480e-02 1.0880843093519568e-04 -1.1644206536540466e-02 -2.8100923077966937e-03 2.7116406648559295e+00 -9.7127192850852574e-03 6.3841743811918475e-03 -8.1585891389811746e-02 -1.7175282425492320e+00 2.5734618546709720e-03 3.1629076188933818e-04 8.2691247190923439e-03 -1.3476936053855235e-03 -1.4761958938295167e-03 -3.6021328640861040e-03 -5.9887860672772674e-03 1.0550134313977817e+00 -2.1342434346042355e-05 5.4561125904163650e-03 -7.3698826473359881e-03 1.5645730294266755e+00 -2.0065804945082533e-02 -1.1406142273542030e-02 4.7863694079042396e-02 1.9066848142692971e-01 -1.2470523446659681e-01 -3.6221067397333065e-02 1.6830788348374953e-03 2.7270979339493735e+00 -1.3181271489212082e-01 -1.3563504614136454e-01 -2.6565608836143784e-01 -2.7303886539042210e-01 -5.6485934493598622e-02 -1.0745469941275232e-01 1.8542743710867882e-01 2.8151162410694641e-01 -2.4342652100778284e-01 -6.6974969284628150e-02 -7.3210644477192891e-03 -1.5657084896611546e+00 -1.7509490027326802e-01 -1.6865363194864003e-01 -4.2335718836742198e-01 7.9378849234065054e+00 -3.2533162805367952e-03 1.1924375580506914e+00 2.2770546066515872e-03 -3.9871553125358616e+00 5.6981011540966478e-02 -7.7722360227652831e-02 -7.3858995871357563e-03 -2.2688854976023176e-01 -2.5726558738102541e-02 2.4591250465618641e-01 4.2059112254792547e-04 -2.2048600640034579e-02 -3.1672780694859519e+01 -2.0489028819292457e-01 -6.2268467648069280e-02 5.4287090616079892e-02 4.3455394597513362e+00 -3.9273907740871840e-02 1.1604556798417178e+00 2.0934601943793929e-03 -1.6959113386283009e+00 8.1834727106329594e-02 2.1642836874232137e-02 -2.5672325554273942e-02 -2.4124650605133624e-01 1.4537745432367619e-02 -8.2697830326261323e-01 2.0756283854397178e-03 4.7916711188372152e-01 -8.1868722619154752e+00 -1.0328737833461009e-01 1.3111030040612939e-01 -4.8227428458896021e-02 3.7727176655604280e-04 5.3427988930883387e-03 -1.4160405967929618e+01 1.2044637812494170e-02 -5.7411459067547721e-01 5.4064997381357414e-02 -2.0206167939516496e-02 3.5572879978148348e-04 -2.2573457140125627e-01 -1.2901686604703548e-02 -2.0689064551200560e+00 3.1508795060492889e-03 -2.4162877806082958e-01 -9.5541597186609906e+00 -3.5731433718004454e-02 3.3272041288926323e-02 5.3617297121636869e-02 3.2884061151874040e-02 1.0451566825999992e-01 -4.5836782714406321e-01 6.0201763547882026e-03 -1.9001809679974997e+01 -2.7727198690946686e-01 1.1800563184259711e+00 -7.3570999937095927e-02 -3.9299647646527780e-01 -1.9161510258713873e-02 1.8973505008419789e+00 -5.7003767130628269e-02 -1.4879523034597686e-01 -5.7796917020918670e+01 1.5298715532890781e+00 5.0525470513384629e-02 -6.4580705375821945e-02 2.5311400098131873e+00 -1.2944430564492227e-02 -4.2134770141237299e-01 8.2645313197577050e-03 3.6725731809841480e+00 -7.4548911189550232e-02 -3.8942090229957725e-02 -1.4753002912741828e-02 -2.0464351362464483e-01 2.5093342795417988e-03 -3.3384981140386039e-01 2.3754587904992193e-02 2.5402080248698544e-01 -5.6409958409125011e+01 1.8948112616227458e-01 -2.3364842483907425e-02 1.4155590365025214e-02 3.1965891619067932e-03 9.2651053118299274e-03 1.9063029873928983e-01 8.6258601549015022e-03 4.0271555398774055e+00 -2.0148100137161180e-02 -2.5051270930368970e-03 -4.8278970743255434e-04 3.3461744332932059e-01 -1.0473263119997606e-03 9.3269051824559845e-01 7.6850998453138544e-03 -2.0364724722169608e-01 -1.8000028896869548e+01 2.3480404411020374e-02 3.3075698131131825e-03 2.6850048861024003e-02 -1.5711907878013208e-03 1.8449725156246708e-05 1.5500931464030138e-01 6.8286431093563908e-03 3.3550819092182465e+01 7.5209295768228759e-03 -6.3919097414504725e-03 -7.6553557613747766e-03 -6.3170930244450682e-02 1.8137400268220306e-03 -5.2470040507597293e-01 1.3676188627655961e-03 -7.0977876996400888e-02 -1.6885964199762803e+01 3.8196322418853769e-02 7.4740255946504535e-04 9.0773194197922985e-03 6.8928041957893836e-03 1.8323509417057458e+00 -2.5168125839063027e-01 2.7767333938822816e+00 2.5853391623720938e+00 -3.7345180627242858e+00 -7.8624640988255541e+00 -6.3384737726968154e-01 2.7714237243661238e+01 9.4541757884573940e-01 -2.3730462299322902e+01 -1.5340507506725176e+00 6.5058541571220019e+00 -4.5079759448470277e+01 1.5291541782065994e+00 -6.2214469847935971e-01 -1.0945865632317251e+00 -2.5491883799149875e+00 1.0298322790232795e-02 -8.2372132610485121e-02 2.5842953445539045e-02 -4.6118904413022506e+00 3.7761164608866457e-02 2.8476177594746327e-02 -4.8683502916133659e-03 2.0558248361077625e-01 2.6831664308934518e-02 1.6839094498510809e-01 1.1736126882843816e-03 2.9229783726979569e-01 3.9977812216945011e+01 2.0728189474485159e-01 8.9174585536738640e-02 3.6473543524755195e-03 -1.0328755036925554e+00 -9.8041272618518249e-02 -2.4530603737023360e-01 1.6941162893142903e-03 4.6524254246705077e-01 3.9115650048188275e-02 2.8163036981905878e-03 -2.2581094447184124e-04 -1.3980007989939708e-01 7.9159258557922781e-03 1.1060084665010184e-02 -3.0199851415193241e-02 2.5445176797248875e-01 3.2389656097044288e+01 -7.9106646807082445e-02 -2.5150770662728097e-02 4.2331103118702834e-02 -2.5737297819061681e-03 -1.0911239000110644e-02 -1.3774937454051039e-01 -8.4245294958478989e-02 -1.2442840156874801e+01 9.4231173875502838e-02 -1.4565988735067608e+00 9.9110336945804289e-02 3.3746090024747144e-01 -4.9765014985118650e-03 1.1322849381874738e+00 1.6160111991957299e-02 2.4675290895121754e-01 9.6520713277725321e+00 -5.5281045597406642e-01 6.1821500944616942e-02 -7.2968693067676074e-02 4.1868403903111391e+00 -8.0934327518099014e-01 -3.0135818582973313e+00 -5.4039869907702247e+00 -4.6339361040637641e+00 8.3175673507597079e+00 2.1995392044511544e+00 -1.3158465903005578e+01 2.8562127199823564e+01 8.6670151622429508e+00 4.9810871040894348e+01 4.9254670714436131e+00 4.7608420269581373e+00 -1.8763412742824471e+01 4.7837927144875114e-02 -2.5342694478934124e+01 1.1221715001583847e+01 7.2612840052071572e+00 2.6512043120175282e+00 1.6295168767922135e+01 8.1046767851752950e+00 -8.7763229910342488e-01 -1.2327450512507228e+01 -1.0351603492671462e+01 1.2553659471323950e+01 -8.5272239590591070e-01 -7.7653088302295368e+00 -7.0487597203498737e+01 -6.5142116104038941e+00 1.8899294031803331e+00 -1.8527250395623923e+01 2.7022477139676866e+00 2.4632283640657832e+01 -1.2362596611656194e+01 -6.3696151034719151e+00 -1.0250539548997345e-02 2.6179946311962521e-01 3.9808266940931803e-03 2.8944728032739093e+01 1.9622674465334455e-02 1.4549543663351344e-02 -3.1944085555183598e-03 -1.0431726512929473e-01 -8.9417180025497429e-04 -7.6533500262319987e-01 -1.6073935093319752e-02 6.8055814211157983e-01 -6.4348381320862176e+00 -3.4474864750755108e-01 1.4331593685527493e-02 -1.1786724593012066e-03 9.8591030207626495e-03 2.3116518202555010e+01 
      </Row>
      <Row Index="8">
